svm_type c_svc
kernel_type rbf
gamma 0.012500000000000001
nr_class 10
total_sv 568
rho 0.36743047106270726 -0.042804715188928255 0.43494318242461605 0.14347732280024006 0.39558234845727691 0.29029507876787236 0.25002252812267373 0.19148663972180147 -0.24103364125362978 -0.36702040379452761 0.050073688138381867 -0.20142170366015549 0.14264572276495149 0.19386897256001251 -0.19140280408149749 -0.09521770580518199 -0.21107960481207971 0.62440566903001338 0.36194669622261239 0.61327690197576312 0.58484872170832491 0.28427140253832239 0.31245165931003477 -0.093669166442393467 -0.17867109909147993 0.0011233481837398867 -0.21156460987748785 -0.51317889948874496 -0.24551143780319409 -0.52440457002904506 0.33091444312914431 0.14398409858758091 -0.054845128582889716 0.032107799468115754 -0.30282210699317125 -0.19521455334776766 -0.41299746479464589 -0.18127206862379341 -0.40915341483016071 -0.19286362437272223 0.049539778283791545 -0.19633365787962842 -0.011713010289676412 -0.18106709070613358 -0.30277953621756593
label 1 2 3 4 5 6 7 8 9 10
nr_sv 29 54 35 64 75 63 69 46 59 74
SV
0 0 0 0 0.3776182880917156 0 0 0 0.1700374037658125 1:-0.182237 2:-0.182237 3:-0.182237 4:-0.182237 5:-0.182237 6:-0.182237 7:-0.182237 8:-0.182237 9:-0.182237 10:-0.182237 11:-0.182237 12:-0.182237 13:-0.182237 14:-0.182237 15:-0.182237 16:-0.182237 17:-0.182237 18:-0.182237 19:-0.182237 20:-0.182237 21:-0.182237 22:-0.182237 23:-0.182237 24:-0.182237 25:-0.182237 26:-0.182237 27:-0.182237 28:-0.182237 29:-0.182237 30:-0.182237 31:-0.182237 32:-0.182237 33:-0.182237 34:-0.182237 35:-0.182237 36:-0.182237 37:-0.182237 38:-0.182237 39:-0.182237 40:7.107246 41:-0.182237 42:2.247591 43:-0.182237 44:-0.182237 45:-0.182237 46:-0.182237 47:-0.182237 48:-0.182237 49:-0.182237 50:-0.182237 51:-0.182237 52:-0.182237 53:-0.182237 54:-0.182237 55:-0.182237 56:-0.182237 57:-0.182237 58:-0.182237 59:-0.182237 60:-0.182237 61:-0.182237 62:-0.182237 63:-0.182237 64:-0.182237 65:-0.182237 66:-0.182237 67:-0.182237 68:-0.182237 69:-0.182237 70:-0.182237 71:-0.182237 72:4.677418 73:-0.182237 74:-0.182237 75:-0.182237 76:-0.182237 77:-0.182237 78:-0.182237 79:-0.182237 80:-0.182237 
1 1 1 1 1 1 1 1 0.86676239228826979 1:-0.112509 2:-0.112509 3:-0.112509 4:-0.112509 5:-0.112509 6:-0.112509 7:-0.112509 8:-0.112509 9:-0.112509 10:-0.112509 11:-0.112509 12:-0.112509 13:-0.112509 14:-0.112509 15:-0.112509 16:-0.112509 17:-0.112509 18:-0.112509 19:-0.112509 20:-0.112509 21:-0.112509 22:-0.112509 23:-0.112509 24:-0.112509 25:-0.112509 26:-0.112509 27:-0.112509 28:-0.112509 29:-0.112509 30:-0.112509 31:-0.112509 32:-0.112509 33:-0.112509 34:-0.112509 35:-0.112509 36:-0.112509 37:-0.112509 38:-0.112509 39:-0.112509 40:-0.112509 41:-0.112509 42:-0.112509 43:-0.112509 44:-0.112509 45:-0.112509 46:-0.112509 47:-0.112509 48:-0.112509 49:-0.112509 50:-0.112509 51:-0.112509 52:-0.112509 53:-0.112509 54:-0.112509 55:-0.112509 56:-0.112509 57:-0.112509 58:-0.112509 59:-0.112509 60:-0.112509 61:-0.112509 62:-0.112509 63:-0.112509 64:-0.112509 65:-0.112509 66:-0.112509 67:-0.112509 68:-0.112509 69:-0.112509 70:-0.112509 71:-0.112509 72:-0.112509 73:-0.112509 74:-0.112509 75:-0.112509 76:8.888195 77:-0.112509 78:-0.112509 79:-0.112509 80:-0.112509 
0.75525811843750179 0 0 0.35115006619163303 0.16492696183703329 0 0 0 0 1:-0.160128 2:-0.160128 3:-0.160128 4:-0.160128 5:-0.160128 6:-0.160128 7:-0.160128 8:-0.160128 9:-0.160128 10:-0.160128 11:-0.160128 12:-0.160128 13:-0.160128 14:-0.160128 15:-0.160128 16:-0.160128 17:-0.160128 18:-0.160128 19:-0.160128 20:-0.160128 21:-0.160128 22:-0.160128 23:-0.160128 24:-0.160128 25:-0.160128 26:-0.160128 27:-0.160128 28:-0.160128 29:-0.160128 30:-0.160128 31:-0.160128 32:-0.160128 33:-0.160128 34:-0.160128 35:-0.160128 36:-0.160128 37:-0.160128 38:-0.160128 39:-0.160128 40:-0.160128 41:-0.160128 42:-0.160128 43:-0.160128 44:-0.160128 45:-0.160128 46:-0.160128 47:-0.160128 48:-0.160128 49:-0.160128 50:-0.160128 51:-0.160128 52:-0.160128 53:-0.160128 54:-0.160128 55:-0.160128 56:-0.160128 57:-0.160128 58:-0.160128 59:-0.160128 60:-0.160128 61:-0.160128 62:6.244998 63:-0.160128 64:-0.160128 65:-0.160128 66:-0.160128 67:-0.160128 68:-0.160128 69:-0.160128 70:-0.160128 71:-0.160128 72:-0.160128 73:-0.160128 74:-0.160128 75:-0.160128 76:6.244998 77:-0.160128 78:-0.160128 79:-0.160128 80:-0.160128 
1 1 1 1 1 1 1 1 1 1:-0.160128 2:-0.160128 3:-0.160128 4:-0.160128 5:-0.160128 6:-0.160128 7:-0.160128 8:-0.160128 9:-0.160128 10:-0.160128 11:-0.160128 12:-0.160128 13:-0.160128 14:-0.160128 15:-0.160128 16:-0.160128 17:-0.160128 18:-0.160128 19:-0.160128 20:-0.160128 21:-0.160128 22:-0.160128 23:-0.160128 24:-0.160128 25:-0.160128 26:-0.160128 27:-0.160128 28:-0.160128 29:-0.160128 30:-0.160128 31:-0.160128 32:-0.160128 33:-0.160128 34:-0.160128 35:-0.160128 36:-0.160128 37:-0.160128 38:-0.160128 39:-0.160128 40:-0.160128 41:-0.160128 42:-0.160128 43:-0.160128 44:-0.160128 45:-0.160128 46:-0.160128 47:-0.160128 48:-0.160128 49:-0.160128 50:-0.160128 51:-0.160128 52:-0.160128 53:-0.160128 54:-0.160128 55:-0.160128 56:-0.160128 57:6.244998 58:-0.160128 59:-0.160128 60:-0.160128 61:-0.160128 62:6.244998 63:-0.160128 64:-0.160128 65:-0.160128 66:-0.160128 67:-0.160128 68:-0.160128 69:-0.160128 70:-0.160128 71:-0.160128 72:-0.160128 73:-0.160128 74:-0.160128 75:-0.160128 76:-0.160128 77:-0.160128 78:-0.160128 79:-0.160128 80:-0.160128 
0 0 0 0 0.14417218215283309 0 0 0 0 1:-0.151717 2:-0.151717 3:-0.151717 4:-0.151717 5:-0.151717 6:-0.151717 7:-0.151717 8:-0.151717 9:-0.151717 10:-0.151717 11:-0.151717 12:-0.151717 13:-0.151717 14:-0.151717 15:-0.151717 16:-0.151717 17:-0.151717 18:-0.151717 19:-0.151717 20:-0.151717 21:-0.151717 22:-0.151717 23:-0.151717 24:-0.151717 25:-0.151717 26:-0.151717 27:-0.151717 28:-0.151717 29:-0.151717 30:-0.151717 31:-0.151717 32:-0.151717 33:-0.151717 34:-0.151717 35:-0.151717 36:-0.151717 37:-0.151717 38:-0.151717 39:-0.151717 40:7.939833 41:-0.151717 42:-0.151717 43:-0.151717 44:-0.151717 45:-0.151717 46:-0.151717 47:-0.151717 48:-0.151717 49:-0.151717 50:-0.151717 51:-0.151717 52:-0.151717 53:-0.151717 54:-0.151717 55:-0.151717 56:-0.151717 57:-0.151717 58:-0.151717 59:-0.151717 60:-0.151717 61:-0.151717 62:-0.151717 63:-0.151717 64:-0.151717 65:-0.151717 66:-0.151717 67:-0.151717 68:-0.151717 69:-0.151717 70:-0.151717 71:-0.151717 72:3.894058 73:-0.151717 74:-0.151717 75:-0.151717 76:-0.151717 77:-0.151717 78:-0.151717 79:-0.151717 80:-0.151717 
1 1 1 1 1 1 1 1 1 1:-0.112509 2:-0.112509 3:-0.112509 4:-0.112509 5:-0.112509 6:-0.112509 7:-0.112509 8:-0.112509 9:-0.112509 10:-0.112509 11:-0.112509 12:-0.112509 13:-0.112509 14:-0.112509 15:-0.112509 16:-0.112509 17:-0.112509 18:-0.112509 19:-0.112509 20:-0.112509 21:-0.112509 22:-0.112509 23:-0.112509 24:-0.112509 25:-0.112509 26:-0.112509 27:-0.112509 28:-0.112509 29:-0.112509 30:-0.112509 31:-0.112509 32:-0.112509 33:-0.112509 34:-0.112509 35:-0.112509 36:-0.112509 37:-0.112509 38:-0.112509 39:-0.112509 40:-0.112509 41:-0.112509 42:-0.112509 43:-0.112509 44:-0.112509 45:-0.112509 46:-0.112509 47:-0.112509 48:-0.112509 49:-0.112509 50:-0.112509 51:-0.112509 52:-0.112509 53:-0.112509 54:-0.112509 55:-0.112509 56:-0.112509 57:-0.112509 58:-0.112509 59:8.888189 60:-0.112509 61:-0.112509 62:-0.112509 63:-0.112509 64:-0.112509 65:-0.112509 66:-0.112509 67:-0.112509 68:-0.112509 69:-0.112509 70:-0.112509 71:-0.112509 72:-0.112509 73:-0.112509 74:-0.112509 75:-0.112509 76:-0.112509 77:-0.112509 78:-0.112509 79:-0.112509 80:-0.112509 
1 0.75972965518400326 1 1 1 0.78929355096003129 0.97721909206514945 0.74464739442250216 0 1:-0.229416 2:-0.229416 3:-0.229416 4:-0.229416 5:-0.229416 6:-0.229416 7:-0.229416 8:-0.229416 9:-0.229416 10:-0.229416 11:-0.229416 12:-0.229416 13:-0.229416 14:-0.229416 15:-0.229416 16:-0.229416 17:-0.229416 18:-0.229416 19:-0.229416 20:-0.229416 21:-0.229416 22:-0.229416 23:-0.229416 24:-0.229416 25:-0.229416 26:-0.229416 27:-0.229416 28:-0.229416 29:-0.229416 30:-0.229416 31:-0.229416 32:-0.229416 33:-0.229416 34:-0.229416 35:-0.229416 36:-0.229416 37:-0.229416 38:-0.229416 39:-0.229416 40:4.358898 41:-0.229416 42:-0.229416 43:-0.229416 44:-0.229416 45:-0.229416 46:-0.229416 47:-0.229416 48:-0.229416 49:-0.229416 50:-0.229416 51:-0.229416 52:-0.229416 53:-0.229416 54:-0.229416 55:-0.229416 56:-0.229416 57:-0.229416 58:-0.229416 59:4.358898 60:-0.229416 61:-0.229416 62:-0.229416 63:-0.229416 64:-0.229416 65:-0.229416 66:-0.229416 67:-0.229416 68:-0.229416 69:-0.229416 70:-0.229416 71:-0.229416 72:4.358898 73:-0.229416 74:-0.229416 75:-0.229416 76:4.358898 77:-0.229416 78:-0.229416 79:-0.229416 80:-0.229416 
1 1 1 1 1 1 1 1 0.86622931211733367 1:-0.112509 2:-0.112509 3:-0.112509 4:-0.112509 5:-0.112509 6:-0.112509 7:-0.112509 8:-0.112509 9:-0.112509 10:-0.112509 11:-0.112509 12:-0.112509 13:-0.112509 14:-0.112509 15:-0.112509 16:-0.112509 17:-0.112509 18:-0.112509 19:-0.112509 20:-0.112509 21:-0.112509 22:-0.112509 23:-0.112509 24:-0.112509 25:-0.112509 26:-0.112509 27:-0.112509 28:-0.112509 29:-0.112509 30:-0.112509 31:-0.112509 32:-0.112509 33:-0.112509 34:-0.112509 35:-0.112509 36:-0.112509 37:-0.112509 38:-0.112509 39:-0.112509 40:-0.112509 41:-0.112509 42:-0.112509 43:-0.112509 44:-0.112509 45:-0.112509 46:-0.112509 47:-0.112509 48:-0.112509 49:-0.112509 50:-0.112509 51:-0.112509 52:-0.112509 53:-0.112509 54:-0.112509 55:-0.112509 56:-0.112509 57:-0.112509 58:-0.112509 59:-0.112509 60:8.888197 61:-0.112509 62:-0.112509 63:-0.112509 64:-0.112509 65:-0.112509 66:-0.112509 67:-0.112509 68:-0.112509 69:-0.112509 70:-0.112509 71:-0.112509 72:-0.112509 73:-0.112509 74:-0.112509 75:-0.112509 76:-0.112509 77:-0.112509 78:-0.112509 79:-0.112509 80:-0.112509 
1 1 1 1 1 1 1 1 1 1:-0.160128 2:-0.160128 3:-0.160128 4:-0.160128 5:-0.160128 6:-0.160128 7:-0.160128 8:-0.160128 9:-0.160128 10:-0.160128 11:-0.160128 12:-0.160128 13:-0.160128 14:-0.160128 15:-0.160128 16:-0.160128 17:-0.160128 18:-0.160128 19:-0.160128 20:-0.160128 21:-0.160128 22:-0.160128 23:-0.160128 24:-0.160128 25:-0.160128 26:-0.160128 27:-0.160128 28:-0.160128 29:-0.160128 30:-0.160128 31:-0.160128 32:-0.160128 33:-0.160128 34:-0.160128 35:-0.160128 36:-0.160128 37:-0.160128 38:-0.160128 39:-0.160128 40:-0.160128 41:-0.160128 42:-0.160128 43:-0.160128 44:-0.160128 45:-0.160128 46:-0.160128 47:-0.160128 48:-0.160128 49:-0.160128 50:-0.160128 51:-0.160128 52:-0.160128 53:-0.160128 54:-0.160128 55:-0.160128 56:-0.160128 57:6.244998 58:-0.160128 59:-0.160128 60:-0.160128 61:6.244998 62:-0.160128 63:-0.160128 64:-0.160128 65:-0.160128 66:-0.160128 67:-0.160128 68:-0.160128 69:-0.160128 70:-0.160128 71:-0.160128 72:-0.160128 73:-0.160128 74:-0.160128 75:-0.160128 76:-0.160128 77:-0.160128 78:-0.160128 79:-0.160128 80:-0.160128 
0.085873543606724889 0 0.10810959648907179 0.002347023195091235 0.384066244533388 0 0 0.037340643764862839 0.049354437145610296 1:-0.160128 2:-0.160128 3:-0.160128 4:-0.160128 5:-0.160128 6:-0.160128 7:-0.160128 8:-0.160128 9:-0.160128 10:-0.160128 11:-0.160128 12:-0.160128 13:-0.160128 14:-0.160128 15:-0.160128 16:-0.160128 17:-0.160128 18:-0.160128 19:-0.160128 20:-0.160128 21:-0.160128 22:-0.160128 23:-0.160128 24:-0.160128 25:-0.160128 26:-0.160128 27:-0.160128 28:-0.160128 29:-0.160128 30:-0.160128 31:-0.160128 32:-0.160128 33:-0.160128 34:-0.160128 35:-0.160128 36:-0.160128 37:-0.160128 38:-0.160128 39:-0.160128 40:6.244997 41:-0.160128 42:-0.160128 43:-0.160128 44:-0.160128 45:-0.160128 46:-0.160128 47:-0.160128 48:-0.160128 49:-0.160128 50:-0.160128 51:-0.160128 52:-0.160128 53:-0.160128 54:-0.160128 55:-0.160128 56:-0.160128 57:-0.160128 58:-0.160128 59:-0.160128 60:-0.160128 61:-0.160128 62:6.244997 63:-0.160128 64:-0.160128 65:-0.160128 66:-0.160128 67:-0.160128 68:-0.160128 69:-0.160128 70:-0.160128 71:-0.160128 72:-0.160128 73:-0.160128 74:-0.160128 75:-0.160128 76:-0.160128 77:-0.160128 78:-0.160128 79:-0.160128 80:-0.160128 
1 0.018396149816871984 1 1 1 0.48185043129291782 0.2363809723207925 0.64281366707763976 0.2996232428819946 1:-0.112509 2:-0.112509 3:-0.112509 4:-0.112509 5:-0.112509 6:-0.112509 7:-0.112509 8:-0.112509 9:-0.112509 10:-0.112509 11:-0.112509 12:-0.112509 13:-0.112509 14:-0.112509 15:-0.112509 16:-0.112509 17:-0.112509 18:-0.112509 19:-0.112509 20:-0.112509 21:-0.112509 22:-0.112509 23:-0.112509 24:-0.112509 25:-0.112509 26:-0.112509 27:-0.112509 28:-0.112509 29:-0.112509 30:-0.112509 31:-0.112509 32:-0.112509 33:-0.112509 34:-0.112509 35:-0.112509 36:-0.112509 37:-0.112509 38:-0.112509 39:-0.112509 40:8.888199 41:-0.112509 42:-0.112509 43:-0.112509 44:-0.112509 45:-0.112509 46:-0.112509 47:-0.112509 48:-0.112509 49:-0.112509 50:-0.112509 51:-0.112509 52:-0.112509 53:-0.112509 54:-0.112509 55:-0.112509 56:-0.112509 57:-0.112509 58:-0.112509 59:-0.112509 60:-0.112509 61:-0.112509 62:-0.112509 63:-0.112509 64:-0.112509 65:-0.112509 66:-0.112509 67:-0.112509 68:-0.112509 69:-0.112509 70:-0.112509 71:-0.112509 72:-0.112509 73:-0.112509 74:-0.112509 75:-0.112509 76:-0.112509 77:-0.112509 78:-0.112509 79:-0.112509 80:-0.112509 
0 0 0 0 1 0 0 0 0 1:-0.112509 2:-0.112509 3:-0.112509 4:-0.112509 5:-0.112509 6:-0.112509 7:-0.112509 8:-0.112509 9:-0.112509 10:-0.112509 11:-0.112509 12:-0.112509 13:-0.112509 14:-0.112509 15:-0.112509 16:-0.112509 17:-0.112509 18:-0.112509 19:-0.112509 20:-0.112509 21:-0.112509 22:-0.112509 23:-0.112509 24:-0.112509 25:-0.112509 26:-0.112509 27:-0.112509 28:-0.112509 29:-0.112509 30:-0.112509 31:-0.112509 32:-0.112509 33:-0.112509 34:-0.112509 35:-0.112509 36:-0.112509 37:-0.112509 38:-0.112509 39:-0.112509 40:-0.112509 41:-0.112509 42:-0.112509 43:-0.112509 44:-0.112509 45:-0.112509 46:-0.112509 47:-0.112509 48:-0.112509 49:-0.112509 50:-0.112509 51:-0.112509 52:-0.112509 53:-0.112509 54:-0.112509 55:-0.112509 56:-0.112509 57:-0.112509 58:-0.112509 59:-0.112509 60:-0.112509 61:-0.112509 62:-0.112509 63:-0.112509 64:-0.112509 65:-0.112509 66:-0.112509 67:-0.112509 68:-0.112509 69:-0.112509 70:-0.112509 71:-0.112509 72:8.888196 73:-0.112509 74:-0.112509 75:-0.112509 76:-0.112509 77:-0.112509 78:-0.112509 79:-0.112509 80:-0.112509 
1 0.99814746747613137 1 1 1 1 0.94570031536919497 0.98739155533703649 1 1:-0.112509 2:-0.112509 3:-0.112509 4:-0.112509 5:-0.112509 6:-0.112509 7:-0.112509 8:-0.112509 9:-0.112509 10:-0.112509 11:-0.112509 12:-0.112509 13:-0.112509 14:-0.112509 15:-0.112509 16:-0.112509 17:-0.112509 18:-0.112509 19:-0.112509 20:-0.112509 21:-0.112509 22:-0.112509 23:-0.112509 24:-0.112509 25:-0.112509 26:-0.112509 27:-0.112509 28:-0.112509 29:-0.112509 30:-0.112509 31:-0.112509 32:-0.112509 33:-0.112509 34:-0.112509 35:-0.112509 36:-0.112509 37:-0.112509 38:-0.112509 39:-0.112509 40:8.888199 41:-0.112509 42:-0.112509 43:-0.112509 44:-0.112509 45:-0.112509 46:-0.112509 47:-0.112509 48:-0.112509 49:-0.112509 50:-0.112509 51:-0.112509 52:-0.112509 53:-0.112509 54:-0.112509 55:-0.112509 56:-0.112509 57:-0.112509 58:-0.112509 59:-0.112509 60:-0.112509 61:-0.112509 62:-0.112509 63:-0.112509 64:-0.112509 65:-0.112509 66:-0.112509 67:-0.112509 68:-0.112509 69:-0.112509 70:-0.112509 71:-0.112509 72:-0.112509 73:-0.112509 74:-0.112509 75:-0.112509 76:-0.112509 77:-0.112509 78:-0.112509 79:-0.112509 80:-0.112509 
0 0 0 0 1 0 0 0 0 1:-0.112509 2:-0.112509 3:-0.112509 4:-0.112509 5:-0.112509 6:-0.112509 7:-0.112509 8:-0.112509 9:-0.112509 10:-0.112509 11:-0.112509 12:-0.112509 13:-0.112509 14:-0.112509 15:-0.112509 16:-0.112509 17:-0.112509 18:-0.112509 19:-0.112509 20:-0.112509 21:-0.112509 22:-0.112509 23:-0.112509 24:-0.112509 25:-0.112509 26:-0.112509 27:-0.112509 28:-0.112509 29:-0.112509 30:-0.112509 31:-0.112509 32:-0.112509 33:-0.112509 34:-0.112509 35:-0.112509 36:-0.112509 37:-0.112509 38:-0.112509 39:-0.112509 40:-0.112509 41:-0.112509 42:-0.112509 43:-0.112509 44:-0.112509 45:-0.112509 46:-0.112509 47:-0.112509 48:-0.112509 49:-0.112509 50:-0.112509 51:-0.112509 52:-0.112509 53:-0.112509 54:-0.112509 55:-0.112509 56:-0.112509 57:-0.112509 58:-0.112509 59:-0.112509 60:-0.112509 61:-0.112509 62:-0.112509 63:-0.112509 64:-0.112509 65:-0.112509 66:-0.112509 67:-0.112509 68:-0.112509 69:-0.112509 70:-0.112509 71:-0.112509 72:8.888196 73:-0.112509 74:-0.112509 75:-0.112509 76:-0.112509 77:-0.112509 78:-0.112509 79:-0.112509 80:-0.112509 
0.20218281103309174 0.56265698101552875 0.66999885153877781 0.1681612620605063 0.32828349090157699 0.67413090879962223 0.69317706763428222 0.51327465530276373 0.3572435565739196 1:-0.112509 2:-0.112509 3:-0.112509 4:-0.112509 5:-0.112509 6:-0.112509 7:-0.112509 8:-0.112509 9:-0.112509 10:-0.112509 11:-0.112509 12:-0.112509 13:-0.112509 14:-0.112509 15:-0.112509 16:-0.112509 17:-0.112509 18:-0.112509 19:-0.112509 20:-0.112509 21:-0.112509 22:-0.112509 23:-0.112509 24:-0.112509 25:-0.112509 26:-0.112509 27:-0.112509 28:-0.112509 29:-0.112509 30:-0.112509 31:-0.112509 32:-0.112509 33:-0.112509 34:-0.112509 35:-0.112509 36:-0.112509 37:-0.112509 38:-0.112509 39:-0.112509 40:-0.112509 41:-0.112509 42:-0.112509 43:-0.112509 44:-0.112509 45:-0.112509 46:-0.112509 47:-0.112509 48:-0.112509 49:-0.112509 50:-0.112509 51:-0.112509 52:-0.112509 53:-0.112509 54:-0.112509 55:-0.112509 56:-0.112509 57:-0.112509 58:-0.112509 59:-0.112509 60:-0.112509 61:-0.112509 62:8.888197 63:-0.112509 64:-0.112509 65:-0.112509 66:-0.112509 67:-0.112509 68:-0.112509 69:-0.112509 70:-0.112509 71:-0.112509 72:-0.112509 73:-0.112509 74:-0.112509 75:-0.112509 76:-0.112509 77:-0.112509 78:-0.112509 79:-0.112509 80:-0.112509 
0 0 0 0 0.43763282319917285 0 0 0 0 1:-0.173329 2:-0.173329 3:-0.173329 4:-0.173329 5:-0.173329 6:-0.173329 7:-0.173329 8:-0.173329 9:-0.173329 10:-0.173329 11:-0.173329 12:-0.173329 13:-0.173329 14:-0.173329 15:-0.173329 16:-0.173329 17:-0.173329 18:-0.173329 19:-0.173329 20:-0.173329 21:-0.173329 22:-0.173329 23:-0.173329 24:-0.173329 25:-0.173329 26:-0.173329 27:-0.173329 28:-0.173329 29:-0.173329 30:-0.173329 31:-0.173329 32:-0.173329 33:-0.173329 34:-0.173329 35:-0.173329 36:-0.173329 37:-0.173329 38:-0.173329 39:-0.173329 40:-0.173329 41:-0.173329 42:-0.173329 43:-0.173329 44:-0.173329 45:-0.173329 46:-0.173329 47:-0.173329 48:-0.173329 49:-0.173329 50:-0.173329 51:-0.173329 52:-0.173329 53:-0.173329 54:-0.173329 55:-0.173329 56:-0.173329 57:-0.173329 58:-0.173329 59:3.788476 60:-0.173329 61:-0.173329 62:1.807573 63:-0.173329 64:-0.173329 65:-0.173329 66:-0.173329 67:-0.173329 68:-0.173329 69:-0.173329 70:-0.173329 71:-0.173329 72:7.75028 73:-0.173329 74:-0.173329 75:-0.173329 76:-0.173329 77:-0.173329 78:-0.173329 79:-0.173329 80:-0.173329 
0 0 0 0 1 0 0 0 0 1:-0.112509 2:-0.112509 3:-0.112509 4:-0.112509 5:-0.112509 6:-0.112509 7:-0.112509 8:-0.112509 9:-0.112509 10:-0.112509 11:-0.112509 12:-0.112509 13:-0.112509 14:-0.112509 15:-0.112509 16:-0.112509 17:-0.112509 18:-0.112509 19:-0.112509 20:-0.112509 21:-0.112509 22:-0.112509 23:-0.112509 24:-0.112509 25:-0.112509 26:-0.112509 27:-0.112509 28:-0.112509 29:-0.112509 30:-0.112509 31:-0.112509 32:-0.112509 33:-0.112509 34:-0.112509 35:-0.112509 36:-0.112509 37:-0.112509 38:-0.112509 39:-0.112509 40:-0.112509 41:-0.112509 42:-0.112509 43:-0.112509 44:-0.112509 45:-0.112509 46:-0.112509 47:-0.112509 48:-0.112509 49:-0.112509 50:-0.112509 51:-0.112509 52:-0.112509 53:-0.112509 54:-0.112509 55:-0.112509 56:-0.112509 57:-0.112509 58:-0.112509 59:-0.112509 60:-0.112509 61:-0.112509 62:-0.112509 63:-0.112509 64:-0.112509 65:-0.112509 66:-0.112509 67:-0.112509 68:-0.112509 69:-0.112509 70:-0.112509 71:-0.112509 72:8.888196 73:-0.112509 74:-0.112509 75:-0.112509 76:-0.112509 77:-0.112509 78:-0.112509 79:-0.112509 80:-0.112509 
0 0 0 0 1 0 0 0 0 1:-0.112509 2:-0.112509 3:-0.112509 4:-0.112509 5:-0.112509 6:-0.112509 7:-0.112509 8:-0.112509 9:-0.112509 10:-0.112509 11:-0.112509 12:-0.112509 13:-0.112509 14:-0.112509 15:-0.112509 16:-0.112509 17:-0.112509 18:-0.112509 19:-0.112509 20:-0.112509 21:-0.112509 22:-0.112509 23:-0.112509 24:-0.112509 25:-0.112509 26:-0.112509 27:-0.112509 28:-0.112509 29:-0.112509 30:-0.112509 31:-0.112509 32:-0.112509 33:-0.112509 34:-0.112509 35:-0.112509 36:-0.112509 37:-0.112509 38:-0.112509 39:-0.112509 40:-0.112509 41:-0.112509 42:-0.112509 43:-0.112509 44:-0.112509 45:-0.112509 46:-0.112509 47:-0.112509 48:-0.112509 49:-0.112509 50:-0.112509 51:-0.112509 52:-0.112509 53:-0.112509 54:-0.112509 55:-0.112509 56:-0.112509 57:-0.112509 58:-0.112509 59:-0.112509 60:-0.112509 61:-0.112509 62:-0.112509 63:-0.112509 64:-0.112509 65:-0.112509 66:-0.112509 67:-0.112509 68:-0.112509 69:-0.112509 70:-0.112509 71:-0.112509 72:8.888196 73:-0.112509 74:-0.112509 75:-0.112509 76:-0.112509 77:-0.112509 78:-0.112509 79:-0.112509 80:-0.112509 
0.060085247174152978 0 0 0.13284392313340779 0.31467386610361853 0 0 0 0 1:-0.185695 2:-0.185695 3:-0.185695 4:-0.185695 5:-0.185695 6:-0.185695 7:-0.185695 8:-0.185695 9:-0.185695 10:-0.185695 11:-0.185695 12:-0.185695 13:-0.185695 14:-0.185695 15:-0.185695 16:-0.185695 17:-0.185695 18:-0.185695 19:-0.185695 20:-0.185695 21:-0.185695 22:-0.185695 23:-0.185695 24:-0.185695 25:-0.185695 26:-0.185695 27:-0.185695 28:-0.185695 29:-0.185695 30:-0.185695 31:-0.185695 32:-0.185695 33:-0.185695 34:-0.185695 35:-0.185695 36:-0.185695 37:-0.185695 38:-0.185695 39:-0.185695 40:-0.185695 41:-0.185695 42:-0.185695 43:-0.185695 44:-0.185695 45:-0.185695 46:-0.185695 47:-0.185695 48:-0.185695 49:-0.185695 50:-0.185695 51:-0.185695 52:-0.185695 53:-0.185695 54:-0.185695 55:-0.185695 56:-0.185695 57:-0.185695 58:-0.185695 59:3.528211 60:-0.185695 61:-0.185695 62:-0.185695 63:-0.185695 64:-0.185695 65:-0.185695 66:-0.185695 67:-0.185695 68:-0.185695 69:-0.185695 70:-0.185695 71:-0.185695 72:7.242117 73:-0.185695 74:-0.185695 75:-0.185695 76:3.528211 77:-0.185695 78:-0.185695 79:-0.185695 80:-0.185695 
1 1 1 1 1 1 1 1 1 1:-0.112509 2:-0.112509 3:-0.112509 4:-0.112509 5:-0.112509 6:-0.112509 7:-0.112509 8:-0.112509 9:-0.112509 10:-0.112509 11:-0.112509 12:-0.112509 13:-0.112509 14:-0.112509 15:-0.112509 16:-0.112509 17:-0.112509 18:-0.112509 19:-0.112509 20:-0.112509 21:-0.112509 22:-0.112509 23:-0.112509 24:-0.112509 25:-0.112509 26:-0.112509 27:-0.112509 28:-0.112509 29:-0.112509 30:-0.112509 31:-0.112509 32:-0.112509 33:-0.112509 34:-0.112509 35:-0.112509 36:-0.112509 37:-0.112509 38:-0.112509 39:-0.112509 40:-0.112509 41:-0.112509 42:-0.112509 43:-0.112509 44:-0.112509 45:-0.112509 46:-0.112509 47:-0.112509 48:-0.112509 49:-0.112509 50:-0.112509 51:-0.112509 52:-0.112509 53:-0.112509 54:-0.112509 55:-0.112509 56:-0.112509 57:-0.112509 58:-0.112509 59:8.888197 60:-0.112509 61:-0.112509 62:-0.112509 63:-0.112509 64:-0.112509 65:-0.112509 66:-0.112509 67:-0.112509 68:-0.112509 69:-0.112509 70:-0.112509 71:-0.112509 72:-0.112509 73:-0.112509 74:-0.112509 75:-0.112509 76:-0.112509 77:-0.112509 78:-0.112509 79:-0.112509 80:-0.112509 
0 0 0.16074214692429054 0.30155746610291956 1 0 0.042896972831411376 0 0.92673232308281805 1:-0.132712 2:-0.132712 3:-0.132712 4:-0.132712 5:-0.132712 6:-0.132712 7:-0.132712 8:-0.132712 9:-0.132712 10:-0.132712 11:-0.132712 12:-0.132712 13:-0.132712 14:-0.132712 15:-0.132712 16:-0.132712 17:-0.132712 18:-0.132712 19:-0.132712 20:-0.132712 21:-0.132712 22:-0.132712 23:-0.132712 24:-0.132712 25:-0.132712 26:-0.132712 27:-0.132712 28:-0.132712 29:-0.132712 30:-0.132712 31:-0.132712 32:-0.132712 33:-0.132712 34:-0.132712 35:-0.132712 36:-0.132712 37:-0.132712 38:-0.132712 39:-0.132712 40:-0.132712 41:-0.132712 42:-0.132712 43:-0.132712 44:-0.132712 45:-0.132712 46:-0.132712 47:-0.132712 48:-0.132712 49:-0.132712 50:-0.132712 51:-0.132712 52:-0.132712 53:-0.132712 54:-0.132712 55:-0.132712 56:-0.132712 57:1.636784 58:-0.132712 59:-0.132712 60:-0.132712 61:-0.132712 62:-0.132712 63:-0.132712 64:-0.132712 65:-0.132712 66:-0.132712 67:-0.132712 68:-0.132712 69:-0.132712 70:-0.132712 71:-0.132712 72:8.714767 73:-0.132712 74:-0.132712 75:-0.132712 76:-0.132712 77:-0.132712 78:-0.132712 79:-0.132712 80:-0.132712 
1 1 1 1 1 1 1 1 0.86657042697292208 1:-0.112509 2:-0.112509 3:-0.112509 4:-0.112509 5:-0.112509 6:-0.112509 7:-0.112509 8:-0.112509 9:-0.112509 10:-0.112509 11:-0.112509 12:-0.112509 13:-0.112509 14:-0.112509 15:-0.112509 16:-0.112509 17:-0.112509 18:-0.112509 19:-0.112509 20:-0.112509 21:-0.112509 22:-0.112509 23:-0.112509 24:-0.112509 25:-0.112509 26:-0.112509 27:-0.112509 28:-0.112509 29:-0.112509 30:-0.112509 31:-0.112509 32:-0.112509 33:-0.112509 34:-0.112509 35:-0.112509 36:-0.112509 37:-0.112509 38:-0.112509 39:-0.112509 40:-0.112509 41:-0.112509 42:-0.112509 43:-0.112509 44:-0.112509 45:-0.112509 46:-0.112509 47:-0.112509 48:-0.112509 49:-0.112509 50:-0.112509 51:-0.112509 52:-0.112509 53:-0.112509 54:-0.112509 55:8.888197 56:-0.112509 57:-0.112509 58:-0.112509 59:-0.112509 60:-0.112509 61:-0.112509 62:-0.112509 63:-0.112509 64:-0.112509 65:-0.112509 66:-0.112509 67:-0.112509 68:-0.112509 69:-0.112509 70:-0.112509 71:-0.112509 72:-0.112509 73:-0.112509 74:-0.112509 75:-0.112509 76:-0.112509 77:-0.112509 78:-0.112509 79:-0.112509 80:-0.112509 
0 0 0 0 1 0 0 0 0 1:-0.112509 2:-0.112509 3:-0.112509 4:-0.112509 5:-0.112509 6:-0.112509 7:-0.112509 8:-0.112509 9:-0.112509 10:-0.112509 11:-0.112509 12:-0.112509 13:-0.112509 14:-0.112509 15:-0.112509 16:-0.112509 17:-0.112509 18:-0.112509 19:-0.112509 20:-0.112509 21:-0.112509 22:-0.112509 23:-0.112509 24:-0.112509 25:-0.112509 26:-0.112509 27:-0.112509 28:-0.112509 29:-0.112509 30:-0.112509 31:-0.112509 32:-0.112509 33:-0.112509 34:-0.112509 35:-0.112509 36:-0.112509 37:-0.112509 38:-0.112509 39:-0.112509 40:-0.112509 41:-0.112509 42:-0.112509 43:-0.112509 44:-0.112509 45:-0.112509 46:-0.112509 47:-0.112509 48:-0.112509 49:-0.112509 50:-0.112509 51:-0.112509 52:-0.112509 53:-0.112509 54:-0.112509 55:-0.112509 56:-0.112509 57:-0.112509 58:-0.112509 59:-0.112509 60:-0.112509 61:-0.112509 62:-0.112509 63:-0.112509 64:-0.112509 65:-0.112509 66:-0.112509 67:-0.112509 68:-0.112509 69:-0.112509 70:-0.112509 71:-0.112509 72:8.888196 73:-0.112509 74:-0.112509 75:-0.112509 76:-0.112509 77:-0.112509 78:-0.112509 79:-0.112509 80:-0.112509 
0.95546275380523948 0 0.62966011118711118 0.5102145871089474 1 0.54284110890642134 0.39412595956594837 0.81667750370841119 0 1:-0.185695 2:-0.185695 3:-0.185695 4:-0.185695 5:-0.185695 6:-0.185695 7:-0.185695 8:-0.185695 9:-0.185695 10:-0.185695 11:-0.185695 12:-0.185695 13:-0.185695 14:-0.185695 15:-0.185695 16:-0.185695 17:-0.185695 18:-0.185695 19:-0.185695 20:-0.185695 21:-0.185695 22:-0.185695 23:-0.185695 24:-0.185695 25:-0.185695 26:-0.185695 27:-0.185695 28:-0.185695 29:-0.185695 30:-0.185695 31:-0.185695 32:-0.185695 33:-0.185695 34:-0.185695 35:-0.185695 36:-0.185695 37:-0.185695 38:-0.185695 39:-0.185695 40:-0.185695 41:-0.185695 42:-0.185695 43:-0.185695 44:-0.185695 45:-0.185695 46:-0.185695 47:-0.185695 48:-0.185695 49:-0.185695 50:-0.185695 51:-0.185695 52:-0.185695 53:-0.185695 54:-0.185695 55:-0.185695 56:-0.185695 57:-0.185695 58:-0.185695 59:-0.185695 60:-0.185695 61:-0.185695 62:-0.185695 63:3.528211 64:-0.185695 65:-0.185695 66:-0.185695 67:-0.185695 68:-0.185695 69:-0.185695 70:-0.185695 71:-0.185695 72:7.242118 73:-0.185695 74:-0.185695 75:-0.185695 76:3.528211 77:-0.185695 78:-0.185695 79:-0.185695 80:-0.185695 
1 1 1 1 1 1 1 1 0.72884457380523981 1:-0.189661 2:-0.189661 3:-0.189661 4:-0.189661 5:-0.189661 6:-0.189661 7:-0.189661 8:-0.189661 9:-0.189661 10:-0.189661 11:-0.189661 12:-0.189661 13:-0.189661 14:-0.189661 15:-0.189661 16:-0.189661 17:-0.189661 18:-0.189661 19:-0.189661 20:-0.189661 21:-0.189661 22:-0.189661 23:-0.189661 24:-0.189661 25:-0.189661 26:-0.189661 27:-0.189661 28:-0.189661 29:-0.189661 30:-0.189661 31:-0.189661 32:-0.189661 33:-0.189661 34:-0.189661 35:-0.189661 36:-0.189661 37:-0.189661 38:-0.189661 39:-0.189661 40:-0.189661 41:-0.189661 42:-0.189661 43:-0.189661 44:-0.189661 45:-0.189661 46:5.879485 47:-0.189661 48:-0.189661 49:-0.189661 50:-0.189661 51:-0.189661 52:-0.189661 53:-0.189661 54:-0.189661 55:-0.189661 56:-0.189661 57:-0.189661 58:-0.189661 59:5.879485 60:-0.189661 61:-0.189661 62:-0.189661 63:-0.189661 64:-0.189661 65:-0.189661 66:-0.189661 67:-0.189661 68:-0.189661 69:-0.189661 70:-0.189661 71:-0.189661 72:2.844912 73:-0.189661 74:-0.189661 75:-0.189661 76:-0.189661 77:-0.189661 78:-0.189661 79:-0.189661 80:-0.189661 
0 0 0 0 0.43196981031663495 0 0 0 0 1:-0.112509 2:-0.112509 3:-0.112509 4:-0.112509 5:-0.112509 6:-0.112509 7:-0.112509 8:-0.112509 9:-0.112509 10:-0.112509 11:-0.112509 12:-0.112509 13:-0.112509 14:-0.112509 15:-0.112509 16:-0.112509 17:-0.112509 18:-0.112509 19:-0.112509 20:-0.112509 21:-0.112509 22:-0.112509 23:-0.112509 24:-0.112509 25:-0.112509 26:-0.112509 27:-0.112509 28:-0.112509 29:-0.112509 30:-0.112509 31:-0.112509 32:-0.112509 33:-0.112509 34:-0.112509 35:-0.112509 36:-0.112509 37:-0.112509 38:-0.112509 39:-0.112509 40:-0.112509 41:-0.112509 42:-0.112509 43:-0.112509 44:-0.112509 45:-0.112509 46:-0.112509 47:-0.112509 48:-0.112509 49:-0.112509 50:-0.112509 51:-0.112509 52:-0.112509 53:-0.112509 54:-0.112509 55:-0.112509 56:-0.112509 57:-0.112509 58:-0.112509 59:-0.112509 60:-0.112509 61:-0.112509 62:-0.112509 63:-0.112509 64:-0.112509 65:-0.112509 66:-0.112509 67:-0.112509 68:-0.112509 69:-0.112509 70:-0.112509 71:-0.112509 72:8.888196 73:-0.112509 74:-0.112509 75:-0.112509 76:-0.112509 77:-0.112509 78:-0.112509 79:-0.112509 80:-0.112509 
0.50902788244093455 0.8088154946299001 0.58112601205893388 0.32644732751438599 1 0.90570526723788203 0.54865325145068533 0.51810828269942122 0.57476074537035016 1:-0.151717 2:-0.151717 3:-0.151717 4:-0.151717 5:-0.151717 6:-0.151717 7:-0.151717 8:-0.151717 9:-0.151717 10:-0.151717 11:-0.151717 12:-0.151717 13:-0.151717 14:-0.151717 15:-0.151717 16:-0.151717 17:-0.151717 18:-0.151717 19:-0.151717 20:-0.151717 21:-0.151717 22:-0.151717 23:-0.151717 24:-0.151717 25:-0.151717 26:-0.151717 27:-0.151717 28:-0.151717 29:-0.151717 30:-0.151717 31:-0.151717 32:-0.151717 33:-0.151717 34:-0.151717 35:-0.151717 36:-0.151717 37:-0.151717 38:-0.151717 39:-0.151717 40:-0.151717 41:-0.151717 42:3.894058 43:-0.151717 44:-0.151717 45:-0.151717 46:-0.151717 47:-0.151717 48:-0.151717 49:-0.151717 50:-0.151717 51:-0.151717 52:-0.151717 53:-0.151717 54:-0.151717 55:-0.151717 56:-0.151717 57:-0.151717 58:-0.151717 59:-0.151717 60:-0.151717 61:-0.151717 62:-0.151717 63:-0.151717 64:-0.151717 65:-0.151717 66:-0.151717 67:-0.151717 68:-0.151717 69:-0.151717 70:-0.151717 71:-0.151717 72:7.939832 73:-0.151717 74:-0.151717 75:-0.151717 76:-0.151717 77:-0.151717 78:-0.151717 79:-0.151717 80:-0.151717 
1 0.12014016669857032 0.91080370865230209 1 1 0.66992985379434433 0.546808989623224 0.7285498929380726 0 1:-0.160128 2:-0.160128 3:-0.160128 4:-0.160128 5:-0.160128 6:-0.160128 7:-0.160128 8:-0.160128 9:-0.160128 10:-0.160128 11:-0.160128 12:-0.160128 13:-0.160128 14:-0.160128 15:-0.160128 16:-0.160128 17:-0.160128 18:-0.160128 19:-0.160128 20:-0.160128 21:-0.160128 22:-0.160128 23:-0.160128 24:-0.160128 25:-0.160128 26:-0.160128 27:-0.160128 28:-0.160128 29:-0.160128 30:-0.160128 31:-0.160128 32:-0.160128 33:-0.160128 34:-0.160128 35:-0.160128 36:-0.160128 37:-0.160128 38:-0.160128 39:-0.160128 40:-0.160128 41:-0.160128 42:-0.160128 43:-0.160128 44:-0.160128 45:-0.160128 46:-0.160128 47:-0.160128 48:-0.160128 49:-0.160128 50:-0.160128 51:-0.160128 52:-0.160128 53:-0.160128 54:-0.160128 55:-0.160128 56:-0.160128 57:-0.160128 58:-0.160128 59:-0.160128 60:-0.160128 61:-0.160128 62:6.244998 63:-0.160128 64:-0.160128 65:-0.160128 66:-0.160128 67:-0.160128 68:-0.160128 69:-0.160128 70:-0.160128 71:-0.160128 72:-0.160128 73:-0.160128 74:-0.160128 75:-0.160128 76:6.244998 77:-0.160128 78:-0.160128 79:-0.160128 80:-0.160128 
0.32778731794227256 0.36737265430531019 0.44314036157297038 0.1242330047894908 1 0.3552573518233369 0.54519152139395655 0.33192676549829936 0 1:-0.151717 2:-0.151717 3:-0.151717 4:-0.151717 5:-0.151717 6:-0.151717 7:-0.151717 8:-0.151717 9:-0.151717 10:-0.151717 11:-0.151717 12:-0.151717 13:-0.151717 14:-0.151717 15:-0.151717 16:-0.151717 17:-0.151717 18:-0.151717 19:-0.151717 20:-0.151717 21:-0.151717 22:-0.151717 23:-0.151717 24:-0.151717 25:-0.151717 26:-0.151717 27:-0.151717 28:-0.151717 29:-0.151717 30:-0.151717 31:-0.151717 32:-0.151717 33:-0.151717 34:-0.151717 35:-0.151717 36:-0.151717 37:-0.151717 38:-0.151717 39:-0.151717 40:-0.151717 41:-0.151717 42:-0.151717 43:-0.151717 44:-0.151717 45:-0.151717 46:-0.151717 47:-0.151717 48:-0.151717 49:-0.151717 50:-0.151717 51:-0.151717 52:-0.151717 53:-0.151717 54:-0.151717 55:-0.151717 56:-0.151717 57:-0.151717 58:-0.151717 59:3.894058 60:-0.151717 61:-0.151717 62:-0.151717 63:-0.151717 64:-0.151717 65:-0.151717 66:-0.151717 67:-0.151717 68:-0.151717 69:-0.151717 70:-0.151717 71:-0.151717 72:7.939832 73:-0.151717 74:-0.151717 75:-0.151717 76:-0.151717 77:-0.151717 78:-0.151717 79:-0.151717 80:-0.151717 
-0 1 1 0 0 1 0 0.93689704407072438 0 1:-0.185695 2:-0.185695 3:-0.185695 4:-0.185695 5:-0.185695 6:-0.185695 7:-0.185695 8:-0.185695 9:-0.185695 10:-0.185695 11:-0.185695 12:-0.185695 13:-0.185695 14:-0.185695 15:-0.185695 16:-0.185695 17:-0.185695 18:-0.185695 19:-0.185695 20:-0.185695 21:-0.185695 22:-0.185695 23:-0.185695 24:-0.185695 25:-0.185695 26:-0.185695 27:-0.185695 28:-0.185695 29:-0.185695 30:-0.185695 31:-0.185695 32:-0.185695 33:-0.185695 34:-0.185695 35:-0.185695 36:-0.185695 37:-0.185695 38:-0.185695 39:-0.185695 40:-0.185695 41:-0.185695 42:-0.185695 43:-0.185695 44:-0.185695 45:-0.185695 46:-0.185695 47:-0.185695 48:-0.185695 49:-0.185695 50:-0.185695 51:-0.185695 52:-0.185695 53:-0.185695 54:-0.185695 55:-0.185695 56:-0.185695 57:-0.185695 58:3.528211 59:-0.185695 60:3.528211 61:-0.185695 62:-0.185695 63:-0.185695 64:-0.185695 65:-0.185695 66:-0.185695 67:-0.185695 68:-0.185695 69:-0.185695 70:-0.185695 71:-0.185695 72:-0.185695 73:-0.185695 74:7.242118 75:-0.185695 76:-0.185695 77:-0.185695 78:-0.185695 79:-0.185695 80:-0.185695 
-0 0 1 0.6465374607444776 0.77547763043393814 1 0 1 0.31069709015198943 1:-0.151717 2:-0.151717 3:-0.151717 4:-0.151717 5:-0.151717 6:-0.151717 7:-0.151717 8:-0.151717 9:-0.151717 10:-0.151717 11:-0.151717 12:-0.151717 13:-0.151717 14:-0.151717 15:-0.151717 16:-0.151717 17:-0.151717 18:-0.151717 19:-0.151717 20:-0.151717 21:-0.151717 22:-0.151717 23:-0.151717 24:-0.151717 25:-0.151717 26:-0.151717 27:-0.151717 28:-0.151717 29:-0.151717 30:-0.151717 31:-0.151717 32:-0.151717 33:-0.151717 34:-0.151717 35:-0.151717 36:-0.151717 37:-0.151717 38:-0.151717 39:-0.151717 40:-0.151717 41:-0.151717 42:-0.151717 43:-0.151717 44:-0.151717 45:-0.151717 46:-0.151717 47:-0.151717 48:-0.151717 49:-0.151717 50:-0.151717 51:-0.151717 52:-0.151717 53:-0.151717 54:-0.151717 55:-0.151717 56:-0.151717 57:3.894058 58:-0.151717 59:-0.151717 60:-0.151717 61:-0.151717 62:-0.151717 63:7.939832 64:-0.151717 65:-0.151717 66:-0.151717 67:-0.151717 68:-0.151717 69:-0.151717 70:-0.151717 71:-0.151717 72:-0.151717 73:-0.151717 74:-0.151717 75:-0.151717 76:-0.151717 77:-0.151717 78:-0.151717 79:-0.151717 80:-0.151717 
-0 1 1 0 0 0 1 0 1 1:8.888204 2:-0.112509 3:-0.112509 4:-0.112509 5:-0.112509 6:-0.112509 7:-0.112509 8:-0.112509 9:-0.112509 10:-0.112509 11:-0.112509 12:-0.112509 13:-0.112509 14:-0.112509 15:-0.112509 16:-0.112509 17:-0.112509 18:-0.112509 19:-0.112509 20:-0.112509 21:-0.112509 22:-0.112509 23:-0.112509 24:-0.112509 25:-0.112509 26:-0.112509 27:-0.112509 28:-0.112509 29:-0.112509 30:-0.112509 31:-0.112509 32:-0.112509 33:-0.112509 34:-0.112509 35:-0.112509 36:-0.112509 37:-0.112509 38:-0.112509 39:-0.112509 40:-0.112509 41:-0.112509 42:-0.112509 43:-0.112509 44:-0.112509 45:-0.112509 46:-0.112509 47:-0.112509 48:-0.112509 49:-0.112509 50:-0.112509 51:-0.112509 52:-0.112509 53:-0.112509 54:-0.112509 55:-0.112509 56:-0.112509 57:-0.112509 58:-0.112509 59:-0.112509 60:-0.112509 61:-0.112509 62:-0.112509 63:-0.112509 64:-0.112509 65:-0.112509 66:-0.112509 67:-0.112509 68:-0.112509 69:-0.112509 70:-0.112509 71:-0.112509 72:-0.112509 73:-0.112509 74:-0.112509 75:-0.112509 76:-0.112509 77:-0.112509 78:-0.112509 79:-0.112509 80:-0.112509 
-0 0 0 0 0 1 0 0 0 1:-0.112509 2:-0.112509 3:-0.112509 4:-0.112509 5:-0.112509 6:-0.112509 7:-0.112509 8:-0.112509 9:-0.112509 10:-0.112509 11:-0.112509 12:-0.112509 13:-0.112509 14:-0.112509 15:-0.112509 16:-0.112509 17:-0.112509 18:-0.112509 19:-0.112509 20:-0.112509 21:-0.112509 22:-0.112509 23:-0.112509 24:-0.112509 25:-0.112509 26:-0.112509 27:-0.112509 28:-0.112509 29:-0.112509 30:-0.112509 31:-0.112509 32:-0.112509 33:-0.112509 34:-0.112509 35:-0.112509 36:-0.112509 37:-0.112509 38:-0.112509 39:-0.112509 40:-0.112509 41:-0.112509 42:-0.112509 43:-0.112509 44:-0.112509 45:-0.112509 46:-0.112509 47:-0.112509 48:-0.112509 49:-0.112509 50:-0.112509 51:-0.112509 52:-0.112509 53:-0.112509 54:-0.112509 55:-0.112509 56:-0.112509 57:-0.112509 58:8.888197 59:-0.112509 60:-0.112509 61:-0.112509 62:-0.112509 63:-0.112509 64:-0.112509 65:-0.112509 66:-0.112509 67:-0.112509 68:-0.112509 69:-0.112509 70:-0.112509 71:-0.112509 72:-0.112509 73:-0.112509 74:-0.112509 75:-0.112509 76:-0.112509 77:-0.112509 78:-0.112509 79:-0.112509 80:-0.112509 
-1 0.14281290172995895 1 1 1 1 0.2798247121991988 1 0.29572661337212397 1:-0.112509 2:-0.112509 3:-0.112509 4:-0.112509 5:-0.112509 6:-0.112509 7:-0.112509 8:-0.112509 9:-0.112509 10:-0.112509 11:-0.112509 12:-0.112509 13:-0.112509 14:-0.112509 15:-0.112509 16:-0.112509 17:-0.112509 18:-0.112509 19:-0.112509 20:-0.112509 21:-0.112509 22:-0.112509 23:-0.112509 24:-0.112509 25:-0.112509 26:-0.112509 27:-0.112509 28:-0.112509 29:-0.112509 30:-0.112509 31:-0.112509 32:-0.112509 33:-0.112509 34:-0.112509 35:-0.112509 36:-0.112509 37:-0.112509 38:-0.112509 39:-0.112509 40:-0.112509 41:-0.112509 42:-0.112509 43:-0.112509 44:-0.112509 45:-0.112509 46:-0.112509 47:-0.112509 48:-0.112509 49:-0.112509 50:-0.112509 51:-0.112509 52:-0.112509 53:-0.112509 54:-0.112509 55:-0.112509 56:-0.112509 57:-0.112509 58:-0.112509 59:-0.112509 60:-0.112509 61:-0.112509 62:-0.112509 63:-0.112509 64:-0.112509 65:-0.112509 66:-0.112509 67:-0.112509 68:-0.112509 69:-0.112509 70:-0.112509 71:-0.112509 72:-0.112509 73:-0.112509 74:-0.112509 75:-0.112509 76:8.888195 77:-0.112509 78:-0.112509 79:-0.112509 80:-0.112509 
-0 1 1 0 0 0 1 0.92426668930390266 1 1:8.888204 2:-0.112509 3:-0.112509 4:-0.112509 5:-0.112509 6:-0.112509 7:-0.112509 8:-0.112509 9:-0.112509 10:-0.112509 11:-0.112509 12:-0.112509 13:-0.112509 14:-0.112509 15:-0.112509 16:-0.112509 17:-0.112509 18:-0.112509 19:-0.112509 20:-0.112509 21:-0.112509 22:-0.112509 23:-0.112509 24:-0.112509 25:-0.112509 26:-0.112509 27:-0.112509 28:-0.112509 29:-0.112509 30:-0.112509 31:-0.112509 32:-0.112509 33:-0.112509 34:-0.112509 35:-0.112509 36:-0.112509 37:-0.112509 38:-0.112509 39:-0.112509 40:-0.112509 41:-0.112509 42:-0.112509 43:-0.112509 44:-0.112509 45:-0.112509 46:-0.112509 47:-0.112509 48:-0.112509 49:-0.112509 50:-0.112509 51:-0.112509 52:-0.112509 53:-0.112509 54:-0.112509 55:-0.112509 56:-0.112509 57:-0.112509 58:-0.112509 59:-0.112509 60:-0.112509 61:-0.112509 62:-0.112509 63:-0.112509 64:-0.112509 65:-0.112509 66:-0.112509 67:-0.112509 68:-0.112509 69:-0.112509 70:-0.112509 71:-0.112509 72:-0.112509 73:-0.112509 74:-0.112509 75:-0.112509 76:-0.112509 77:-0.112509 78:-0.112509 79:-0.112509 80:-0.112509 
-0 0 1 1 1 1 1 1 0 1:-0.112509 2:-0.112509 3:-0.112509 4:-0.112509 5:-0.112509 6:-0.112509 7:-0.112509 8:-0.112509 9:-0.112509 10:-0.112509 11:-0.112509 12:-0.112509 13:-0.112509 14:-0.112509 15:-0.112509 16:-0.112509 17:-0.112509 18:-0.112509 19:-0.112509 20:-0.112509 21:-0.112509 22:-0.112509 23:-0.112509 24:-0.112509 25:-0.112509 26:-0.112509 27:-0.112509 28:-0.112509 29:-0.112509 30:-0.112509 31:-0.112509 32:-0.112509 33:-0.112509 34:-0.112509 35:-0.112509 36:-0.112509 37:-0.112509 38:-0.112509 39:-0.112509 40:-0.112509 41:-0.112509 42:-0.112509 43:-0.112509 44:-0.112509 45:-0.112509 46:-0.112509 47:-0.112509 48:-0.112509 49:-0.112509 50:-0.112509 51:-0.112509 52:-0.112509 53:-0.112509 54:-0.112509 55:-0.112509 56:-0.112509 57:-0.112509 58:-0.112509 59:8.888197 60:-0.112509 61:-0.112509 62:-0.112509 63:-0.112509 64:-0.112509 65:-0.112509 66:-0.112509 67:-0.112509 68:-0.112509 69:-0.112509 70:-0.112509 71:-0.112509 72:-0.112509 73:-0.112509 74:-0.112509 75:-0.112509 76:-0.112509 77:-0.112509 78:-0.112509 79:-0.112509 80:-0.112509 
-1 1 1 1 1 1 1 1 1 1:-0.160128 2:-0.160128 3:-0.160128 4:-0.160128 5:-0.160128 6:-0.160128 7:-0.160128 8:-0.160128 9:-0.160128 10:-0.160128 11:-0.160128 12:-0.160128 13:-0.160128 14:-0.160128 15:-0.160128 16:-0.160128 17:-0.160128 18:-0.160128 19:-0.160128 20:-0.160128 21:-0.160128 22:-0.160128 23:-0.160128 24:-0.160128 25:-0.160128 26:-0.160128 27:-0.160128 28:-0.160128 29:-0.160128 30:-0.160128 31:-0.160128 32:-0.160128 33:-0.160128 34:-0.160128 35:-0.160128 36:-0.160128 37:-0.160128 38:-0.160128 39:-0.160128 40:-0.160128 41:-0.160128 42:-0.160128 43:-0.160128 44:-0.160128 45:-0.160128 46:-0.160128 47:-0.160128 48:-0.160128 49:-0.160128 50:-0.160128 51:-0.160128 52:-0.160128 53:-0.160128 54:-0.160128 55:-0.160128 56:-0.160128 57:6.244998 58:-0.160128 59:-0.160128 60:-0.160128 61:6.244998 62:-0.160128 63:-0.160128 64:-0.160128 65:-0.160128 66:-0.160128 67:-0.160128 68:-0.160128 69:-0.160128 70:-0.160128 71:-0.160128 72:-0.160128 73:-0.160128 74:-0.160128 75:-0.160128 76:-0.160128 77:-0.160128 78:-0.160128 79:-0.160128 80:-0.160128 
-0.57895237995550464 0 0.13811740599339503 0.6368833458033506 0.2124900705829498 0.24003057408507605 0 0.12722105088010563 0 1:-0.151717 2:-0.151717 3:-0.151717 4:-0.151717 5:-0.151717 6:-0.151717 7:-0.151717 8:-0.151717 9:-0.151717 10:-0.151717 11:-0.151717 12:-0.151717 13:-0.151717 14:-0.151717 15:-0.151717 16:-0.151717 17:-0.151717 18:-0.151717 19:-0.151717 20:-0.151717 21:-0.151717 22:-0.151717 23:-0.151717 24:-0.151717 25:-0.151717 26:-0.151717 27:-0.151717 28:-0.151717 29:-0.151717 30:-0.151717 31:-0.151717 32:-0.151717 33:-0.151717 34:-0.151717 35:-0.151717 36:-0.151717 37:-0.151717 38:-0.151717 39:-0.151717 40:-0.151717 41:-0.151717 42:-0.151717 43:-0.151717 44:-0.151717 45:-0.151717 46:-0.151717 47:-0.151717 48:-0.151717 49:-0.151717 50:-0.151717 51:-0.151717 52:-0.151717 53:-0.151717 54:-0.151717 55:-0.151717 56:-0.151717 57:-0.151717 58:-0.151717 59:-0.151717 60:3.894058 61:-0.151717 62:-0.151717 63:-0.151717 64:-0.151717 65:-0.151717 66:-0.151717 67:-0.151717 68:-0.151717 69:-0.151717 70:-0.151717 71:-0.151717 72:-0.151717 73:-0.151717 74:-0.151717 75:-0.151717 76:7.939832 77:-0.151717 78:-0.151717 79:-0.151717 80:-0.151717 
-1 0.19825850304991108 1 0.59379829671371742 1 0.66790995953456911 0.99291887517008937 0.53320464169578941 0.41525687800148137 1:-0.197386 2:-0.197386 3:-0.197386 4:-0.197386 5:-0.197386 6:-0.197386 7:-0.197386 8:-0.197386 9:-0.197386 10:-0.197386 11:-0.197386 12:-0.197386 13:-0.197386 14:-0.197386 15:-0.197386 16:-0.197386 17:-0.197386 18:-0.197386 19:-0.197386 20:-0.197386 21:-0.197386 22:-0.197386 23:-0.197386 24:-0.197386 25:-0.197386 26:-0.197386 27:-0.197386 28:-0.197386 29:-0.197386 30:-0.197386 31:-0.197386 32:-0.197386 33:-0.197386 34:-0.197386 35:-0.197386 36:-0.197386 37:-0.197386 38:-0.197386 39:-0.197386 40:5.066229 41:-0.197386 42:-0.197386 43:-0.197386 44:-0.197386 45:-0.197386 46:-0.197386 47:-0.197386 48:-0.197386 49:-0.197386 50:-0.197386 51:-0.197386 52:-0.197386 53:-0.197386 54:-0.197386 55:-0.197386 56:-0.197386 57:-0.197386 58:-0.197386 59:5.066229 60:5.066229 61:-0.197386 62:-0.197386 63:-0.197386 64:-0.197386 65:-0.197386 66:-0.197386 67:-0.197386 68:-0.197386 69:-0.197386 70:-0.197386 71:-0.197386 72:-0.197386 73:-0.197386 74:-0.197386 75:-0.197386 76:-0.197386 77:-0.197386 78:-0.197386 79:-0.197386 80:-0.197386 
-0 0.44518410797363639 0.63310603063190807 1 1 1 1 1 0 1:-0.151717 2:-0.151717 3:-0.151717 4:-0.151717 5:-0.151717 6:-0.151717 7:-0.151717 8:-0.151717 9:-0.151717 10:-0.151717 11:-0.151717 12:-0.151717 13:-0.151717 14:-0.151717 15:-0.151717 16:-0.151717 17:-0.151717 18:-0.151717 19:-0.151717 20:-0.151717 21:-0.151717 22:-0.151717 23:-0.151717 24:-0.151717 25:-0.151717 26:-0.151717 27:-0.151717 28:-0.151717 29:-0.151717 30:-0.151717 31:-0.151717 32:-0.151717 33:-0.151717 34:-0.151717 35:-0.151717 36:-0.151717 37:-0.151717 38:-0.151717 39:-0.151717 40:-0.151717 41:-0.151717 42:-0.151717 43:-0.151717 44:-0.151717 45:-0.151717 46:-0.151717 47:-0.151717 48:-0.151717 49:-0.151717 50:-0.151717 51:-0.151717 52:-0.151717 53:-0.151717 54:-0.151717 55:-0.151717 56:-0.151717 57:-0.151717 58:-0.151717 59:7.939832 60:-0.151717 61:-0.151717 62:-0.151717 63:-0.151717 64:-0.151717 65:-0.151717 66:-0.151717 67:-0.151717 68:-0.151717 69:-0.151717 70:-0.151717 71:-0.151717 72:-0.151717 73:-0.151717 74:-0.151717 75:-0.151717 76:3.894058 77:-0.151717 78:-0.151717 79:-0.151717 80:-0.151717 
-0.72318991333885707 0.73101040502439529 1 0.90446336770676872 1 1 0.92813262585664225 1 0.90984054186970531 1:-0.112509 2:-0.112509 3:-0.112509 4:-0.112509 5:-0.112509 6:-0.112509 7:-0.112509 8:-0.112509 9:-0.112509 10:-0.112509 11:-0.112509 12:-0.112509 13:-0.112509 14:-0.112509 15:-0.112509 16:-0.112509 17:-0.112509 18:-0.112509 19:-0.112509 20:-0.112509 21:-0.112509 22:-0.112509 23:-0.112509 24:-0.112509 25:-0.112509 26:-0.112509 27:-0.112509 28:-0.112509 29:-0.112509 30:-0.112509 31:-0.112509 32:-0.112509 33:-0.112509 34:-0.112509 35:-0.112509 36:-0.112509 37:-0.112509 38:-0.112509 39:-0.112509 40:-0.112509 41:-0.112509 42:-0.112509 43:-0.112509 44:-0.112509 45:-0.112509 46:-0.112509 47:-0.112509 48:-0.112509 49:-0.112509 50:-0.112509 51:-0.112509 52:-0.112509 53:-0.112509 54:-0.112509 55:-0.112509 56:-0.112509 57:-0.112509 58:-0.112509 59:-0.112509 60:-0.112509 61:-0.112509 62:-0.112509 63:-0.112509 64:-0.112509 65:-0.112509 66:8.888196 67:-0.112509 68:-0.112509 69:-0.112509 70:-0.112509 71:-0.112509 72:-0.112509 73:-0.112509 74:-0.112509 75:-0.112509 76:-0.112509 77:-0.112509 78:-0.112509 79:-0.112509 80:-0.112509 
-0 0.92011275586271735 1 1 1 1 1 1 0 1:-0.112509 2:-0.112509 3:-0.112509 4:-0.112509 5:-0.112509 6:-0.112509 7:-0.112509 8:-0.112509 9:-0.112509 10:-0.112509 11:-0.112509 12:-0.112509 13:-0.112509 14:-0.112509 15:-0.112509 16:-0.112509 17:-0.112509 18:-0.112509 19:-0.112509 20:-0.112509 21:-0.112509 22:-0.112509 23:-0.112509 24:-0.112509 25:-0.112509 26:-0.112509 27:-0.112509 28:-0.112509 29:-0.112509 30:-0.112509 31:-0.112509 32:-0.112509 33:-0.112509 34:-0.112509 35:-0.112509 36:-0.112509 37:-0.112509 38:-0.112509 39:-0.112509 40:-0.112509 41:-0.112509 42:-0.112509 43:-0.112509 44:-0.112509 45:-0.112509 46:-0.112509 47:-0.112509 48:-0.112509 49:-0.112509 50:-0.112509 51:-0.112509 52:-0.112509 53:-0.112509 54:-0.112509 55:-0.112509 56:-0.112509 57:-0.112509 58:-0.112509 59:8.888197 60:-0.112509 61:-0.112509 62:-0.112509 63:-0.112509 64:-0.112509 65:-0.112509 66:-0.112509 67:-0.112509 68:-0.112509 69:-0.112509 70:-0.112509 71:-0.112509 72:-0.112509 73:-0.112509 74:-0.112509 75:-0.112509 76:-0.112509 77:-0.112509 78:-0.112509 79:-0.112509 80:-0.112509 
-1 1 1 1 1 1 1 1 0.26994869451352177 1:-0.112509 2:-0.112509 3:-0.112509 4:-0.112509 5:-0.112509 6:-0.112509 7:-0.112509 8:-0.112509 9:-0.112509 10:-0.112509 11:-0.112509 12:-0.112509 13:-0.112509 14:-0.112509 15:-0.112509 16:-0.112509 17:-0.112509 18:-0.112509 19:-0.112509 20:-0.112509 21:-0.112509 22:-0.112509 23:-0.112509 24:-0.112509 25:-0.112509 26:-0.112509 27:-0.112509 28:-0.112509 29:-0.112509 30:-0.112509 31:-0.112509 32:-0.112509 33:-0.112509 34:-0.112509 35:-0.112509 36:-0.112509 37:-0.112509 38:-0.112509 39:-0.112509 40:-0.112509 41:-0.112509 42:-0.112509 43:-0.112509 44:-0.112509 45:-0.112509 46:-0.112509 47:-0.112509 48:-0.112509 49:-0.112509 50:-0.112509 51:-0.112509 52:-0.112509 53:-0.112509 54:-0.112509 55:-0.112509 56:-0.112509 57:-0.112509 58:-0.112509 59:8.888197 60:-0.112509 61:-0.112509 62:-0.112509 63:-0.112509 64:-0.112509 65:-0.112509 66:-0.112509 67:-0.112509 68:-0.112509 69:-0.112509 70:-0.112509 71:-0.112509 72:-0.112509 73:-0.112509 74:-0.112509 75:-0.112509 76:-0.112509 77:-0.112509 78:-0.112509 79:-0.112509 80:-0.112509 
-0.65765628933455234 0 0.31581373606219099 1 1 0 0.080805041554070783 0 0 1:-0.160128 2:-0.160128 3:-0.160128 4:-0.160128 5:-0.160128 6:-0.160128 7:-0.160128 8:-0.160128 9:-0.160128 10:-0.160128 11:-0.160128 12:-0.160128 13:-0.160128 14:-0.160128 15:-0.160128 16:-0.160128 17:-0.160128 18:-0.160128 19:-0.160128 20:-0.160128 21:-0.160128 22:-0.160128 23:-0.160128 24:-0.160128 25:-0.160128 26:-0.160128 27:-0.160128 28:-0.160128 29:-0.160128 30:-0.160128 31:-0.160128 32:-0.160128 33:-0.160128 34:-0.160128 35:-0.160128 36:-0.160128 37:-0.160128 38:-0.160128 39:-0.160128 40:-0.160128 41:-0.160128 42:-0.160128 43:-0.160128 44:-0.160128 45:-0.160128 46:-0.160128 47:-0.160128 48:-0.160128 49:-0.160128 50:-0.160128 51:-0.160128 52:-0.160128 53:-0.160128 54:-0.160128 55:-0.160128 56:-0.160128 57:-0.160128 58:-0.160128 59:1.974914 60:1.974914 61:-0.160128 62:-0.160128 63:-0.160128 64:-0.160128 65:-0.160128 66:-0.160128 67:-0.160128 68:-0.160128 69:-0.160128 70:-0.160128 71:-0.160128 72:-0.160128 73:-0.160128 74:-0.160128 75:-0.160128 76:8.38004 77:-0.160128 78:-0.160128 79:-0.160128 80:-0.160128 
-1 1 1 1 1 1 1 1 1 1:-0.112509 2:-0.112509 3:-0.112509 4:-0.112509 5:-0.112509 6:-0.112509 7:-0.112509 8:-0.112509 9:-0.112509 10:-0.112509 11:-0.112509 12:-0.112509 13:-0.112509 14:-0.112509 15:-0.112509 16:-0.112509 17:-0.112509 18:-0.112509 19:-0.112509 20:-0.112509 21:-0.112509 22:-0.112509 23:-0.112509 24:-0.112509 25:-0.112509 26:-0.112509 27:-0.112509 28:-0.112509 29:-0.112509 30:-0.112509 31:-0.112509 32:-0.112509 33:-0.112509 34:-0.112509 35:-0.112509 36:-0.112509 37:-0.112509 38:-0.112509 39:-0.112509 40:-0.112509 41:-0.112509 42:-0.112509 43:-0.112509 44:-0.112509 45:-0.112509 46:-0.112509 47:-0.112509 48:-0.112509 49:-0.112509 50:-0.112509 51:-0.112509 52:-0.112509 53:-0.112509 54:-0.112509 55:-0.112509 56:-0.112509 57:-0.112509 58:-0.112509 59:8.888197 60:-0.112509 61:-0.112509 62:-0.112509 63:-0.112509 64:-0.112509 65:-0.112509 66:-0.112509 67:-0.112509 68:-0.112509 69:-0.112509 70:-0.112509 71:-0.112509 72:-0.112509 73:-0.112509 74:-0.112509 75:-0.112509 76:-0.112509 77:-0.112509 78:-0.112509 79:-0.112509 80:-0.112509 
-0 0 0.13124493800357676 0 0 0 0 0 0 1:-0.160128 2:-0.160128 3:-0.160128 4:-0.160128 5:-0.160128 6:-0.160128 7:-0.160128 8:-0.160128 9:-0.160128 10:-0.160128 11:-0.160128 12:-0.160128 13:-0.160128 14:-0.160128 15:-0.160128 16:-0.160128 17:-0.160128 18:-0.160128 19:-0.160128 20:-0.160128 21:-0.160128 22:-0.160128 23:-0.160128 24:-0.160128 25:-0.160128 26:-0.160128 27:-0.160128 28:-0.160128 29:-0.160128 30:-0.160128 31:-0.160128 32:-0.160128 33:-0.160128 34:-0.160128 35:-0.160128 36:-0.160128 37:-0.160128 38:-0.160128 39:-0.160128 40:-0.160128 41:-0.160128 42:-0.160128 43:-0.160128 44:-0.160128 45:-0.160128 46:-0.160128 47:-0.160128 48:-0.160128 49:-0.160128 50:-0.160128 51:-0.160128 52:-0.160128 53:-0.160128 54:-0.160128 55:-0.160128 56:-0.160128 57:-0.160128 58:-0.160128 59:-0.160128 60:6.244998 61:-0.160128 62:-0.160128 63:-0.160128 64:-0.160128 65:-0.160128 66:-0.160128 67:-0.160128 68:-0.160128 69:-0.160128 70:-0.160128 71:-0.160128 72:-0.160128 73:-0.160128 74:-0.160128 75:-0.160128 76:6.244998 77:-0.160128 78:-0.160128 79:-0.160128 80:-0.160128 
-0 0 1 0 1 0.96176657436061785 1 0.25389035133224908 0 1:-0.160128 2:-0.160128 3:-0.160128 4:-0.160128 5:-0.160128 6:-0.160128 7:-0.160128 8:-0.160128 9:-0.160128 10:-0.160128 11:-0.160128 12:-0.160128 13:-0.160128 14:-0.160128 15:-0.160128 16:-0.160128 17:-0.160128 18:-0.160128 19:-0.160128 20:-0.160128 21:-0.160128 22:-0.160128 23:-0.160128 24:-0.160128 25:-0.160128 26:-0.160128 27:-0.160128 28:-0.160128 29:-0.160128 30:-0.160128 31:-0.160128 32:-0.160128 33:-0.160128 34:-0.160128 35:-0.160128 36:-0.160128 37:-0.160128 38:-0.160128 39:-0.160128 40:-0.160128 41:-0.160128 42:-0.160128 43:-0.160128 44:-0.160128 45:-0.160128 46:-0.160128 47:-0.160128 48:-0.160128 49:-0.160128 50:-0.160128 51:-0.160128 52:-0.160128 53:-0.160128 54:-0.160128 55:-0.160128 56:-0.160128 57:-0.160128 58:-0.160128 59:6.244998 60:6.244998 61:-0.160128 62:-0.160128 63:-0.160128 64:-0.160128 65:-0.160128 66:-0.160128 67:-0.160128 68:-0.160128 69:-0.160128 70:-0.160128 71:-0.160128 72:-0.160128 73:-0.160128 74:-0.160128 75:-0.160128 76:-0.160128 77:-0.160128 78:-0.160128 79:-0.160128 80:-0.160128 
-0.70902997567139725 0.30864721520865362 0.30245463929869948 1 1 1 1 0.40665715453296736 0 1:-0.160128 2:-0.160128 3:-0.160128 4:-0.160128 5:-0.160128 6:-0.160128 7:-0.160128 8:-0.160128 9:-0.160128 10:-0.160128 11:-0.160128 12:-0.160128 13:-0.160128 14:-0.160128 15:-0.160128 16:-0.160128 17:-0.160128 18:-0.160128 19:-0.160128 20:-0.160128 21:-0.160128 22:-0.160128 23:-0.160128 24:-0.160128 25:-0.160128 26:-0.160128 27:-0.160128 28:-0.160128 29:-0.160128 30:-0.160128 31:-0.160128 32:-0.160128 33:-0.160128 34:-0.160128 35:-0.160128 36:-0.160128 37:-0.160128 38:-0.160128 39:-0.160128 40:-0.160128 41:-0.160128 42:-0.160128 43:-0.160128 44:-0.160128 45:-0.160128 46:-0.160128 47:-0.160128 48:-0.160128 49:-0.160128 50:-0.160128 51:-0.160128 52:-0.160128 53:-0.160128 54:-0.160128 55:-0.160128 56:-0.160128 57:-0.160128 58:-0.160128 59:6.244998 60:-0.160128 61:-0.160128 62:-0.160128 63:-0.160128 64:-0.160128 65:-0.160128 66:-0.160128 67:-0.160128 68:-0.160128 69:-0.160128 70:-0.160128 71:-0.160128 72:-0.160128 73:-0.160128 74:-0.160128 75:-0.160128 76:6.244998 77:-0.160128 78:-0.160128 79:-0.160128 80:-0.160128 
-0 0 0 0 0 1 0 0 0 1:-0.112509 2:-0.112509 3:-0.112509 4:-0.112509 5:-0.112509 6:-0.112509 7:-0.112509 8:-0.112509 9:-0.112509 10:-0.112509 11:-0.112509 12:-0.112509 13:-0.112509 14:-0.112509 15:-0.112509 16:-0.112509 17:-0.112509 18:-0.112509 19:-0.112509 20:-0.112509 21:-0.112509 22:-0.112509 23:-0.112509 24:-0.112509 25:-0.112509 26:-0.112509 27:-0.112509 28:-0.112509 29:-0.112509 30:-0.112509 31:-0.112509 32:-0.112509 33:-0.112509 34:-0.112509 35:-0.112509 36:-0.112509 37:-0.112509 38:-0.112509 39:-0.112509 40:-0.112509 41:-0.112509 42:-0.112509 43:-0.112509 44:-0.112509 45:-0.112509 46:-0.112509 47:-0.112509 48:-0.112509 49:-0.112509 50:-0.112509 51:-0.112509 52:-0.112509 53:-0.112509 54:-0.112509 55:-0.112509 56:-0.112509 57:-0.112509 58:8.888197 59:-0.112509 60:-0.112509 61:-0.112509 62:-0.112509 63:-0.112509 64:-0.112509 65:-0.112509 66:-0.112509 67:-0.112509 68:-0.112509 69:-0.112509 70:-0.112509 71:-0.112509 72:-0.112509 73:-0.112509 74:-0.112509 75:-0.112509 76:-0.112509 77:-0.112509 78:-0.112509 79:-0.112509 80:-0.112509 
-0 0 1 1 1 1 1 1 1 1:-0.112509 2:-0.112509 3:-0.112509 4:-0.112509 5:-0.112509 6:-0.112509 7:-0.112509 8:-0.112509 9:-0.112509 10:-0.112509 11:-0.112509 12:-0.112509 13:-0.112509 14:-0.112509 15:-0.112509 16:-0.112509 17:-0.112509 18:-0.112509 19:-0.112509 20:-0.112509 21:-0.112509 22:-0.112509 23:-0.112509 24:-0.112509 25:-0.112509 26:-0.112509 27:-0.112509 28:-0.112509 29:-0.112509 30:-0.112509 31:-0.112509 32:-0.112509 33:-0.112509 34:-0.112509 35:-0.112509 36:-0.112509 37:-0.112509 38:-0.112509 39:-0.112509 40:-0.112509 41:-0.112509 42:-0.112509 43:-0.112509 44:-0.112509 45:-0.112509 46:-0.112509 47:-0.112509 48:-0.112509 49:-0.112509 50:-0.112509 51:-0.112509 52:-0.112509 53:-0.112509 54:-0.112509 55:-0.112509 56:-0.112509 57:8.888197 58:-0.112509 59:-0.112509 60:-0.112509 61:-0.112509 62:-0.112509 63:-0.112509 64:-0.112509 65:-0.112509 66:-0.112509 67:-0.112509 68:-0.112509 69:-0.112509 70:-0.112509 71:-0.112509 72:-0.112509 73:-0.112509 74:-0.112509 75:-0.112509 76:-0.112509 77:-0.112509 78:-0.112509 79:-0.112509 80:-0.112509 
-0 0.51344355736399061 1 1 1 1 1 1 1 1:-0.182237 2:-0.182237 3:-0.182237 4:-0.182237 5:-0.182237 6:-0.182237 7:-0.182237 8:-0.182237 9:-0.182237 10:-0.182237 11:-0.182237 12:-0.182237 13:-0.182237 14:-0.182237 15:-0.182237 16:-0.182237 17:-0.182237 18:-0.182237 19:-0.182237 20:-0.182237 21:-0.182237 22:-0.182237 23:-0.182237 24:-0.182237 25:-0.182237 26:-0.182237 27:-0.182237 28:-0.182237 29:-0.182237 30:-0.182237 31:-0.182237 32:-0.182237 33:-0.182237 34:-0.182237 35:-0.182237 36:-0.182237 37:-0.182237 38:-0.182237 39:-0.182237 40:-0.182237 41:-0.182237 42:-0.182237 43:-0.182237 44:-0.182237 45:-0.182237 46:-0.182237 47:-0.182237 48:-0.182237 49:-0.182237 50:-0.182237 51:-0.182237 52:-0.182237 53:-0.182237 54:-0.182237 55:-0.182237 56:-0.182237 57:7.107245 58:-0.182237 59:2.24759 60:-0.182237 61:-0.182237 62:-0.182237 63:-0.182237 64:-0.182237 65:-0.182237 66:-0.182237 67:-0.182237 68:-0.182237 69:-0.182237 70:-0.182237 71:-0.182237 72:-0.182237 73:-0.182237 74:4.677418 75:-0.182237 76:-0.182237 77:-0.182237 78:-0.182237 79:-0.182237 80:-0.182237 
-0 0 1 1 0 1 0 1 1 1:-0.160128 2:-0.160128 3:-0.160128 4:-0.160128 5:-0.160128 6:-0.160128 7:-0.160128 8:-0.160128 9:-0.160128 10:-0.160128 11:-0.160128 12:-0.160128 13:-0.160128 14:-0.160128 15:-0.160128 16:-0.160128 17:-0.160128 18:-0.160128 19:-0.160128 20:-0.160128 21:-0.160128 22:-0.160128 23:-0.160128 24:-0.160128 25:-0.160128 26:-0.160128 27:-0.160128 28:-0.160128 29:-0.160128 30:-0.160128 31:-0.160128 32:-0.160128 33:-0.160128 34:-0.160128 35:-0.160128 36:-0.160128 37:-0.160128 38:-0.160128 39:-0.160128 40:-0.160128 41:-0.160128 42:-0.160128 43:-0.160128 44:-0.160128 45:-0.160128 46:-0.160128 47:-0.160128 48:-0.160128 49:-0.160128 50:-0.160128 51:-0.160128 52:-0.160128 53:-0.160128 54:-0.160128 55:-0.160128 56:-0.160128 57:6.244998 58:-0.160128 59:-0.160128 60:6.244998 61:-0.160128 62:-0.160128 63:-0.160128 64:-0.160128 65:-0.160128 66:-0.160128 67:-0.160128 68:-0.160128 69:-0.160128 70:-0.160128 71:-0.160128 72:-0.160128 73:-0.160128 74:-0.160128 75:-0.160128 76:-0.160128 77:-0.160128 78:-0.160128 79:-0.160128 80:-0.160128 
-0 0.84434785831999126 1 1 1 1 0.033606851528772554 1 1 1:-0.136845 2:-0.136845 3:-0.136845 4:-0.136845 5:-0.136845 6:-0.136845 7:-0.136845 8:-0.136845 9:-0.136845 10:-0.136845 11:-0.136845 12:-0.136845 13:-0.136845 14:-0.136845 15:-0.136845 16:-0.136845 17:-0.136845 18:-0.136845 19:-0.136845 20:-0.136845 21:-0.136845 22:-0.136845 23:-0.136845 24:-0.136845 25:-0.136845 26:-0.136845 27:-0.136845 28:-0.136845 29:-0.136845 30:-0.136845 31:-0.136845 32:-0.136845 33:-0.136845 34:-0.136845 35:-0.136845 36:-0.136845 37:-0.136845 38:-0.136845 39:-0.136845 40:-0.136845 41:-0.136845 42:-0.136845 43:-0.136845 44:-0.136845 45:-0.136845 46:-0.136845 47:-0.136845 48:-0.136845 49:-0.136845 50:-0.136845 51:-0.136845 52:-0.136845 53:-0.136845 54:-0.136845 55:-0.136845 56:-0.136845 57:8.621243 58:-0.136845 59:-0.136845 60:-0.136845 61:2.052677 62:-0.136845 63:-0.136845 64:-0.136845 65:-0.136845 66:-0.136845 67:-0.136845 68:-0.136845 69:-0.136845 70:-0.136845 71:-0.136845 72:-0.136845 73:-0.136845 74:-0.136845 75:-0.136845 76:-0.136845 77:-0.136845 78:-0.136845 79:-0.136845 80:-0.136845 
-0.75658326930997033 1 1 1 1 1 1 1 1 1:-0.112509 2:-0.112509 3:-0.112509 4:-0.112509 5:-0.112509 6:-0.112509 7:-0.112509 8:-0.112509 9:-0.112509 10:-0.112509 11:-0.112509 12:-0.112509 13:-0.112509 14:-0.112509 15:-0.112509 16:-0.112509 17:-0.112509 18:-0.112509 19:-0.112509 20:-0.112509 21:-0.112509 22:-0.112509 23:-0.112509 24:-0.112509 25:-0.112509 26:-0.112509 27:-0.112509 28:-0.112509 29:-0.112509 30:-0.112509 31:-0.112509 32:-0.112509 33:-0.112509 34:-0.112509 35:-0.112509 36:-0.112509 37:-0.112509 38:-0.112509 39:-0.112509 40:-0.112509 41:-0.112509 42:-0.112509 43:-0.112509 44:-0.112509 45:-0.112509 46:-0.112509 47:-0.112509 48:-0.112509 49:-0.112509 50:-0.112509 51:-0.112509 52:-0.112509 53:-0.112509 54:-0.112509 55:-0.112509 56:-0.112509 57:-0.112509 58:-0.112509 59:8.888197 60:-0.112509 61:-0.112509 62:-0.112509 63:-0.112509 64:-0.112509 65:-0.112509 66:-0.112509 67:-0.112509 68:-0.112509 69:-0.112509 70:-0.112509 71:-0.112509 72:-0.112509 73:-0.112509 74:-0.112509 75:-0.112509 76:-0.112509 77:-0.112509 78:-0.112509 79:-0.112509 80:-0.112509 
-0 1 0 0.89196159933786745 1 1 1 1 0 1:-0.217072 2:-0.217072 3:-0.217072 4:-0.217072 5:-0.217072 6:-0.217072 7:-0.217072 8:-0.217072 9:-0.217072 10:-0.217072 11:-0.217072 12:-0.217072 13:-0.217072 14:-0.217072 15:-0.217072 16:-0.217072 17:-0.217072 18:-0.217072 19:-0.217072 20:-0.217072 21:-0.217072 22:-0.217072 23:-0.217072 24:-0.217072 25:-0.217072 26:-0.217072 27:-0.217072 28:-0.217072 29:-0.217072 30:-0.217072 31:-0.217072 32:-0.217072 33:-0.217072 34:-0.217072 35:-0.217072 36:-0.217072 37:-0.217072 38:-0.217072 39:-0.217072 40:-0.217072 41:-0.217072 42:-0.217072 43:-0.217072 44:-0.217072 45:-0.217072 46:-0.217072 47:-0.217072 48:-0.217072 49:-0.217072 50:-0.217072 51:-0.217072 52:-0.217072 53:-0.217072 54:-0.217072 55:-0.217072 56:-0.217072 57:2.677227 58:-0.217072 59:5.571526 60:-0.217072 61:-0.217072 62:-0.217072 63:-0.217072 64:-0.217072 65:-0.217072 66:-0.217072 67:-0.217072 68:-0.217072 69:-0.217072 70:-0.217072 71:-0.217072 72:-0.217072 73:-0.217072 74:5.571526 75:-0.217072 76:2.677227 77:-0.217072 78:-0.217072 79:-0.217072 80:-0.217072 
-0 0 1 1 1 1 1 1 1 1:-0.142857 2:-0.142857 3:-0.142857 4:-0.142857 5:-0.142857 6:-0.142857 7:-0.142857 8:-0.142857 9:-0.142857 10:-0.142857 11:-0.142857 12:-0.142857 13:-0.142857 14:-0.142857 15:-0.142857 16:-0.142857 17:-0.142857 18:-0.142857 19:-0.142857 20:-0.142857 21:-0.142857 22:-0.142857 23:-0.142857 24:-0.142857 25:-0.142857 26:-0.142857 27:-0.142857 28:-0.142857 29:-0.142857 30:-0.142857 31:-0.142857 32:-0.142857 33:-0.142857 34:-0.142857 35:-0.142857 36:-0.142857 37:-0.142857 38:-0.142857 39:-0.142857 40:-0.142857 41:-0.142857 42:-0.142857 43:-0.142857 44:-0.142857 45:-0.142857 46:-0.142857 47:-0.142857 48:-0.142857 49:-0.142857 50:-0.142857 51:-0.142857 52:-0.142857 53:-0.142857 54:-0.142857 55:-0.142857 56:-0.142857 57:8.428576 58:2.714287 59:-0.142857 60:-0.142857 61:-0.142857 62:-0.142857 63:-0.142857 64:-0.142857 65:-0.142857 66:-0.142857 67:-0.142857 68:-0.142857 69:-0.142857 70:-0.142857 71:-0.142857 72:-0.142857 73:-0.142857 74:-0.142857 75:-0.142857 76:-0.142857 77:-0.142857 78:-0.142857 79:-0.142857 80:-0.142857 
-0 0 1 1 1 1 1 1 1 1:-0.112509 2:-0.112509 3:-0.112509 4:-0.112509 5:-0.112509 6:-0.112509 7:-0.112509 8:-0.112509 9:-0.112509 10:-0.112509 11:-0.112509 12:-0.112509 13:-0.112509 14:-0.112509 15:-0.112509 16:-0.112509 17:-0.112509 18:-0.112509 19:-0.112509 20:-0.112509 21:-0.112509 22:-0.112509 23:-0.112509 24:-0.112509 25:-0.112509 26:-0.112509 27:-0.112509 28:-0.112509 29:-0.112509 30:-0.112509 31:-0.112509 32:-0.112509 33:-0.112509 34:-0.112509 35:-0.112509 36:-0.112509 37:-0.112509 38:-0.112509 39:-0.112509 40:-0.112509 41:-0.112509 42:-0.112509 43:-0.112509 44:-0.112509 45:-0.112509 46:-0.112509 47:-0.112509 48:-0.112509 49:-0.112509 50:-0.112509 51:-0.112509 52:-0.112509 53:-0.112509 54:-0.112509 55:-0.112509 56:-0.112509 57:8.888197 58:-0.112509 59:-0.112509 60:-0.112509 61:-0.112509 62:-0.112509 63:-0.112509 64:-0.112509 65:-0.112509 66:-0.112509 67:-0.112509 68:-0.112509 69:-0.112509 70:-0.112509 71:-0.112509 72:-0.112509 73:-0.112509 74:-0.112509 75:-0.112509 76:-0.112509 77:-0.112509 78:-0.112509 79:-0.112509 80:-0.112509 
-0 1 1 0 0 1 0.26627608265846009 1 0 1:-0.112509 2:-0.112509 3:-0.112509 4:-0.112509 5:-0.112509 6:-0.112509 7:-0.112509 8:-0.112509 9:-0.112509 10:-0.112509 11:-0.112509 12:-0.112509 13:-0.112509 14:-0.112509 15:-0.112509 16:-0.112509 17:-0.112509 18:-0.112509 19:-0.112509 20:-0.112509 21:-0.112509 22:-0.112509 23:-0.112509 24:-0.112509 25:-0.112509 26:-0.112509 27:-0.112509 28:-0.112509 29:-0.112509 30:-0.112509 31:-0.112509 32:-0.112509 33:-0.112509 34:-0.112509 35:-0.112509 36:-0.112509 37:-0.112509 38:-0.112509 39:-0.112509 40:-0.112509 41:-0.112509 42:-0.112509 43:-0.112509 44:-0.112509 45:-0.112509 46:-0.112509 47:-0.112509 48:-0.112509 49:-0.112509 50:-0.112509 51:-0.112509 52:-0.112509 53:-0.112509 54:-0.112509 55:-0.112509 56:-0.112509 57:-0.112509 58:-0.112509 59:-0.112509 60:-0.112509 61:-0.112509 62:-0.112509 63:-0.112509 64:-0.112509 65:-0.112509 66:-0.112509 67:-0.112509 68:-0.112509 69:-0.112509 70:-0.112509 71:-0.112509 72:-0.112509 73:-0.112509 74:8.888196 75:-0.112509 76:-0.112509 77:-0.112509 78:-0.112509 79:-0.112509 80:-0.112509 
-0.91000290916127136 0.73089077706867778 1 0 1 1 0.98943481473041395 1 0 1:-0.112509 2:-0.112509 3:-0.112509 4:-0.112509 5:-0.112509 6:-0.112509 7:-0.112509 8:-0.112509 9:-0.112509 10:-0.112509 11:-0.112509 12:-0.112509 13:-0.112509 14:-0.112509 15:-0.112509 16:-0.112509 17:-0.112509 18:-0.112509 19:-0.112509 20:-0.112509 21:-0.112509 22:-0.112509 23:-0.112509 24:-0.112509 25:-0.112509 26:-0.112509 27:-0.112509 28:-0.112509 29:-0.112509 30:-0.112509 31:-0.112509 32:-0.112509 33:-0.112509 34:-0.112509 35:-0.112509 36:-0.112509 37:-0.112509 38:-0.112509 39:-0.112509 40:-0.112509 41:-0.112509 42:-0.112509 43:-0.112509 44:-0.112509 45:-0.112509 46:-0.112509 47:-0.112509 48:-0.112509 49:-0.112509 50:-0.112509 51:-0.112509 52:-0.112509 53:-0.112509 54:-0.112509 55:-0.112509 56:-0.112509 57:-0.112509 58:-0.112509 59:-0.112509 60:-0.112509 61:-0.112509 62:-0.112509 63:8.888197 64:-0.112509 65:-0.112509 66:-0.112509 67:-0.112509 68:-0.112509 69:-0.112509 70:-0.112509 71:-0.112509 72:-0.112509 73:-0.112509 74:-0.112509 75:-0.112509 76:-0.112509 77:-0.112509 78:-0.112509 79:-0.112509 80:-0.112509 
-0 0.18450291318959647 1 1 1 1 1 1 1 1:-0.112509 2:-0.112509 3:-0.112509 4:-0.112509 5:-0.112509 6:-0.112509 7:-0.112509 8:-0.112509 9:-0.112509 10:-0.112509 11:-0.112509 12:-0.112509 13:-0.112509 14:-0.112509 15:-0.112509 16:-0.112509 17:-0.112509 18:-0.112509 19:-0.112509 20:-0.112509 21:-0.112509 22:-0.112509 23:-0.112509 24:-0.112509 25:-0.112509 26:-0.112509 27:-0.112509 28:-0.112509 29:-0.112509 30:-0.112509 31:-0.112509 32:-0.112509 33:-0.112509 34:-0.112509 35:-0.112509 36:-0.112509 37:-0.112509 38:-0.112509 39:-0.112509 40:-0.112509 41:-0.112509 42:-0.112509 43:-0.112509 44:-0.112509 45:-0.112509 46:-0.112509 47:-0.112509 48:-0.112509 49:-0.112509 50:-0.112509 51:-0.112509 52:-0.112509 53:-0.112509 54:-0.112509 55:-0.112509 56:-0.112509 57:8.888197 58:-0.112509 59:-0.112509 60:-0.112509 61:-0.112509 62:-0.112509 63:-0.112509 64:-0.112509 65:-0.112509 66:-0.112509 67:-0.112509 68:-0.112509 69:-0.112509 70:-0.112509 71:-0.112509 72:-0.112509 73:-0.112509 74:-0.112509 75:-0.112509 76:-0.112509 77:-0.112509 78:-0.112509 79:-0.112509 80:-0.112509 
-0 1 1 1 1 1 1 1 1 1:-0.112509 2:-0.112509 3:-0.112509 4:-0.112509 5:-0.112509 6:-0.112509 7:-0.112509 8:-0.112509 9:-0.112509 10:-0.112509 11:-0.112509 12:-0.112509 13:-0.112509 14:-0.112509 15:-0.112509 16:-0.112509 17:-0.112509 18:-0.112509 19:-0.112509 20:-0.112509 21:-0.112509 22:-0.112509 23:-0.112509 24:-0.112509 25:-0.112509 26:-0.112509 27:-0.112509 28:-0.112509 29:-0.112509 30:-0.112509 31:-0.112509 32:-0.112509 33:-0.112509 34:-0.112509 35:-0.112509 36:-0.112509 37:-0.112509 38:-0.112509 39:-0.112509 40:-0.112509 41:-0.112509 42:-0.112509 43:-0.112509 44:-0.112509 45:-0.112509 46:-0.112509 47:-0.112509 48:-0.112509 49:-0.112509 50:-0.112509 51:-0.112509 52:-0.112509 53:-0.112509 54:-0.112509 55:-0.112509 56:-0.112509 57:8.888197 58:-0.112509 59:-0.112509 60:-0.112509 61:-0.112509 62:-0.112509 63:-0.112509 64:-0.112509 65:-0.112509 66:-0.112509 67:-0.112509 68:-0.112509 69:-0.112509 70:-0.112509 71:-0.112509 72:-0.112509 73:-0.112509 74:-0.112509 75:-0.112509 76:-0.112509 77:-0.112509 78:-0.112509 79:-0.112509 80:-0.112509 
-0 1 1 0 0.070396387260859353 0.89117476209418622 1 1 1 1:8.888204 2:-0.112509 3:-0.112509 4:-0.112509 5:-0.112509 6:-0.112509 7:-0.112509 8:-0.112509 9:-0.112509 10:-0.112509 11:-0.112509 12:-0.112509 13:-0.112509 14:-0.112509 15:-0.112509 16:-0.112509 17:-0.112509 18:-0.112509 19:-0.112509 20:-0.112509 21:-0.112509 22:-0.112509 23:-0.112509 24:-0.112509 25:-0.112509 26:-0.112509 27:-0.112509 28:-0.112509 29:-0.112509 30:-0.112509 31:-0.112509 32:-0.112509 33:-0.112509 34:-0.112509 35:-0.112509 36:-0.112509 37:-0.112509 38:-0.112509 39:-0.112509 40:-0.112509 41:-0.112509 42:-0.112509 43:-0.112509 44:-0.112509 45:-0.112509 46:-0.112509 47:-0.112509 48:-0.112509 49:-0.112509 50:-0.112509 51:-0.112509 52:-0.112509 53:-0.112509 54:-0.112509 55:-0.112509 56:-0.112509 57:-0.112509 58:-0.112509 59:-0.112509 60:-0.112509 61:-0.112509 62:-0.112509 63:-0.112509 64:-0.112509 65:-0.112509 66:-0.112509 67:-0.112509 68:-0.112509 69:-0.112509 70:-0.112509 71:-0.112509 72:-0.112509 73:-0.112509 74:-0.112509 75:-0.112509 76:-0.112509 77:-0.112509 78:-0.112509 79:-0.112509 80:-0.112509 
-0 0 0 0.72679051050710064 0 1 0 0 0 1:-0.112509 2:-0.112509 3:-0.112509 4:-0.112509 5:-0.112509 6:-0.112509 7:-0.112509 8:-0.112509 9:-0.112509 10:-0.112509 11:-0.112509 12:-0.112509 13:-0.112509 14:-0.112509 15:-0.112509 16:-0.112509 17:-0.112509 18:-0.112509 19:-0.112509 20:-0.112509 21:-0.112509 22:-0.112509 23:-0.112509 24:-0.112509 25:-0.112509 26:-0.112509 27:-0.112509 28:-0.112509 29:-0.112509 30:-0.112509 31:-0.112509 32:-0.112509 33:-0.112509 34:-0.112509 35:-0.112509 36:-0.112509 37:-0.112509 38:-0.112509 39:-0.112509 40:-0.112509 41:-0.112509 42:-0.112509 43:-0.112509 44:-0.112509 45:-0.112509 46:-0.112509 47:-0.112509 48:-0.112509 49:-0.112509 50:-0.112509 51:-0.112509 52:-0.112509 53:-0.112509 54:-0.112509 55:-0.112509 56:-0.112509 57:-0.112509 58:8.888197 59:-0.112509 60:-0.112509 61:-0.112509 62:-0.112509 63:-0.112509 64:-0.112509 65:-0.112509 66:-0.112509 67:-0.112509 68:-0.112509 69:-0.112509 70:-0.112509 71:-0.112509 72:-0.112509 73:-0.112509 74:-0.112509 75:-0.112509 76:-0.112509 77:-0.112509 78:-0.112509 79:-0.112509 80:-0.112509 
-0 0 0.21083003021207425 1 0 1 0.96696051599054766 0 0 1:-0.112509 2:-0.112509 3:-0.112509 4:-0.112509 5:-0.112509 6:-0.112509 7:-0.112509 8:-0.112509 9:-0.112509 10:-0.112509 11:-0.112509 12:-0.112509 13:-0.112509 14:-0.112509 15:-0.112509 16:-0.112509 17:-0.112509 18:-0.112509 19:-0.112509 20:-0.112509 21:-0.112509 22:-0.112509 23:-0.112509 24:-0.112509 25:-0.112509 26:-0.112509 27:-0.112509 28:-0.112509 29:-0.112509 30:-0.112509 31:-0.112509 32:-0.112509 33:-0.112509 34:-0.112509 35:-0.112509 36:-0.112509 37:-0.112509 38:-0.112509 39:-0.112509 40:-0.112509 41:-0.112509 42:-0.112509 43:-0.112509 44:-0.112509 45:-0.112509 46:-0.112509 47:-0.112509 48:-0.112509 49:-0.112509 50:-0.112509 51:-0.112509 52:-0.112509 53:-0.112509 54:-0.112509 55:-0.112509 56:-0.112509 57:-0.112509 58:8.888197 59:-0.112509 60:-0.112509 61:-0.112509 62:-0.112509 63:-0.112509 64:-0.112509 65:-0.112509 66:-0.112509 67:-0.112509 68:-0.112509 69:-0.112509 70:-0.112509 71:-0.112509 72:-0.112509 73:-0.112509 74:-0.112509 75:-0.112509 76:-0.112509 77:-0.112509 78:-0.112509 79:-0.112509 80:-0.112509 
-1 0.557021901203687 1 1 1 1 0.55542355185074532 1 1 1:-0.160128 2:-0.160128 3:-0.160128 4:-0.160128 5:-0.160128 6:-0.160128 7:-0.160128 8:-0.160128 9:-0.160128 10:-0.160128 11:-0.160128 12:-0.160128 13:-0.160128 14:-0.160128 15:-0.160128 16:-0.160128 17:-0.160128 18:-0.160128 19:-0.160128 20:-0.160128 21:-0.160128 22:-0.160128 23:-0.160128 24:-0.160128 25:-0.160128 26:-0.160128 27:-0.160128 28:-0.160128 29:-0.160128 30:-0.160128 31:-0.160128 32:-0.160128 33:-0.160128 34:-0.160128 35:-0.160128 36:-0.160128 37:-0.160128 38:-0.160128 39:-0.160128 40:6.244997 41:-0.160128 42:-0.160128 43:-0.160128 44:-0.160128 45:-0.160128 46:-0.160128 47:-0.160128 48:-0.160128 49:-0.160128 50:-0.160128 51:-0.160128 52:-0.160128 53:-0.160128 54:-0.160128 55:-0.160128 56:-0.160128 57:6.244997 58:-0.160128 59:-0.160128 60:-0.160128 61:-0.160128 62:-0.160128 63:-0.160128 64:-0.160128 65:-0.160128 66:-0.160128 67:-0.160128 68:-0.160128 69:-0.160128 70:-0.160128 71:-0.160128 72:-0.160128 73:-0.160128 74:-0.160128 75:-0.160128 76:-0.160128 77:-0.160128 78:-0.160128 79:-0.160128 80:-0.160128 
-0.46300357302633577 1 1 0.51058840913971648 1 0.97906413212421195 1 1 1 1:8.888204 2:-0.112509 3:-0.112509 4:-0.112509 5:-0.112509 6:-0.112509 7:-0.112509 8:-0.112509 9:-0.112509 10:-0.112509 11:-0.112509 12:-0.112509 13:-0.112509 14:-0.112509 15:-0.112509 16:-0.112509 17:-0.112509 18:-0.112509 19:-0.112509 20:-0.112509 21:-0.112509 22:-0.112509 23:-0.112509 24:-0.112509 25:-0.112509 26:-0.112509 27:-0.112509 28:-0.112509 29:-0.112509 30:-0.112509 31:-0.112509 32:-0.112509 33:-0.112509 34:-0.112509 35:-0.112509 36:-0.112509 37:-0.112509 38:-0.112509 39:-0.112509 40:-0.112509 41:-0.112509 42:-0.112509 43:-0.112509 44:-0.112509 45:-0.112509 46:-0.112509 47:-0.112509 48:-0.112509 49:-0.112509 50:-0.112509 51:-0.112509 52:-0.112509 53:-0.112509 54:-0.112509 55:-0.112509 56:-0.112509 57:-0.112509 58:-0.112509 59:-0.112509 60:-0.112509 61:-0.112509 62:-0.112509 63:-0.112509 64:-0.112509 65:-0.112509 66:-0.112509 67:-0.112509 68:-0.112509 69:-0.112509 70:-0.112509 71:-0.112509 72:-0.112509 73:-0.112509 74:-0.112509 75:-0.112509 76:-0.112509 77:-0.112509 78:-0.112509 79:-0.112509 80:-0.112509 
-0 0 0.45699144063050257 0 0 0 0 0 0 1:-0.112509 2:-0.112509 3:-0.112509 4:-0.112509 5:-0.112509 6:-0.112509 7:-0.112509 8:-0.112509 9:-0.112509 10:-0.112509 11:-0.112509 12:-0.112509 13:-0.112509 14:-0.112509 15:-0.112509 16:-0.112509 17:-0.112509 18:-0.112509 19:-0.112509 20:-0.112509 21:-0.112509 22:-0.112509 23:-0.112509 24:-0.112509 25:-0.112509 26:-0.112509 27:-0.112509 28:-0.112509 29:-0.112509 30:-0.112509 31:-0.112509 32:-0.112509 33:-0.112509 34:-0.112509 35:-0.112509 36:-0.112509 37:-0.112509 38:-0.112509 39:-0.112509 40:-0.112509 41:-0.112509 42:-0.112509 43:-0.112509 44:-0.112509 45:-0.112509 46:-0.112509 47:-0.112509 48:-0.112509 49:-0.112509 50:-0.112509 51:-0.112509 52:-0.112509 53:-0.112509 54:-0.112509 55:-0.112509 56:-0.112509 57:-0.112509 58:-0.112509 59:-0.112509 60:8.888197 61:-0.112509 62:-0.112509 63:-0.112509 64:-0.112509 65:-0.112509 66:-0.112509 67:-0.112509 68:-0.112509 69:-0.112509 70:-0.112509 71:-0.112509 72:-0.112509 73:-0.112509 74:-0.112509 75:-0.112509 76:-0.112509 77:-0.112509 78:-0.112509 79:-0.112509 80:-0.112509 
-0 1 1 0.10648494842612764 0.4842818716370359 1 0.96710658803389149 1 0.245524043708088 1:-0.112509 2:-0.112509 3:-0.112509 4:-0.112509 5:-0.112509 6:-0.112509 7:-0.112509 8:-0.112509 9:-0.112509 10:-0.112509 11:-0.112509 12:-0.112509 13:-0.112509 14:-0.112509 15:-0.112509 16:-0.112509 17:-0.112509 18:-0.112509 19:-0.112509 20:-0.112509 21:-0.112509 22:-0.112509 23:-0.112509 24:-0.112509 25:-0.112509 26:-0.112509 27:-0.112509 28:-0.112509 29:-0.112509 30:-0.112509 31:-0.112509 32:-0.112509 33:-0.112509 34:-0.112509 35:-0.112509 36:-0.112509 37:-0.112509 38:-0.112509 39:-0.112509 40:-0.112509 41:-0.112509 42:-0.112509 43:-0.112509 44:-0.112509 45:-0.112509 46:-0.112509 47:-0.112509 48:-0.112509 49:-0.112509 50:-0.112509 51:-0.112509 52:-0.112509 53:-0.112509 54:-0.112509 55:-0.112509 56:-0.112509 57:-0.112509 58:-0.112509 59:-0.112509 60:-0.112509 61:-0.112509 62:-0.112509 63:-0.112509 64:-0.112509 65:-0.112509 66:-0.112509 67:-0.112509 68:-0.112509 69:-0.112509 70:-0.112509 71:-0.112509 72:-0.112509 73:-0.112509 74:8.888196 75:-0.112509 76:-0.112509 77:-0.112509 78:-0.112509 79:-0.112509 80:-0.112509 
-0 0.61010385583549276 1 1 0.33692043004892303 1 0 1 1 1:-0.242827 2:-0.242827 3:-0.242827 4:-0.242827 5:-0.242827 6:-0.242827 7:-0.242827 8:-0.242827 9:-0.242827 10:-0.242827 11:-0.242827 12:-0.242827 13:-0.242827 14:-0.242827 15:-0.242827 16:-0.242827 17:-0.242827 18:-0.242827 19:-0.242827 20:-0.242827 21:-0.242827 22:-0.242827 23:-0.242827 24:-0.242827 25:-0.242827 26:-0.242827 27:-0.242827 28:-0.242827 29:-0.242827 30:-0.242827 31:-0.242827 32:-0.242827 33:-0.242827 34:-0.242827 35:-0.242827 36:-0.242827 37:-0.242827 38:-0.242827 39:-0.242827 40:-0.242827 41:-0.242827 42:-0.242827 43:-0.242827 44:-0.242827 45:-0.242827 46:-0.242827 47:-0.242827 48:-0.242827 49:-0.242827 50:-0.242827 51:-0.242827 52:-0.242827 53:-0.242827 54:-0.242827 55:-0.242827 56:-0.242827 57:5.307512 58:-0.242827 59:2.532342 60:-0.242827 61:2.532342 62:-0.242827 63:-0.242827 64:-0.242827 65:-0.242827 66:-0.242827 67:-0.242827 68:-0.242827 69:-0.242827 70:-0.242827 71:-0.242827 72:-0.242827 73:-0.242827 74:5.307512 75:-0.242827 76:2.532342 77:-0.242827 78:-0.242827 79:-0.242827 80:-0.242827 
-0.72315021950272151 1 1 0 0 1 0 1 0 1:-0.112509 2:-0.112509 3:-0.112509 4:-0.112509 5:-0.112509 6:-0.112509 7:-0.112509 8:-0.112509 9:-0.112509 10:-0.112509 11:-0.112509 12:-0.112509 13:-0.112509 14:-0.112509 15:-0.112509 16:-0.112509 17:-0.112509 18:-0.112509 19:-0.112509 20:-0.112509 21:-0.112509 22:-0.112509 23:-0.112509 24:-0.112509 25:-0.112509 26:-0.112509 27:-0.112509 28:-0.112509 29:-0.112509 30:-0.112509 31:-0.112509 32:-0.112509 33:-0.112509 34:-0.112509 35:-0.112509 36:-0.112509 37:-0.112509 38:-0.112509 39:-0.112509 40:-0.112509 41:-0.112509 42:-0.112509 43:-0.112509 44:-0.112509 45:-0.112509 46:-0.112509 47:-0.112509 48:-0.112509 49:-0.112509 50:-0.112509 51:-0.112509 52:-0.112509 53:-0.112509 54:-0.112509 55:-0.112509 56:-0.112509 57:-0.112509 58:-0.112509 59:-0.112509 60:-0.112509 61:-0.112509 62:-0.112509 63:-0.112509 64:-0.112509 65:-0.112509 66:-0.112509 67:-0.112509 68:-0.112509 69:-0.112509 70:-0.112509 71:-0.112509 72:-0.112509 73:-0.112509 74:8.888193 75:-0.112509 76:-0.112509 77:-0.112509 78:-0.112509 79:-0.112509 80:-0.112509 
-0 0 1 0 0 1 0.062799522089799026 0 0 1:-0.160128 2:-0.160128 3:-0.160128 4:-0.160128 5:-0.160128 6:-0.160128 7:-0.160128 8:-0.160128 9:-0.160128 10:-0.160128 11:-0.160128 12:-0.160128 13:-0.160128 14:-0.160128 15:-0.160128 16:-0.160128 17:-0.160128 18:-0.160128 19:-0.160128 20:-0.160128 21:-0.160128 22:-0.160128 23:-0.160128 24:-0.160128 25:-0.160128 26:-0.160128 27:-0.160128 28:-0.160128 29:-0.160128 30:-0.160128 31:-0.160128 32:-0.160128 33:-0.160128 34:-0.160128 35:-0.160128 36:-0.160128 37:-0.160128 38:-0.160128 39:-0.160128 40:-0.160128 41:-0.160128 42:-0.160128 43:-0.160128 44:-0.160128 45:-0.160128 46:-0.160128 47:-0.160128 48:-0.160128 49:-0.160128 50:-0.160128 51:-0.160128 52:-0.160128 53:-0.160128 54:-0.160128 55:-0.160128 56:-0.160128 57:-0.160128 58:6.244998 59:-0.160128 60:6.244998 61:-0.160128 62:-0.160128 63:-0.160128 64:-0.160128 65:-0.160128 66:-0.160128 67:-0.160128 68:-0.160128 69:-0.160128 70:-0.160128 71:-0.160128 72:-0.160128 73:-0.160128 74:-0.160128 75:-0.160128 76:-0.160128 77:-0.160128 78:-0.160128 79:-0.160128 80:-0.160128 
-0 0 1 0.92384216813554931 0.99593131915521227 1 0.26491398195628263 1 1 1:-0.151717 2:-0.151717 3:-0.151717 4:-0.151717 5:-0.151717 6:-0.151717 7:-0.151717 8:-0.151717 9:-0.151717 10:-0.151717 11:-0.151717 12:-0.151717 13:-0.151717 14:-0.151717 15:-0.151717 16:-0.151717 17:-0.151717 18:-0.151717 19:-0.151717 20:-0.151717 21:-0.151717 22:-0.151717 23:-0.151717 24:-0.151717 25:-0.151717 26:-0.151717 27:-0.151717 28:-0.151717 29:-0.151717 30:-0.151717 31:-0.151717 32:-0.151717 33:-0.151717 34:-0.151717 35:-0.151717 36:-0.151717 37:-0.151717 38:-0.151717 39:-0.151717 40:-0.151717 41:-0.151717 42:-0.151717 43:-0.151717 44:-0.151717 45:-0.151717 46:-0.151717 47:-0.151717 48:-0.151717 49:-0.151717 50:-0.151717 51:-0.151717 52:-0.151717 53:-0.151717 54:-0.151717 55:-0.151717 56:-0.151717 57:3.894058 58:-0.151717 59:-0.151717 60:-0.151717 61:-0.151717 62:-0.151717 63:7.939832 64:-0.151717 65:-0.151717 66:-0.151717 67:-0.151717 68:-0.151717 69:-0.151717 70:-0.151717 71:-0.151717 72:-0.151717 73:-0.151717 74:-0.151717 75:-0.151717 76:-0.151717 77:-0.151717 78:-0.151717 79:-0.151717 80:-0.151717 
-0 0 1 0 0 0 0 0 0 1:-0.112509 2:-0.112509 3:-0.112509 4:-0.112509 5:-0.112509 6:-0.112509 7:-0.112509 8:-0.112509 9:-0.112509 10:-0.112509 11:-0.112509 12:-0.112509 13:-0.112509 14:-0.112509 15:-0.112509 16:-0.112509 17:-0.112509 18:-0.112509 19:-0.112509 20:-0.112509 21:-0.112509 22:-0.112509 23:-0.112509 24:-0.112509 25:-0.112509 26:-0.112509 27:-0.112509 28:-0.112509 29:-0.112509 30:-0.112509 31:-0.112509 32:-0.112509 33:-0.112509 34:-0.112509 35:-0.112509 36:-0.112509 37:-0.112509 38:-0.112509 39:-0.112509 40:-0.112509 41:-0.112509 42:-0.112509 43:-0.112509 44:-0.112509 45:-0.112509 46:-0.112509 47:-0.112509 48:-0.112509 49:-0.112509 50:-0.112509 51:-0.112509 52:-0.112509 53:-0.112509 54:-0.112509 55:-0.112509 56:-0.112509 57:-0.112509 58:-0.112509 59:-0.112509 60:8.888197 61:-0.112509 62:-0.112509 63:-0.112509 64:-0.112509 65:-0.112509 66:-0.112509 67:-0.112509 68:-0.112509 69:-0.112509 70:-0.112509 71:-0.112509 72:-0.112509 73:-0.112509 74:-0.112509 75:-0.112509 76:-0.112509 77:-0.112509 78:-0.112509 79:-0.112509 80:-0.112509 
-0 0 1 1 0.076747908653874139 1 1 0.28431331944882415 0 1:-0.112509 2:-0.112509 3:-0.112509 4:-0.112509 5:-0.112509 6:-0.112509 7:-0.112509 8:-0.112509 9:-0.112509 10:-0.112509 11:-0.112509 12:-0.112509 13:-0.112509 14:-0.112509 15:-0.112509 16:-0.112509 17:-0.112509 18:-0.112509 19:-0.112509 20:-0.112509 21:-0.112509 22:-0.112509 23:-0.112509 24:-0.112509 25:-0.112509 26:-0.112509 27:-0.112509 28:-0.112509 29:-0.112509 30:-0.112509 31:-0.112509 32:-0.112509 33:-0.112509 34:-0.112509 35:-0.112509 36:-0.112509 37:-0.112509 38:-0.112509 39:-0.112509 40:-0.112509 41:-0.112509 42:-0.112509 43:-0.112509 44:-0.112509 45:-0.112509 46:-0.112509 47:-0.112509 48:-0.112509 49:-0.112509 50:-0.112509 51:-0.112509 52:-0.112509 53:-0.112509 54:-0.112509 55:-0.112509 56:-0.112509 57:-0.112509 58:8.888197 59:-0.112509 60:-0.112509 61:-0.112509 62:-0.112509 63:-0.112509 64:-0.112509 65:-0.112509 66:-0.112509 67:-0.112509 68:-0.112509 69:-0.112509 70:-0.112509 71:-0.112509 72:-0.112509 73:-0.112509 74:-0.112509 75:-0.112509 76:-0.112509 77:-0.112509 78:-0.112509 79:-0.112509 80:-0.112509 
-0 0 1 1 1 1 0.28980131077738353 1 1 1:-0.151717 2:-0.151717 3:-0.151717 4:-0.151717 5:-0.151717 6:-0.151717 7:-0.151717 8:-0.151717 9:-0.151717 10:-0.151717 11:-0.151717 12:-0.151717 13:-0.151717 14:-0.151717 15:-0.151717 16:-0.151717 17:-0.151717 18:-0.151717 19:-0.151717 20:-0.151717 21:-0.151717 22:-0.151717 23:-0.151717 24:-0.151717 25:-0.151717 26:-0.151717 27:-0.151717 28:-0.151717 29:-0.151717 30:-0.151717 31:-0.151717 32:-0.151717 33:-0.151717 34:-0.151717 35:-0.151717 36:-0.151717 37:-0.151717 38:-0.151717 39:-0.151717 40:-0.151717 41:-0.151717 42:-0.151717 43:-0.151717 44:-0.151717 45:-0.151717 46:-0.151717 47:-0.151717 48:-0.151717 49:-0.151717 50:-0.151717 51:-0.151717 52:-0.151717 53:-0.151717 54:-0.151717 55:-0.151717 56:-0.151717 57:7.939832 58:-0.151717 59:-0.151717 60:3.894058 61:-0.151717 62:-0.151717 63:-0.151717 64:-0.151717 65:-0.151717 66:-0.151717 67:-0.151717 68:-0.151717 69:-0.151717 70:-0.151717 71:-0.151717 72:-0.151717 73:-0.151717 74:-0.151717 75:-0.151717 76:-0.151717 77:-0.151717 78:-0.151717 79:-0.151717 80:-0.151717 
-0 0 1 1 1 1 1 1 1 1:-0.151717 2:-0.151717 3:-0.151717 4:-0.151717 5:-0.151717 6:-0.151717 7:-0.151717 8:-0.151717 9:-0.151717 10:-0.151717 11:-0.151717 12:-0.151717 13:-0.151717 14:-0.151717 15:-0.151717 16:-0.151717 17:-0.151717 18:-0.151717 19:-0.151717 20:-0.151717 21:-0.151717 22:-0.151717 23:-0.151717 24:-0.151717 25:-0.151717 26:-0.151717 27:-0.151717 28:-0.151717 29:-0.151717 30:-0.151717 31:-0.151717 32:-0.151717 33:-0.151717 34:-0.151717 35:-0.151717 36:-0.151717 37:-0.151717 38:-0.151717 39:-0.151717 40:-0.151717 41:-0.151717 42:-0.151717 43:-0.151717 44:-0.151717 45:-0.151717 46:-0.151717 47:-0.151717 48:-0.151717 49:-0.151717 50:-0.151717 51:-0.151717 52:-0.151717 53:-0.151717 54:-0.151717 55:-0.151717 56:-0.151717 57:7.939832 58:-0.151717 59:3.894058 60:-0.151717 61:-0.151717 62:-0.151717 63:-0.151717 64:-0.151717 65:-0.151717 66:-0.151717 67:-0.151717 68:-0.151717 69:-0.151717 70:-0.151717 71:-0.151717 72:-0.151717 73:-0.151717 74:-0.151717 75:-0.151717 76:-0.151717 77:-0.151717 78:-0.151717 79:-0.151717 80:-0.151717 
-0.52197716570021513 1 1 1 1 1 1 1 1 1:-0.112509 2:-0.112509 3:-0.112509 4:-0.112509 5:-0.112509 6:-0.112509 7:-0.112509 8:-0.112509 9:-0.112509 10:-0.112509 11:-0.112509 12:-0.112509 13:-0.112509 14:-0.112509 15:-0.112509 16:-0.112509 17:-0.112509 18:-0.112509 19:-0.112509 20:-0.112509 21:-0.112509 22:-0.112509 23:-0.112509 24:-0.112509 25:-0.112509 26:-0.112509 27:-0.112509 28:-0.112509 29:-0.112509 30:-0.112509 31:-0.112509 32:-0.112509 33:-0.112509 34:-0.112509 35:-0.112509 36:-0.112509 37:-0.112509 38:-0.112509 39:-0.112509 40:-0.112509 41:-0.112509 42:-0.112509 43:-0.112509 44:-0.112509 45:-0.112509 46:-0.112509 47:-0.112509 48:-0.112509 49:-0.112509 50:-0.112509 51:-0.112509 52:-0.112509 53:-0.112509 54:-0.112509 55:-0.112509 56:-0.112509 57:8.888197 58:-0.112509 59:-0.112509 60:-0.112509 61:-0.112509 62:-0.112509 63:-0.112509 64:-0.112509 65:-0.112509 66:-0.112509 67:-0.112509 68:-0.112509 69:-0.112509 70:-0.112509 71:-0.112509 72:-0.112509 73:-0.112509 74:-0.112509 75:-0.112509 76:-0.112509 77:-0.112509 78:-0.112509 79:-0.112509 80:-0.112509 
-0.24940958636885047 0 1 0 0 0 0 0 0 1:-0.112509 2:-0.112509 3:-0.112509 4:-0.112509 5:-0.112509 6:-0.112509 7:-0.112509 8:-0.112509 9:-0.112509 10:-0.112509 11:-0.112509 12:-0.112509 13:-0.112509 14:-0.112509 15:-0.112509 16:-0.112509 17:-0.112509 18:-0.112509 19:-0.112509 20:-0.112509 21:-0.112509 22:-0.112509 23:-0.112509 24:-0.112509 25:-0.112509 26:-0.112509 27:-0.112509 28:-0.112509 29:-0.112509 30:-0.112509 31:-0.112509 32:-0.112509 33:-0.112509 34:-0.112509 35:-0.112509 36:-0.112509 37:-0.112509 38:-0.112509 39:-0.112509 40:-0.112509 41:-0.112509 42:-0.112509 43:-0.112509 44:-0.112509 45:-0.112509 46:-0.112509 47:-0.112509 48:-0.112509 49:-0.112509 50:-0.112509 51:-0.112509 52:-0.112509 53:-0.112509 54:-0.112509 55:-0.112509 56:-0.112509 57:-0.112509 58:-0.112509 59:-0.112509 60:8.888197 61:-0.112509 62:-0.112509 63:-0.112509 64:-0.112509 65:-0.112509 66:-0.112509 67:-0.112509 68:-0.112509 69:-0.112509 70:-0.112509 71:-0.112509 72:-0.112509 73:-0.112509 74:-0.112509 75:-0.112509 76:-0.112509 77:-0.112509 78:-0.112509 79:-0.112509 80:-0.112509 
-0.94525471546114881 0.46927387628089678 0.85726567443451829 0 0.11494545928954038 0 0.0043114042500893932 0 0.059481144660297858 1:-0.112509 2:-0.112509 3:-0.112509 4:-0.112509 5:-0.112509 6:-0.112509 7:-0.112509 8:-0.112509 9:-0.112509 10:-0.112509 11:-0.112509 12:-0.112509 13:-0.112509 14:-0.112509 15:-0.112509 16:-0.112509 17:-0.112509 18:-0.112509 19:-0.112509 20:-0.112509 21:-0.112509 22:-0.112509 23:-0.112509 24:-0.112509 25:-0.112509 26:-0.112509 27:-0.112509 28:-0.112509 29:-0.112509 30:-0.112509 31:-0.112509 32:-0.112509 33:-0.112509 34:-0.112509 35:-0.112509 36:-0.112509 37:-0.112509 38:-0.112509 39:-0.112509 40:-0.112509 41:-0.112509 42:-0.112509 43:-0.112509 44:-0.112509 45:-0.112509 46:-0.112509 47:-0.112509 48:-0.112509 49:-0.112509 50:-0.112509 51:-0.112509 52:-0.112509 53:-0.112509 54:-0.112509 55:-0.112509 56:-0.112509 57:-0.112509 58:-0.112509 59:-0.112509 60:8.888197 61:-0.112509 62:-0.112509 63:-0.112509 64:-0.112509 65:-0.112509 66:-0.112509 67:-0.112509 68:-0.112509 69:-0.112509 70:-0.112509 71:-0.112509 72:-0.112509 73:-0.112509 74:-0.112509 75:-0.112509 76:-0.112509 77:-0.112509 78:-0.112509 79:-0.112509 80:-0.112509 
-0.025787583854666365 0 1 1 1 1 1 1 1 1:-0.160128 2:-0.160128 3:-0.160128 4:-0.160128 5:-0.160128 6:-0.160128 7:-0.160128 8:-0.160128 9:-0.160128 10:-0.160128 11:-0.160128 12:-0.160128 13:-0.160128 14:-0.160128 15:-0.160128 16:-0.160128 17:-0.160128 18:-0.160128 19:-0.160128 20:-0.160128 21:-0.160128 22:-0.160128 23:-0.160128 24:-0.160128 25:-0.160128 26:-0.160128 27:-0.160128 28:-0.160128 29:-0.160128 30:-0.160128 31:-0.160128 32:-0.160128 33:-0.160128 34:-0.160128 35:-0.160128 36:-0.160128 37:-0.160128 38:-0.160128 39:-0.160128 40:-0.160128 41:-0.160128 42:-0.160128 43:-0.160128 44:-0.160128 45:-0.160128 46:-0.160128 47:-0.160128 48:-0.160128 49:-0.160128 50:-0.160128 51:-0.160128 52:-0.160128 53:-0.160128 54:-0.160128 55:-0.160128 56:-0.160128 57:6.244998 58:-0.160128 59:6.244998 60:-0.160128 61:-0.160128 62:-0.160128 63:-0.160128 64:-0.160128 65:-0.160128 66:-0.160128 67:-0.160128 68:-0.160128 69:-0.160128 70:-0.160128 71:-0.160128 72:-0.160128 73:-0.160128 74:-0.160128 75:-0.160128 76:-0.160128 77:-0.160128 78:-0.160128 79:-0.160128 80:-0.160128 
-0.4082133158851361 1 1 1 1 1 1 1 1 1:-0.182512 2:-0.182512 3:-0.182512 4:-0.182512 5:-0.182512 6:-0.182512 7:-0.182512 8:-0.182512 9:-0.182512 10:-0.182512 11:-0.182512 12:-0.182512 13:-0.182512 14:-0.182512 15:-0.182512 16:-0.182512 17:-0.182512 18:-0.182512 19:-0.182512 20:-0.182512 21:-0.182512 22:-0.182512 23:-0.182512 24:-0.182512 25:-0.182512 26:-0.182512 27:-0.182512 28:-0.182512 29:-0.182512 30:-0.182512 31:-0.182512 32:-0.182512 33:-0.182512 34:-0.182512 35:-0.182512 36:-0.182512 37:-0.182512 38:-0.182512 39:-0.182512 40:-0.182512 41:-0.182512 42:-0.182512 43:-0.182512 44:-0.182512 45:-0.182512 46:-0.182512 47:-0.182512 48:-0.182512 49:-0.182512 50:-0.182512 51:-0.182512 52:-0.182512 53:-0.182512 54:-0.182512 55:-0.182512 56:-0.182512 57:6.075047 58:1.903341 59:-0.182512 60:-0.182512 61:6.075047 62:-0.182512 63:-0.182512 64:-0.182512 65:-0.182512 66:-0.182512 67:-0.182512 68:-0.182512 69:-0.182512 70:-0.182512 71:-0.182512 72:-0.182512 73:-0.182512 74:-0.182512 75:-0.182512 76:-0.182512 77:-0.182512 78:-0.182512 79:-0.182512 80:-0.182512 
-0.68674704692770527 0.44572519234898206 1 1 1 1 1 0.91007322170545479 0.90795755603550488 1:-0.112509 2:-0.112509 3:-0.112509 4:-0.112509 5:-0.112509 6:-0.112509 7:-0.112509 8:-0.112509 9:-0.112509 10:-0.112509 11:-0.112509 12:-0.112509 13:-0.112509 14:-0.112509 15:-0.112509 16:-0.112509 17:-0.112509 18:-0.112509 19:-0.112509 20:-0.112509 21:-0.112509 22:-0.112509 23:-0.112509 24:-0.112509 25:-0.112509 26:-0.112509 27:-0.112509 28:-0.112509 29:-0.112509 30:-0.112509 31:-0.112509 32:-0.112509 33:-0.112509 34:-0.112509 35:-0.112509 36:-0.112509 37:-0.112509 38:-0.112509 39:-0.112509 40:-0.112509 41:-0.112509 42:-0.112509 43:-0.112509 44:-0.112509 45:-0.112509 46:-0.112509 47:-0.112509 48:-0.112509 49:-0.112509 50:-0.112509 51:-0.112509 52:-0.112509 53:-0.112509 54:-0.112509 55:-0.112509 56:-0.112509 57:-0.112509 58:8.888197 59:-0.112509 60:-0.112509 61:-0.112509 62:-0.112509 63:-0.112509 64:-0.112509 65:-0.112509 66:-0.112509 67:-0.112509 68:-0.112509 69:-0.112509 70:-0.112509 71:-0.112509 72:-0.112509 73:-0.112509 74:-0.112509 75:-0.112509 76:-0.112509 77:-0.112509 78:-0.112509 79:-0.112509 80:-0.112509 
-0.53671973094158509 1 1 0.81066899187337826 0.52753724472442409 0.5029617233670538 1 0.36876712268847245 1 1:6.244997 2:-0.160128 3:-0.160128 4:-0.160128 5:-0.160128 6:-0.160128 7:-0.160128 8:-0.160128 9:-0.160128 10:-0.160128 11:-0.160128 12:-0.160128 13:-0.160128 14:-0.160128 15:-0.160128 16:-0.160128 17:-0.160128 18:-0.160128 19:-0.160128 20:-0.160128 21:-0.160128 22:-0.160128 23:-0.160128 24:-0.160128 25:-0.160128 26:-0.160128 27:-0.160128 28:-0.160128 29:-0.160128 30:-0.160128 31:-0.160128 32:-0.160128 33:-0.160128 34:-0.160128 35:-0.160128 36:-0.160128 37:-0.160128 38:-0.160128 39:-0.160128 40:-0.160128 41:-0.160128 42:-0.160128 43:-0.160128 44:-0.160128 45:-0.160128 46:-0.160128 47:-0.160128 48:-0.160128 49:-0.160128 50:-0.160128 51:-0.160128 52:-0.160128 53:-0.160128 54:-0.160128 55:-0.160128 56:-0.160128 57:-0.160128 58:-0.160128 59:-0.160128 60:-0.160128 61:-0.160128 62:-0.160128 63:-0.160128 64:-0.160128 65:-0.160128 66:-0.160128 67:-0.160128 68:-0.160128 69:-0.160128 70:-0.160128 71:-0.160128 72:-0.160128 73:-0.160128 74:-0.160128 75:-0.160128 76:6.244997 77:-0.160128 78:-0.160128 79:-0.160128 80:-0.160128 
-0 -0 0 0 0 0 0 0.86572661220421909 0 1:-0.112509 2:-0.112509 3:-0.112509 4:-0.112509 5:-0.112509 6:-0.112509 7:-0.112509 8:-0.112509 9:-0.112509 10:-0.112509 11:-0.112509 12:-0.112509 13:-0.112509 14:-0.112509 15:-0.112509 16:-0.112509 17:-0.112509 18:-0.112509 19:-0.112509 20:-0.112509 21:-0.112509 22:-0.112509 23:-0.112509 24:-0.112509 25:-0.112509 26:-0.112509 27:-0.112509 28:-0.112509 29:-0.112509 30:-0.112509 31:-0.112509 32:-0.112509 33:-0.112509 34:-0.112509 35:-0.112509 36:-0.112509 37:-0.112509 38:-0.112509 39:-0.112509 40:-0.112509 41:-0.112509 42:-0.112509 43:-0.112509 44:-0.112509 45:-0.112509 46:-0.112509 47:-0.112509 48:-0.112509 49:-0.112509 50:-0.112509 51:-0.112509 52:-0.112509 53:-0.112509 54:-0.112509 55:-0.112509 56:-0.112509 57:-0.112509 58:-0.112509 59:-0.112509 60:-0.112509 61:-0.112509 62:-0.112509 63:-0.112509 64:-0.112509 65:-0.112509 66:-0.112509 67:-0.112509 68:-0.112509 69:-0.112509 70:-0.112509 71:-0.112509 72:-0.112509 73:-0.112509 74:8.888194 75:-0.112509 76:-0.112509 77:-0.112509 78:-0.112509 79:-0.112509 80:-0.112509 
-1 -1 1 1 1 1 1 1 1 1:-0.112509 2:-0.112509 3:-0.112509 4:-0.112509 5:-0.112509 6:-0.112509 7:-0.112509 8:-0.112509 9:-0.112509 10:-0.112509 11:-0.112509 12:-0.112509 13:-0.112509 14:-0.112509 15:-0.112509 16:-0.112509 17:-0.112509 18:-0.112509 19:-0.112509 20:-0.112509 21:-0.112509 22:-0.112509 23:-0.112509 24:-0.112509 25:-0.112509 26:-0.112509 27:-0.112509 28:-0.112509 29:-0.112509 30:-0.112509 31:-0.112509 32:-0.112509 33:-0.112509 34:-0.112509 35:-0.112509 36:-0.112509 37:-0.112509 38:-0.112509 39:-0.112509 40:-0.112509 41:-0.112509 42:8.888199 43:-0.112509 44:-0.112509 45:-0.112509 46:-0.112509 47:-0.112509 48:-0.112509 49:-0.112509 50:-0.112509 51:-0.112509 52:-0.112509 53:-0.112509 54:-0.112509 55:-0.112509 56:-0.112509 57:-0.112509 58:-0.112509 59:-0.112509 60:-0.112509 61:-0.112509 62:-0.112509 63:-0.112509 64:-0.112509 65:-0.112509 66:-0.112509 67:-0.112509 68:-0.112509 69:-0.112509 70:-0.112509 71:-0.112509 72:-0.112509 73:-0.112509 74:-0.112509 75:-0.112509 76:-0.112509 77:-0.112509 78:-0.112509 79:-0.112509 80:-0.112509 
-1 -1 1 1 1 1 1 1 1 1:-0.156941 2:-0.156941 3:-0.156941 4:-0.156941 5:-0.156941 6:-0.156941 7:-0.156941 8:-0.156941 9:-0.156941 10:-0.156941 11:-0.156941 12:-0.156941 13:-0.156941 14:-0.156941 15:-0.156941 16:-0.156941 17:-0.156941 18:-0.156941 19:-0.156941 20:-0.156941 21:-0.156941 22:-0.156941 23:-0.156941 24:-0.156941 25:-0.156941 26:-0.156941 27:-0.156941 28:-0.156941 29:-0.156941 30:-0.156941 31:-0.156941 32:-0.156941 33:-0.156941 34:-0.156941 35:-0.156941 36:-0.156941 37:-0.156941 38:-0.156941 39:-0.156941 40:-0.156941 41:-0.156941 42:-0.156941 43:-0.156941 44:-0.156941 45:-0.156941 46:-0.156941 47:-0.156941 48:-0.156941 49:-0.156941 50:-0.156941 51:-0.156941 52:-0.156941 53:-0.156941 54:-0.156941 55:-0.156941 56:-0.156941 57:4.865178 58:-0.156941 59:-0.156941 60:-0.156941 61:7.376237 62:-0.156941 63:-0.156941 64:-0.156941 65:-0.156941 66:-0.156941 67:-0.156941 68:-0.156941 69:-0.156941 70:-0.156941 71:-0.156941 72:-0.156941 73:-0.156941 74:-0.156941 75:-0.156941 76:-0.156941 77:-0.156941 78:-0.156941 79:-0.156941 80:-0.156941 
-0.22285723635293286 -0 1 0.021412606451731819 0 0.20989707200176974 0.38536326450448755 0 1 1:7.107248 2:-0.182237 3:-0.182237 4:-0.182237 5:-0.182237 6:-0.182237 7:-0.182237 8:-0.182237 9:-0.182237 10:-0.182237 11:-0.182237 12:-0.182237 13:-0.182237 14:-0.182237 15:-0.182237 16:-0.182237 17:-0.182237 18:-0.182237 19:-0.182237 20:-0.182237 21:-0.182237 22:-0.182237 23:-0.182237 24:-0.182237 25:-0.182237 26:-0.182237 27:-0.182237 28:-0.182237 29:-0.182237 30:-0.182237 31:-0.182237 32:-0.182237 33:-0.182237 34:-0.182237 35:-0.182237 36:-0.182237 37:-0.182237 38:-0.182237 39:-0.182237 40:-0.182237 41:-0.182237 42:-0.182237 43:-0.182237 44:-0.182237 45:-0.182237 46:-0.182237 47:-0.182237 48:-0.182237 49:-0.182237 50:-0.182237 51:-0.182237 52:-0.182237 53:-0.182237 54:-0.182237 55:-0.182237 56:-0.182237 57:2.247591 58:-0.182237 59:-0.182237 60:-0.182237 61:4.67742 62:-0.182237 63:-0.182237 64:-0.182237 65:-0.182237 66:-0.182237 67:-0.182237 68:-0.182237 69:-0.182237 70:-0.182237 71:-0.182237 72:-0.182237 73:-0.182237 74:-0.182237 75:-0.182237 76:-0.182237 77:-0.182237 78:-0.182237 79:-0.182237 80:-0.182237 
-0 -0 0.30226171586472556 0 0 0 0 0 0.2284336513262134 1:8.888204 2:-0.112509 3:-0.112509 4:-0.112509 5:-0.112509 6:-0.112509 7:-0.112509 8:-0.112509 9:-0.112509 10:-0.112509 11:-0.112509 12:-0.112509 13:-0.112509 14:-0.112509 15:-0.112509 16:-0.112509 17:-0.112509 18:-0.112509 19:-0.112509 20:-0.112509 21:-0.112509 22:-0.112509 23:-0.112509 24:-0.112509 25:-0.112509 26:-0.112509 27:-0.112509 28:-0.112509 29:-0.112509 30:-0.112509 31:-0.112509 32:-0.112509 33:-0.112509 34:-0.112509 35:-0.112509 36:-0.112509 37:-0.112509 38:-0.112509 39:-0.112509 40:-0.112509 41:-0.112509 42:-0.112509 43:-0.112509 44:-0.112509 45:-0.112509 46:-0.112509 47:-0.112509 48:-0.112509 49:-0.112509 50:-0.112509 51:-0.112509 52:-0.112509 53:-0.112509 54:-0.112509 55:-0.112509 56:-0.112509 57:-0.112509 58:-0.112509 59:-0.112509 60:-0.112509 61:-0.112509 62:-0.112509 63:-0.112509 64:-0.112509 65:-0.112509 66:-0.112509 67:-0.112509 68:-0.112509 69:-0.112509 70:-0.112509 71:-0.112509 72:-0.112509 73:-0.112509 74:-0.112509 75:-0.112509 76:-0.112509 77:-0.112509 78:-0.112509 79:-0.112509 80:-0.112509 
-0 -1 0.19648406788278855 0 0 0.51233011731081191 0 0 0 1:-0.112509 2:-0.112509 3:-0.112509 4:-0.112509 5:-0.112509 6:-0.112509 7:-0.112509 8:-0.112509 9:-0.112509 10:-0.112509 11:-0.112509 12:-0.112509 13:-0.112509 14:-0.112509 15:-0.112509 16:-0.112509 17:-0.112509 18:-0.112509 19:-0.112509 20:-0.112509 21:-0.112509 22:-0.112509 23:-0.112509 24:-0.112509 25:-0.112509 26:-0.112509 27:-0.112509 28:-0.112509 29:-0.112509 30:-0.112509 31:-0.112509 32:-0.112509 33:-0.112509 34:-0.112509 35:-0.112509 36:-0.112509 37:-0.112509 38:-0.112509 39:-0.112509 40:-0.112509 41:-0.112509 42:-0.112509 43:-0.112509 44:-0.112509 45:-0.112509 46:-0.112509 47:-0.112509 48:-0.112509 49:-0.112509 50:-0.112509 51:-0.112509 52:-0.112509 53:-0.112509 54:-0.112509 55:-0.112509 56:-0.112509 57:-0.112509 58:-0.112509 59:-0.112509 60:-0.112509 61:-0.112509 62:-0.112509 63:-0.112509 64:-0.112509 65:-0.112509 66:-0.112509 67:-0.112509 68:-0.112509 69:-0.112509 70:-0.112509 71:-0.112509 72:-0.112509 73:-0.112509 74:8.888193 75:-0.112509 76:-0.112509 77:-0.112509 78:-0.112509 79:-0.112509 80:-0.112509 
-0 -1 1 1 1 1 1 1 1 1:3.894058 2:-0.151717 3:-0.151717 4:-0.151717 5:-0.151717 6:-0.151717 7:-0.151717 8:-0.151717 9:-0.151717 10:-0.151717 11:-0.151717 12:-0.151717 13:-0.151717 14:-0.151717 15:-0.151717 16:-0.151717 17:-0.151717 18:-0.151717 19:-0.151717 20:-0.151717 21:-0.151717 22:-0.151717 23:-0.151717 24:-0.151717 25:-0.151717 26:-0.151717 27:-0.151717 28:-0.151717 29:-0.151717 30:-0.151717 31:-0.151717 32:-0.151717 33:-0.151717 34:-0.151717 35:-0.151717 36:-0.151717 37:-0.151717 38:-0.151717 39:-0.151717 40:-0.151717 41:-0.151717 42:-0.151717 43:-0.151717 44:-0.151717 45:-0.151717 46:-0.151717 47:-0.151717 48:-0.151717 49:-0.151717 50:-0.151717 51:-0.151717 52:-0.151717 53:-0.151717 54:-0.151717 55:-0.151717 56:-0.151717 57:7.939832 58:-0.151717 59:-0.151717 60:-0.151717 61:-0.151717 62:-0.151717 63:-0.151717 64:-0.151717 65:-0.151717 66:-0.151717 67:-0.151717 68:-0.151717 69:-0.151717 70:-0.151717 71:-0.151717 72:-0.151717 73:-0.151717 74:-0.151717 75:-0.151717 76:-0.151717 77:-0.151717 78:-0.151717 79:-0.151717 80:-0.151717 
-0 -1 1 1 0.87853357418703759 1 1 0.95919491672698454 1 1:5.066229 2:-0.197386 3:-0.197386 4:-0.197386 5:-0.197386 6:-0.197386 7:-0.197386 8:-0.197386 9:-0.197386 10:-0.197386 11:-0.197386 12:-0.197386 13:-0.197386 14:-0.197386 15:-0.197386 16:-0.197386 17:-0.197386 18:-0.197386 19:-0.197386 20:-0.197386 21:-0.197386 22:-0.197386 23:-0.197386 24:-0.197386 25:-0.197386 26:-0.197386 27:-0.197386 28:-0.197386 29:-0.197386 30:-0.197386 31:-0.197386 32:-0.197386 33:-0.197386 34:-0.197386 35:-0.197386 36:-0.197386 37:-0.197386 38:-0.197386 39:-0.197386 40:-0.197386 41:-0.197386 42:-0.197386 43:-0.197386 44:-0.197386 45:-0.197386 46:-0.197386 47:-0.197386 48:-0.197386 49:-0.197386 50:-0.197386 51:-0.197386 52:-0.197386 53:-0.197386 54:-0.197386 55:-0.197386 56:-0.197386 57:5.066229 58:-0.197386 59:-0.197386 60:-0.197386 61:5.066229 62:-0.197386 63:-0.197386 64:-0.197386 65:-0.197386 66:-0.197386 67:-0.197386 68:-0.197386 69:-0.197386 70:-0.197386 71:-0.197386 72:-0.197386 73:-0.197386 74:-0.197386 75:-0.197386 76:-0.197386 77:-0.197386 78:-0.197386 79:-0.197386 80:-0.197386 
