svm_type c_svc
kernel_type rbf
gamma 0.0078125
nr_class 10
total_sv 515
rho -18.451013161560585 -8.2532056998173928 -19.605508514042182 -15.406881660874777 -0.41842689445326808 -10.218587911702709 -8.4475409003971542 -7.7211377793176421 -3.5207645279006132 2.5258843360009795 3.5638884991740722 7.8813483231849659 8.5604481630601956 9.902589826400666 9.8810660470400631 5.0444088540814889 1.2621450049300054 9.5949082497204952 -1.9427940190618567 1.0201608287487551 6.856079773017612 8.2222963245377247 5.957903760208171 3.8769807653869885 -11.052209397981107 -3.5018894652947781 0.73744338408857524 -5.8338416708979146 2.8566748816876308 2.9476730563519347 5.1734729061762694 9.4862334190429412 -1.8382122587603504 4.9596165779504187 19.953319859365315 7.5084498436994931 -3.7368556626854863 -2.068096816956861 4.2444099551540688 -4.1636459863810975 -17.591699117021502 8.5854966475756136 7.8264684957294754 -0.17767585038039158 0.041176643124665208
label 1 2 3 4 5 6 7 8 9 10
nr_sv 22 55 38 64 73 51 60 46 58 48
SV
294.54292820120708 295.55448766481243 292.45923532515542 0 512 189.95993391739984 117.18746737634483 236.09272133924915 512 1:-1 2:-1 3:-1 6:-1 10:-1 14:-1 17:-1 26:-1 29:-1 34:-1 40:-1 41:-1 42:-1 44:-1 46:-1 47:-1 48:-1 50:-1 51:-1 54:-1 55:-1 56:-1 57:-1 58:-1 59:-1 60:-1 61:-1 62:-1 63:-1 64:-1 65:-1 66:-1 67:-1 69:-1 70:-1 72:-0.6 73:-1 74:-1 75:-1 76:-1 78:-1 
512 512 512 512 512 512 512 512 312.49501431490194 1:-1 2:-1 3:-1 6:-1 10:-1 14:-1 17:-1 26:-1 29:-1 34:-1 40:-1 41:-1 42:-1 44:-1 46:-1 47:-1 48:-1 50:-1 51:-1 54:-1 55:-1 56:-1 57:-1 58:-1 59:-1 60:-1 61:-1 62:-1 63:-1 64:-1 65:-1 66:-1 67:-1 69:-1 70:-1 72:-1 73:-1 74:-1 75:-1 76:-0.5 78:-1 
0 0 0 0 0 0 0 159.62847872324264 0 1:-1 2:-1 3:-1 6:-1 10:-1 14:-1 17:-1 26:-1 29:-1 34:-1 40:-1 41:-1 42:-1 44:-1 46:-1 47:-1 48:-1 50:-1 51:-1 54:-1 55:-1 56:-1 57:-1 58:-1 59:-1 60:-1 61:-1 62:-0.333333 63:-1 64:-1 65:-1 66:-1 67:-1 69:-1 70:-1 72:-1 73:-1 74:-1 75:-1 76:-0.5 78:-1 
280.1463602533413 269.3997433280029 299.1340896142313 285.02890708439338 302.79356216748113 283.41857950542288 284.27732864536671 125.26904316018511 231.03379475344605 1:-1 2:-1 3:-1 6:-1 10:-1 14:-1 17:-1 26:-1 29:-1 34:-1 40:-1 41:-1 42:-1 44:-1 46:-1 47:-1 48:-1 50:-1 51:-1 54:-1 55:-1 56:-1 57:-0.894737 58:-1 59:-1 60:-1 61:-1 62:-0.333333 63:-1 64:-1 65:-1 66:-1 67:-1 69:-1 70:-1 72:-1 73:-1 74:-1 75:-1 76:-1 78:-1 
512 368.31504761268394 512 512 512 512 512 512 104.47313874102562 1:-1 2:-1 3:-1 6:-1 10:-1 14:-1 17:-1 26:-1 29:-1 34:-1 40:-1 41:-1 42:-1 44:-1 46:-1 47:-1 48:-1 50:-1 51:-1 54:-1 55:-1 56:-1 57:-1 58:-1 59:1 60:-1 61:-1 62:-1 63:-1 64:-1 65:-1 66:-1 67:-1 69:-1 70:-1 72:-1 73:-1 74:-1 75:-1 76:-1 78:-1 
0 0 0 0 310.48564982637549 0 0 0 0 1:-1 2:-1 3:-1 6:-1 10:-1 14:-1 17:-1 26:-1 29:-1 34:-1 40:-0.333333 41:-1 42:-1 44:-1 46:-1 47:-1 48:-1 50:-1 51:-1 54:-1 55:-1 56:-1 57:-1 58:-1 59:-0.666667 60:-1 61:-1 62:-1 63:-1 64:-1 65:-1 66:-1 67:-1 69:-1 70:-1 72:-0.6 73:-1 74:-1 75:-1 76:-0.5 78:-1 
512 25.431788039559688 512 20.818044770703441 31.987843211384948 283.47294793455603 27.626641691787448 26.590656123151366 18.324039340630701 1:-1 2:-1 3:-1 6:-1 10:-1 14:-1 17:-1 26:-1 29:-1 34:-1 40:-1 41:-1 42:-1 44:-1 46:-1 47:-1 48:-1 50:-1 51:-1 54:-1 55:-1 56:-1 57:-1 58:-1 59:-1 60:1 61:-1 62:-1 63:-1 64:-1 65:-1 66:-1 67:-1 69:-1 70:-1 72:-1 73:-1 74:-1 75:-1 76:-1 78:-1 
512 512 512 512 512 512 512 512 512 1:-1 2:-1 3:-1 6:-1 10:-1 14:-1 17:-1 26:-1 29:-1 34:-1 40:-1 41:-1 42:-1 44:-1 46:-1 47:-1 48:-1 50:-1 51:-1 54:-1 55:-1 56:-1 57:-0.894737 58:-1 59:-1 60:-1 61:-0.6 62:-1 63:-1 64:-1 65:-1 66:-1 67:-1 69:-1 70:-1 72:-1 73:-1 74:-1 75:-1 76:-1 78:-1 
316.65147465746088 154.05037945145114 467.6491444591561 312.8796839408817 230.06861292885117 0 0 54.219243471172923 143.00701507736781 1:-1 2:-1 3:-1 6:-1 10:-1 14:-1 17:-1 26:-1 29:-1 34:-1 40:0.333333 41:-1 42:-1 44:-1 46:-1 47:-1 48:-1 50:-1 51:-1 54:-1 55:-1 56:-1 57:-1 58:-1 59:-1 60:-1 61:-1 62:-1 63:-1 64:-1 65:-1 66:-1 67:-1 69:-1 70:-1 72:-1 73:-1 74:-1 75:-1 76:-1 78:-1 
0 0 0 0 43.463984211726796 0 0 0 0 1:-1 2:-1 3:-1 6:-1 10:-1 14:-1 17:-1 26:-1 29:-1 34:-1 40:-1 41:-1 42:-1 44:-1 46:-1 47:-1 48:-1 50:-1 51:-1 54:-1 55:-1 56:-1 57:-1 58:-1 59:-1 60:-1 61:-1 62:-1 63:-1 64:-1 65:-1 66:-1 67:-1 69:-1 70:-1 72:-0.2 73:-1 74:-1 75:-1 76:-1 78:-1 
512 512 512 512 512 512 278.97509800486432 512 512 1:-1 2:-1 3:-1 6:-1 10:-1 14:-1 17:-1 26:-1 29:-1 34:-1 40:-0.333333 41:-1 42:-1 44:-1 46:-1 47:-1 48:-1 50:-1 51:-1 54:-1 55:-1 56:-1 57:-1 58:-1 59:-1 60:-1 61:-1 62:-1 63:-1 64:-1 65:-1 66:-1 67:-1 69:-1 70:-1 72:-1 73:-1 74:-1 75:-1 76:-1 78:-1 
483.40402549481036 428.59954978498587 447.35125938512505 192.96864809445273 512 308.73400347850026 461.08168605921708 510.70052060622749 512 1:-1 2:-1 3:-1 6:-1 10:-1 14:-1 17:-1 26:-1 29:-1 34:-1 40:-1 41:-1 42:-1 44:-1 46:-1 47:-1 48:-1 50:-1 51:-1 54:-1 55:-1 56:-1 57:-1 58:-1 59:-1 60:-1 61:-1 62:-1 63:-1 64:-1 65:-1 66:-1 67:-1 69:-1 70:-1 72:-0.6 73:-1 74:-1 75:-1 76:-1 78:-1 
0 0 0 0 188.67525794602815 0 0 0 0 1:-1 2:-1 3:-1 6:-1 10:-1 14:-1 17:-1 26:-1 29:-1 34:-1 40:-1 41:-1 42:-1 44:-1 46:-1 47:-1 48:-1 50:-1 51:-1 54:-1 55:-1 56:-1 57:-1 58:-1 59:-1 60:-1 61:-1 62:-1 63:-1 64:-1 65:-1 66:-1 67:-1 69:-1 70:-1 72:-0.2 73:-1 74:-1 75:-1 76:-1 78:-1 
0 0 0 0 512 0 0 0 0 1:-1 2:-1 3:-1 6:-1 10:-1 14:-1 17:-1 26:-1 29:-1 34:-1 40:-1 41:-1 42:-1 44:-1 46:-1 47:-1 48:-1 50:-1 51:-1 54:-1 55:-1 56:-1 57:-1 58:-1 59:-1 60:-1 61:-1 62:-1 63:-1 64:-1 65:-1 66:-1 67:-1 69:-1 70:-1 72:-0.2 73:-1 74:-1 75:-1 76:-1 78:-1 
512 512 512 512 512 512 512 512 512 1:-1 2:-1 3:-1 6:-1 10:-1 14:-1 17:-1 26:-1 29:-1 34:-1 40:-1 41:-1 42:-1 44:-1 46:-1 47:-1 48:-1 50:-1 51:-1 54:-1 55:-1 56:-1 57:-1 58:-1 59:-0.666667 60:-1 61:-1 62:-1 63:-1 64:-1 65:-1 66:-1 67:-1 69:-1 70:-1 72:-1 73:-1 74:-1 75:-1 76:-1 78:-1 
22.600606414139566 25.425961741976003 20.591187134962233 20.81901532702031 31.984654005025952 25.504927844218258 27.632609229108713 26.596688821452783 18.324866781495739 1:-1 2:-1 3:-1 6:-1 10:-1 14:-1 17:-1 26:-1 29:-1 34:-1 40:-1 41:-1 42:-1 44:-1 46:-1 47:-1 48:-1 50:-1 51:-1 54:-1 55:1 56:-1 57:-1 58:-1 59:-1 60:-1 61:-1 62:-1 63:-1 64:-1 65:-1 66:-1 67:-1 69:-1 70:-1 72:-1 73:-1 74:-1 75:-1 76:-1 78:-1 
0 0 0 0 512 0 0 0 0 1:-1 2:-1 3:-1 6:-1 10:-1 14:-1 17:-1 26:-1 29:-1 34:-1 40:-1 41:-1 42:-1 44:-1 46:-1 47:-1 48:-1 50:-1 51:-1 54:-1 55:-1 56:-1 57:-1 58:-1 59:-1 60:-1 61:-1 62:-1 63:-1 64:-1 65:-1 66:-1 67:-1 69:-1 70:-1 72:-0.2 73:-1 74:-1 75:-1 76:-1 78:-1 
0 0 1.6978766108787782 512 512 255.84785047341057 206.85229888407136 0 0 1:-1 2:-1 3:-1 6:-1 10:-1 14:-1 17:-1 26:-1 29:-1 34:-1 40:-1 41:-1 42:-1 44:-1 46:0.333333 47:-1 48:-1 50:-1 51:-1 54:-1 55:-1 56:-1 57:-1 58:-1 59:-0.333333 60:-1 61:-1 62:-1 63:-1 64:-1 65:-1 66:-1 67:-1 69:-1 70:-1 72:-0.6 73:-1 74:-1 75:-1 76:-1 78:-1 
0 0 0 0 442.25492405238566 0 0 0 0 1:-1 2:-1 3:-1 6:-1 10:-1 14:-1 17:-1 26:-1 29:-1 34:-1 40:-1 41:-1 42:-1 44:-1 46:-1 47:-1 48:-1 50:-1 51:-1 54:-1 55:-1 56:-1 57:-1 58:-1 59:-1 60:-1 61:-1 62:-1 63:-1 64:-1 65:-1 66:-1 67:-1 69:-1 70:-1 72:-0.2 73:-1 74:-1 75:-1 76:-1 78:-1 
0 0 0 0 364.94152186751398 0 0 0 197.69435596699034 1:-1 2:-1 3:-1 6:-1 10:-1 14:-1 17:-1 26:-1 29:-1 34:-1 40:-1 41:-1 42:-0.333333 44:-1 46:-1 47:-1 48:-1 50:-1 51:-1 54:-1 55:-1 56:-1 57:-1 58:-1 59:-1 60:-1 61:-1 62:-1 63:-1 64:-1 65:-1 66:-1 67:-1 69:-1 70:-1 72:-0.2 73:-1 74:-1 75:-1 76:-1 78:-1 
0 0 0 0 512 0 0 0 0 1:-1 2:-1 3:-1 6:-1 10:-1 14:-1 17:-1 26:-1 29:-1 34:-1 40:-1 41:-1 42:-1 44:-1 46:-1 47:-1 48:-1 50:-1 51:-1 54:-1 55:-1 56:-1 57:-1 58:-1 59:-0.666667 60:-1 61:-1 62:-1 63:-1 64:-1 65:-1 66:-1 67:-1 69:-1 70:-1 72:-0.2 73:-1 74:-1 75:-1 76:-1 78:-1 
0 0 0 0 286.83809391202504 0 0 0 0 1:-1 2:-1 3:-1 6:-1 10:-1 14:-1 17:-1 26:-1 29:-1 34:-1 40:-1 41:-1 42:-1 44:-1 46:-1 47:-1 48:-1 50:-1 51:-1 54:-1 55:-1 56:-1 57:-1 58:-1 59:-1 60:-1 61:-1 62:-1 63:-1 64:-1 65:-1 66:-1 67:-1 69:-1 70:-1 72:-0.2 73:-1 74:-1 75:-1 76:-1 78:-1 
-0 0 0 0 0 127.03908459851499 0 0 0 1:-1 2:-1 3:-1 6:-1 10:-1 14:-1 17:-1 26:-1 29:-1 34:-1 40:-1 41:-1 42:-1 44:-1 46:-1 47:-1 48:-1 50:-1 51:-1 54:-1 55:-1 56:-1 57:-1 58:-0.5 59:-1 61:-1 62:-1 63:-1 64:-1 65:-1 66:-1 67:-1 69:-1 70:-1 72:-1 73:-1 74:-0.826087 75:-1 76:-1 78:-1 
-0 0 337.43379790190352 0 0 512 0 512 0 1:-1 2:-1 3:-1 6:-1 10:-1 14:-1 17:-1 26:-1 29:-1 34:-1 40:-1 41:-1 42:-1 44:-1 46:-1 47:-1 48:-1 50:-1 51:-1 54:-1 55:-1 56:-1 57:-0.894737 58:-1 59:-1 60:-1 61:-1 62:-1 63:0.333333 64:-1 65:-1 66:-1 67:-1 69:-1 70:-1 72:-1 73:-1 74:-1 75:-1 76:-1 78:-1 
-0 512 512 0 0 0 512 512 512 1:-0.8 2:-1 3:-1 6:-1 10:-1 14:-1 17:-1 26:-1 29:-1 34:-1 40:-1 41:-1 42:-1 44:-1 46:-1 47:-1 48:-1 50:-1 51:-1 54:-1 55:-1 56:-1 57:-1 58:-1 59:-1 60:-1 61:-1 62:-1 63:-1 64:-1 65:-1 66:-1 67:-1 69:-1 70:-1 72:-1 73:-1 74:-1 75:-1 76:-1 78:-1 
-0 0 0 0 0 512 512 0 0 1:-1 2:-1 3:-1 6:-1 10:-1 14:-1 17:-1 26:-1 29:-1 34:-1 40:-1 41:-1 42:-1 44:-1 46:-1 47:-1 48:-1 50:-1 51:-1 54:-1 55:-1 56:-1 57:-1 58:-0.5 59:-1 60:-1 61:-1 62:-1 63:-1 64:-1 65:-1 66:-1 67:-1 69:-1 70:-1 72:-1 73:-1 74:-1 75:-1 76:-1 78:-1 
-121.37249728850989 210.90888699027207 512 512 0 114.84058989248555 0 0 0 1:-1 2:-1 3:-1 6:-1 10:-1 14:-1 17:-1 26:-1 29:-1 34:-1 40:-1 41:-1 42:-1 44:-1 46:-1 47:-1 48:-1 50:-1 51:-1 54:-1 55:-1 56:-1 57:-1 58:-1 59:-1 60:-1 61:-1 62:-1 63:-1 64:-1 65:-1 66:-1 67:-1 69:-1 70:-1 72:-1 73:-1 74:-1 75:-1 76:-0.5 78:-1 
-0 512 512 0 0 206.54167149019608 512 512 512 1:-0.8 2:-1 3:-1 6:-1 10:-1 14:-1 17:-1 26:-1 29:-1 34:-1 40:-1 41:-1 42:-1 44:-1 46:-1 47:-1 48:-1 50:-1 51:-1 54:-1 55:-1 56:-1 57:-1 58:-1 59:-1 60:-1 61:-1 62:-1 63:-1 64:-1 65:-1 66:-1 67:-1 69:-1 70:-1 72:-1 73:-1 74:-1 75:-1 76:-1 78:-1 
-151.58066980610272 512 512 512 512 512 512 512 0 1:-1 2:-1 3:-1 6:-1 10:-1 14:-1 17:-1 26:-1 29:-1 34:-1 40:-1 41:-1 42:-1 44:-1 46:-1 47:-1 48:-1 50:-1 51:-1 54:-1 55:-1 56:-1 57:-1 58:-1 59:-0.666667 60:-1 61:-1 62:-1 63:-1 64:-1 65:-1 66:-1 67:-1 69:-1 70:-1 72:-1 73:-1 74:-1 75:-1 76:-1 78:-1 
-425.92481637473333 512 512 512 512 0 494.27239115655328 0 512 1:-1 2:-1 3:-1 6:-1 10:-1 14:-1 17:-1 26:-1 29:-1 34:-1 40:-1 41:-1 42:-1 44:-1 46:-1 47:-1 48:-1 50:-1 51:-1 54:-1 55:-1 56:-1 57:-0.894737 58:-1 59:-1 60:-1 61:-0.6 62:-1 63:-1 64:-1 65:-1 66:-1 67:-1 69:-1 70:-1 72:-1 73:-1 74:-1 75:-1 76:-1 78:-1 
-512 0 415.88980297431164 101.85516447493302 63.040095406606163 0 5.48752410071162 0 0 1:-1 2:-1 3:-1 6:-1 10:-1 14:-1 17:-1 26:-1 29:-1 34:-1 40:-0.333333 41:-1 42:-1 44:-1 46:-1 47:-1 48:-1 50:-1 51:-1 54:-1 55:-1 56:-1 57:-1 58:-1 59:-0.666667 61:-1 62:-1 63:-1 64:-1 65:-1 66:-1 67:-1 69:-1 70:-1 72:-1 73:-1 74:-1 75:-1 76:-1 78:-1 
-281.39778785108371 0 317.19227625330052 512 512 512 512 512 0 1:-1 2:-1 3:-1 6:-1 10:-1 14:-1 17:-1 26:-1 29:-1 34:-1 40:-1 41:-1 42:-1 44:-1 46:-1 47:-1 48:-1 50:-1 51:-1 54:-1 55:-1 56:-1 57:-1 58:-1 59:-0.333333 60:-1 61:-1 62:-1 63:-1 64:-1 65:-1 66:-1 67:-1 69:-1 70:-1 72:-1 73:-1 74:-1 75:-1 76:-0.5 78:-1 
-0 0 512 0 0 0 0 0 0 1:-1 2:-1 3:-1 6:-1 10:-1 14:-1 17:-1 26:-1 29:-1 34:-1 40:-1 41:-1 42:-1 44:-1 46:-1 47:-1 48:-1 50:-1 51:-1 54:-1 55:-1 56:-1 57:-1 58:-1 59:-1 61:-1 62:-1 63:-1 64:-1 65:-1 66:-1 67:-1 69:-1 70:-1 72:-1 73:-1 74:-1 75:-1 76:-1 78:-1 
-0 0 512 0 0 0 0 0 0 1:-1 2:-1 3:-1 6:-1 10:-1 14:-1 17:-1 26:-1 29:-1 34:-1 40:-1 41:-1 42:-1 44:-1 46:-1 47:-1 48:-1 50:-1 51:-1 54:-1 55:-1 56:-1 57:-1 58:-1 59:-1 61:-1 62:-1 63:-1 64:-1 65:-1 66:-1 67:-1 69:-1 70:-1 72:-1 73:-1 74:-1 75:-1 76:-1 78:-1 
-11.878462189179846 54.756390593224239 21.22063289633553 10.578455767956733 6.1524744973103607 13.660632017512901 3.2707338399762107 512 1.8331860116676464 1:-1 2:-1 3:-1 6:-1 10:-1 14:-1 17:-1 26:-1 29:-1 34:-1 40:-1 41:-1 42:-1 44:-1 46:-1 47:-1 48:-1 50:-1 51:-1 54:-1 55:-1 56:-1 57:-1 58:-1 59:-1 60:-1 61:-1 62:-1 63:-1 64:-1 65:-1 67:-1 69:-1 70:-1 72:-1 73:-1 74:-1 75:-1 76:-1 78:-1 
-236.98694826606214 512 512 512 512 512 512 512 0 1:-1 2:-1 3:-1 6:-1 10:-1 14:-1 17:-1 26:-1 29:-1 34:-1 40:-1 41:-1 42:-1 44:-1 46:-1 47:-1 48:-1 50:-1 51:-1 54:-1 55:-1 56:-1 57:-1 58:-1 59:-0.666667 60:-1 61:-1 62:-1 63:-1 64:-1 65:-1 66:-1 67:-1 69:-1 70:-1 72:-1 73:-1 74:-1 75:-1 76:-1 78:-1 
-512 512 512 512 512 512 512 512 0 1:-1 2:-1 3:-1 6:-1 10:-1 14:-1 17:-1 26:-1 29:-1 34:-1 40:-1 41:-1 42:-1 44:-1 46:-1 47:-1 48:-1 50:-1 51:-1 54:-1 55:-1 56:-1 57:-1 58:-1 59:-0.666667 60:-1 61:-1 62:-1 63:-1 64:-1 65:-1 66:-1 67:-1 69:-1 70:-1 72:-1 73:-1 74:-1 75:-1 76:-1 78:-1 
-33.155074793659168 0 0 0 0 0 0 0 0 1:-1 2:-1 3:-1 6:-1 10:-1 14:-1 17:-1 26:-1 29:-1 34:-1 40:-1 41:-1 42:-1 44:-1 46:-1 47:-1 48:-1 50:-1 51:-1 54:-1 55:-1 56:-1 57:-1 58:-1 59:-0.666667 61:-1 62:-1 63:-1 64:-1 65:-1 66:-1 67:-1 69:-1 70:-1 72:-1 73:-1 74:-1 75:-1 76:1 78:-1 
-512 512 512 512 512 512 512 512 107.37939229202354 1:-1 2:-1 3:-1 6:-1 10:-1 14:-1 17:-1 26:-1 29:-1 34:-1 40:-1 41:-1 42:-1 44:-1 46:-1 47:-1 48:-1 50:-1 51:-1 54:-1 55:-1 56:-1 57:-1 58:-1 59:-0.666667 60:-1 61:-1 62:-1 63:-1 64:-1 65:-1 66:-1 67:-1 69:-1 70:-1 72:-1 73:-1 74:-1 75:-1 76:-1 78:-1 
-249.36509468233371 0 400.95982798133946 0 0 0 0 0 0 1:-1 2:-1 3:-1 6:-1 10:-1 14:-1 17:-1 26:-1 29:-1 34:-1 40:-1 41:-1 42:-1 44:-1 46:-1 47:-1 48:-1 50:-1 51:-1 54:-1 55:-1 56:-1 57:-1 58:-1 59:-1 60:1 61:-1 62:-1 63:-1 64:-1 65:-1 66:-1 67:-1 69:-1 70:-1 72:-1 73:-1 74:-1 75:-1 76:-1 78:-1 
-0 0 512 0 0 0 65.011363003267789 0 0 1:-1 2:-1 3:-1 6:-1 10:-1 14:-1 17:-1 26:-1 29:-1 34:-1 40:-1 41:-1 42:-1 44:-1 46:-1 47:-1 48:-1 50:-1 51:-1 54:-1 55:-1 56:-1 57:-1 58:-1 59:-0.666667 61:-1 62:-1 63:-1 64:-1 65:-1 66:-1 67:-1 69:-1 70:-1 72:-1 73:-1 74:-1 75:-1 76:-1 78:-1 
-0 0 0 512 512 512 263.81657537189329 175.24432260715076 0 1:-1 2:-1 3:-1 6:-1 10:-1 14:-1 17:-1 26:-1 29:-1 34:-1 40:-1 41:-1 42:-1 44:-1 46:-1 47:-1 48:-1 50:-1 51:-1 54:-1 55:-1 56:-1 57:-1 58:-1 59:-0.666667 60:-1 61:-1 62:-1 63:-1 64:-1 65:-1 66:-1 67:-1 69:-1 70:-1 72:-1 73:-1 74:-1 75:-1 76:-0.5 78:-1 
-0 0 0 0 0 512 512 0 0 1:-1 2:-1 3:-1 6:-1 10:-1 14:-1 17:-1 26:-1 29:-1 34:-1 40:-1 41:-1 42:-1 44:-1 46:-1 47:-1 48:-1 50:-1 51:-1 54:-1 55:-1 56:-1 57:-1 58:-0.5 59:-1 60:-1 61:-1 62:-1 63:-1 64:-1 65:-1 66:-1 67:-1 69:-1 70:-1 72:-1 73:-1 74:-1 75:-1 76:-1 78:-1 
-0 512 512 512 512 512 0 512 512 1:-1 2:-1 3:-1 6:-1 10:-1 14:-1 17:-1 26:-1 29:-1 34:-1 40:-1 41:-1 42:-1 44:-1 46:-1 47:-1 48:-1 50:-1 51:-1 54:-1 55:-1 56:-1 57:-0.789474 58:-1 59:-1 60:-1 61:-1 62:-1 63:-1 64:-1 65:-1 66:-1 67:-1 69:-1 70:-1 72:-1 73:-1 74:-1 75:-1 76:-1 78:-1 
-0 124.08441783673716 512 512 512 512 512 512 512 1:-1 2:-1 3:-1 6:-1 10:-1 14:-1 17:-1 26:-1 29:-1 34:-1 40:-1 41:-1 42:-1 44:-1 46:-1 47:-1 48:-1 50:-1 51:-1 54:-1 55:-1 56:-1 57:-0.684211 58:-1 59:-0.666667 60:-1 61:-1 62:-1 63:-1 64:-1 65:-1 66:-1 67:-1 69:-1 70:-1 72:-1 73:-1 74:-0.826087 75:-1 76:-1 78:-1 
-0 0 512 0 0 0 0 0 0 1:-1 2:-1 3:-1 6:-1 10:-1 14:-1 17:-1 26:-1 29:-1 34:-1 40:-1 41:-1 42:-1 44:-1 46:-1 47:-1 48:-1 50:-1 51:-1 54:-1 55:-1 56:-1 57:-0.894737 58:-1 59:-1 61:-1 62:-1 63:-1 64:-1 65:-1 66:-1 67:-1 69:-1 70:-1 72:-1 73:-1 74:-1 75:-1 76:-1 78:-1 
-0 0 512 512 334.24332399396059 512 512 512 512 1:-1 2:-1 3:-1 6:-1 10:-1 14:-1 17:-1 26:-1 29:-1 34:-1 40:-1 41:-1 42:-1 44:-1 46:-1 47:-1 48:-1 50:-1 51:-1 54:-1 55:-1 56:-1 57:-0.578947 58:-1 59:-1 60:-1 61:-0.6 62:-1 63:-1 64:-1 65:-1 66:-1 67:-1 69:-1 70:-1 72:-1 73:-1 74:-1 75:-1 76:-1 78:-1 
-512 312.570372785058 512 512 512 512 512 512 88.986096686573362 1:-1 2:-1 3:-1 6:-1 10:-1 14:-1 17:-1 26:-1 29:-1 34:-1 40:-1 41:-1 42:-1 44:-1 46:-1 47:-1 48:-1 50:-1 51:-1 54:-1 55:-1 56:-1 57:-1 58:-1 59:-0.333333 60:-1 61:-1 62:-1 63:-1 64:-1 65:-1 66:-1 67:-1 69:-1 70:-1 72:-1 73:-1 74:-1 75:-1 76:-1 78:-1 
-0 0 512 512 512 512 512 512 0 1:-1 2:-1 3:-1 6:-1 10:-1 14:-1 17:-1 26:-1 29:-1 34:-1 40:-1 41:-1 42:-1 44:-1 46:-1 47:-1 48:-1 50:-1 51:-1 54:-1 55:-1 56:-1 57:-0.894737 58:-1 59:-0.333333 60:-1 61:-1 62:-1 63:-1 64:-1 65:-1 66:-1 67:-1 69:-1 70:-1 72:-1 73:-1 74:-0.826087 75:-1 76:-0.5 78:-1 
-0 0 512 512 0 512 512 512 391.42454671925833 1:-1 2:-1 3:-1 6:-1 10:-1 14:-1 17:-1 26:-1 29:-1 34:-1 40:-1 41:-1 42:-1 44:-1 46:-1 47:-1 48:-1 50:-1 51:-1 54:-1 55:-1 56:-1 57:-0.684211 58:-0.5 59:-1 60:-1 61:-1 62:-1 63:-1 64:-1 65:-1 66:-1 67:-1 69:-1 70:-1 72:-1 73:-1 74:-1 75:-1 76:-1 78:-1 
-0 512 512 512 512 512 0 512 512 1:-1 2:-1 3:-1 6:-1 10:-1 14:-1 17:-1 26:-1 29:-1 34:-1 40:-1 41:-1 42:-1 44:-1 46:-1 47:-1 48:-1 50:-1 51:-1 54:-1 55:-1 56:-1 57:-0.894737 58:-1 59:-1 60:-1 61:-1 62:-1 63:-1 64:-1 65:-1 66:-1 67:-1 69:-1 70:-1 72:-1 73:-1 74:-1 75:-1 76:-1 78:-1 
-292.37349975301237 512 512 0 0 512 0 512 0 1:-1 2:-1 3:-1 6:-1 10:-1 14:-1 17:-1 26:-1 29:-1 34:-1 40:-1 41:-1 42:-1 44:-1 46:-1 47:-1 48:-1 50:-1 51:-1 54:-1 55:-1 56:-1 57:-1 58:-1 59:-1 60:-1 61:-1 62:-1 63:-1 64:-1 65:-1 66:-1 67:-1 69:-1 70:-1 72:-1 73:-1 74:-0.913043 75:-1 76:-1 78:-1 
-10.975330507221733 31.571243509091861 0 0 511.73933239468562 512 0 512 0 1:-1 2:-1 3:-1 6:-1 10:-1 14:-1 17:-1 26:-1 29:-1 34:-1 40:-1 41:-1 42:-1 44:-1 46:-1 47:-1 48:-1 50:-1 51:-1 54:-1 55:-1 56:-1 57:-1 58:-1 59:-1 60:-1 61:-1 62:-1 63:0.333333 64:-1 65:-1 66:-1 67:-1 69:-1 70:-1 72:-1 73:-1 74:-1 75:-1 76:-1 78:-1 
-0 512 512 512 512 512 295.01765892633961 512 512 1:-1 2:-1 3:-1 6:-1 10:-1 14:-1 17:-1 26:-1 29:-1 34:-1 40:-1 41:-1 42:-1 44:-1 46:-1 47:-1 48:-1 50:-1 51:-1 54:-1 55:-1 56:-1 57:-0.789474 58:-1 59:-1 60:-1 61:-1 62:-1 63:-1 64:-1 65:-1 66:-1 67:-1 69:-1 70:-1 72:-1 73:-1 74:-1 75:-1 76:-1 78:-1 
-0 512 512 512 512 512 0 512 512 1:-1 2:-1 3:-1 6:-1 10:-1 14:-1 17:-1 26:-1 29:-1 34:-1 40:-1 41:-1 42:-1 44:-1 46:-1 47:-1 48:-1 50:-1 51:-1 54:-1 55:-1 56:-1 57:-0.894737 58:-1 59:-1 60:-1 61:-1 62:-1 63:-1 64:-1 65:-1 66:-1 67:-1 69:-1 70:-1 72:-1 73:-1 74:-1 75:-1 76:-1 78:-1 
-0 512 512 0 1.7187752809959664 512 512 512 512 1:-0.8 2:-1 3:-1 6:-1 10:-1 14:-1 17:-1 26:-1 29:-1 34:-1 40:-1 41:-1 42:-1 44:-1 46:-1 47:-1 48:-1 50:-1 51:-1 54:-1 55:-1 56:-1 57:-1 58:-1 59:-1 60:-1 61:-1 62:-1 63:-1 64:-1 65:-1 66:-1 67:-1 69:-1 70:-1 72:-1 73:-1 74:-1 75:-1 76:-1 78:-1 
-0 0 0 367.15019039419963 0 512 512 32.603442174482808 0 1:-1 2:-1 3:-1 6:-1 10:-1 14:-1 17:-1 26:-1 29:-1 34:-1 40:-1 41:-1 42:-1 44:-1 46:-1 47:-1 48:-1 50:-1 51:-1 54:-1 55:-1 56:-1 57:-1 58:-0.5 59:-1 60:-1 61:-1 62:-1 63:-1 64:-1 65:-1 66:-1 67:-1 69:-1 70:-1 72:-1 73:-1 74:-1 75:-1 76:-1 78:-1 
-0 0 96.285407072220409 512 0 512 512 0 0 1:-1 2:-1 3:-1 6:-1 10:-1 14:-1 17:-1 26:-1 29:-1 34:-1 40:-1 41:-1 42:-1 44:-1 46:-1 47:-1 48:-1 50:-1 51:-1 54:-1 55:-1 56:-1 57:-1 58:-0.5 59:-1 60:-1 61:-1 62:-1 63:-1 64:-1 65:-1 66:-1 67:-1 69:-1 70:-1 72:-1 73:-1 74:-1 75:-1 76:-1 78:-1 
-512 63.74887102267742 512 512 512 81.038007703073163 0 512 512 1:-1 2:-1 3:-1 6:-1 10:-1 14:-1 17:-1 26:-1 29:-1 34:-1 40:-0.333333 41:-1 42:-1 44:-1 46:-1 47:-1 48:-1 50:-1 51:-1 54:-1 55:-1 56:-1 57:-0.894737 58:-1 59:-1 60:-1 61:-1 62:-1 63:-1 64:-1 65:-1 66:-1 67:-1 69:-1 70:-1 72:-1 73:-1 74:-1 75:-1 76:-1 78:-1 
-62.916475850689416 512 512 0 36.075881989363062 512 512 512 512 1:-0.8 2:-1 3:-1 6:-1 10:-1 14:-1 17:-1 26:-1 29:-1 34:-1 40:-1 41:-1 42:-1 44:-1 46:-1 47:-1 48:-1 50:-1 51:-1 54:-1 55:-1 56:-1 57:-1 58:-1 59:-1 60:-1 61:-1 62:-1 63:-1 64:-1 65:-1 66:-1 67:-1 69:-1 70:-1 72:-1 73:-1 74:-1 75:-1 76:-1 78:-1 
-0 0.063543617074658595 512 0 0 0 0 0 0 1:-1 2:-1 3:-1 6:-1 10:-1 14:-1 17:-1 26:-1 29:-1 34:-1 40:-1 41:-1 42:-1 44:-1 46:-1 47:-1 48:-1 50:-1 51:-1 54:-1 55:-1 56:-1 57:-1 58:-1 59:-1 61:-1 62:-1 63:-1 64:-1 65:-1 66:-1 67:-1 69:-1 70:-1 72:-1 73:-1 74:-1 75:-1 76:-1 78:-1 
-0 512 370.99874582926367 0 0 512 0 395.80825593700558 0 1:-1 2:-1 3:-1 6:-1 10:-1 14:-1 17:-1 26:-1 29:-1 34:-1 40:-1 41:-1 42:-1 44:-1 46:-1 47:-1 48:-1 50:-1 51:-1 54:-1 55:-1 56:-1 57:-1 58:-1 59:-1 60:-1 61:-1 62:-1 63:-1 64:-1 65:-1 66:-1 67:-1 69:-1 70:-1 72:-1 73:-1 74:-0.826087 75:-1 76:-1 78:-1 
-0 512 512 512 256.30805826542525 419.16339018401652 0 0 231.1280049676262 1:-1 2:-1 3:-1 6:-1 10:-1 14:-1 17:-1 26:-1 29:-1 34:-1 40:-1 41:-1 42:-1 44:-1 46:-1 47:-1 48:-1 50:-1 51:-1 54:-1 55:-1 56:-1 57:-0.789474 58:-1 59:-0.666667 60:-1 61:-0.6 62:-1 63:-1 64:-1 65:-1 66:-1 67:-1 69:-1 70:-1 72:-1 73:-1 74:-0.826087 75:-1 76:-0.5 78:-1 
-0 512 0 0 0 151.9347020907729 0 0 0 1:-1 2:-1 3:-1 6:-1 10:-1 14:-1 17:-1 26:-1 29:-1 34:-1 40:-1 41:-1 42:-1 44:-1 46:-1 47:-1 48:-1 50:-1 51:-1 54:-1 55:-1 56:-1 57:-1 58:-1 59:-1 60:-1 61:-1 62:-1 63:-1 64:-1 65:-1 66:-1 67:-1 69:-1 70:-1 72:-1 73:-1 74:-0.73913 75:-1 76:-1 78:-1 
-0 0 132.00315357925126 0 0 512 0 0 0 1:-1 2:-1 3:-1 6:-1 10:-1 14:-1 17:-1 26:-1 29:-1 34:-1 40:-1 41:-1 42:-1 44:-1 46:-1 47:-1 48:-1 50:-1 51:-1 54:-1 55:-1 56:-1 57:-1 58:-0.5 59:-1 61:-1 62:-1 63:-1 64:-1 65:-1 66:-1 67:-1 69:-1 70:-1 72:-1 73:-1 74:-1 75:-1 76:-1 78:-1 
-0 0 512 286.38864112556251 0 512 260.46883361752583 512 19.407301702501837 1:-1 2:-1 3:-1 6:-1 10:-1 14:-1 17:-1 26:-1 29:-1 34:-1 40:-1 41:-1 42:-1 44:-1 46:-1 47:-1 48:-1 50:-1 51:-1 54:-1 55:-1 56:-1 57:-0.894737 58:-1 59:-1 60:-1 61:-1 62:-1 63:0.333333 64:-1 65:-1 66:-1 67:-1 69:-1 70:-1 72:-1 73:-1 74:-1 75:-1 76:-1 78:-1 
-0 0 512 0 0 0 0 0 0 1:-1 2:-1 3:-1 6:-1 10:-1 14:-1 17:-1 26:-1 29:-1 34:-1 40:-1 41:-1 42:-1 44:-1 46:-1 47:-1 48:-1 50:-1 51:-1 54:-1 55:-1 56:-1 57:-1 58:-1 59:-1 61:-1 62:-1 63:-1 64:-1 65:-1 66:-1 67:-1 69:-1 70:-1 72:-1 73:-1 74:-1 75:-1 76:-1 78:-1 
-0 0 512 512 0 512 512 0 0 1:-1 2:-1 3:-1 6:-1 10:-1 14:-1 17:-1 26:-1 29:-1 34:-1 40:-1 41:-1 42:-1 44:-1 46:-1 47:-1 48:-1 50:-1 51:-1 54:-1 55:-1 56:-1 57:-1 58:-0.5 59:-1 60:-1 61:-1 62:-1 63:-1 64:-1 65:-1 66:-1 67:-1 69:-1 70:-1 72:-1 73:-1 74:-1 75:-1 76:-1 78:-1 
-0 0 512 0 0 0 0 80.375124192503378 65.40814494778445 1:-1 2:-1 3:-1 6:-1 10:-1 14:-1 17:-1 26:-1 29:-1 34:-1 40:-1 41:-1 42:-1 44:-1 46:-1 47:-1 48:-1 50:-1 51:-1 54:-1 55:-1 56:-1 57:-0.789474 58:-1 59:-1 61:-1 62:-1 63:-1 64:-1 65:-1 66:-1 67:-1 69:-1 70:-1 72:-1 73:-1 74:-1 75:-1 76:-1 78:-1 
-0 0 512 512 512 512 512 512 512 1:-1 2:-1 3:-1 6:-1 10:-1 14:-1 17:-1 26:-1 29:-1 34:-1 40:-1 41:-1 42:-1 44:-1 46:-1 47:-1 48:-1 50:-1 51:-1 54:-1 55:-1 56:-1 57:-0.789474 58:-1 59:-0.666667 60:-1 61:-1 62:-1 63:-1 64:-1 65:-1 66:-1 67:-1 69:-1 70:-1 72:-1 73:-1 74:-1 75:-1 76:-1 78:-1 
-0 512 512 512 512 512 0 512 512 1:-1 2:-1 3:-1 6:-1 10:-1 14:-1 17:-1 26:-1 29:-1 34:-1 40:-1 41:-1 42:-1 44:-1 46:-1 47:-1 48:-1 50:-1 51:-1 54:-1 55:-1 56:-1 57:-0.894737 58:-1 59:-1 60:-1 61:-1 62:-1 63:-1 64:-1 65:-1 66:-1 67:-1 69:-1 70:-1 72:-1 73:-1 74:-1 75:-1 76:-1 78:-1 
-0 0 512 0 0 0 0 0 0 1:-1 2:-1 3:-1 6:-1 10:-1 14:-1 17:-1 26:-1 29:-1 34:-1 40:-1 41:-1 42:-1 44:-1 46:-1 47:-1 48:-1 50:-1 51:-1 54:-1 55:-1 56:-1 57:-1 58:-1 59:-1 61:-1 62:-1 63:-1 64:-1 65:-1 66:-1 67:-1 69:-1 70:-1 72:-1 73:-1 74:-1 75:-1 76:-1 78:-1 
-0 54.676902531612185 512 0 0 0 0 0 0 1:-1 2:-1 3:-1 6:-1 10:-1 14:-1 17:-1 26:-1 29:-1 34:-1 40:-1 41:-1 42:-1 44:-1 46:-1 47:-1 48:-1 50:-1 51:-1 54:-1 55:-1 56:-1 57:-1 58:-1 59:-1 61:-1 62:-1 63:-1 64:-1 65:-1 66:-1 67:-1 69:-1 70:-1 72:-1 73:-1 74:-1 75:-1 76:-1 78:-1 
-0 512 512 512 512 512 512 512 512 1:-1 2:-1 3:-1 6:-1 10:-1 14:-1 17:-1 26:-1 29:-1 34:-1 40:-1 41:-1 42:-1 44:-1 46:-1 47:-1 48:-1 50:-1 51:-1 54:-1 55:-1 56:-1 57:-0.894737 58:-1 59:-0.666667 60:-1 61:-1 62:-1 63:-1 64:-1 65:-1 66:-1 67:-1 69:-1 70:-1 72:-1 73:-1 74:-1 75:-1 76:-1 78:-1 
-31.41873765837104 279.03971372627439 400.4036482699297 512 18.732412967559434 512 512 0 512 1:-1 2:-1 3:-1 6:-1 10:-1 14:-1 17:-1 26:-1 29:-1 34:-1 40:-1 41:-1 42:-1 44:-1 46:-1 47:-1 48:-1 50:-1 51:-1 54:-1 55:-1 56:-1 57:-0.684211 58:-0.5 59:-1 60:-1 61:0.2 62:-1 63:-1 64:-1 65:-1 66:-1 67:-1 69:-1 70:-1 72:-1 73:-1 74:-1 75:-1 76:-1 78:-1 
-0 0 463.27072584584243 499.31479607288088 0 512 512 109.33520730369912 0 1:-1 2:-1 3:-1 6:-1 10:-1 14:-1 17:-1 26:-1 29:-1 34:-1 40:-1 41:-1 42:-1 44:-1 46:-1 47:-1 48:-1 50:-1 51:-1 54:-1 55:-1 56:-1 57:-1 58:-0.5 59:-1 60:-1 61:-1 62:-1 63:-1 64:-1 65:-1 66:-1 67:-1 69:-1 70:-1 72:-1 73:-1 74:-1 75:-1 76:-1 78:-1 
-0 512 512 304.65446397876741 0 0 0 0 0 1:-0.8 2:-1 3:-1 6:-1 10:-1 14:-1 17:-1 26:-1 29:-1 34:-1 40:-1 41:-1 42:-1 44:-1 46:-1 47:-1 48:-1 50:-1 51:-1 54:-1 55:-1 56:-1 57:-1 58:-1 59:-1 60:-1 61:-1 62:-1 63:-1 64:-1 65:-1 66:-1 67:-1 69:-1 70:-1 72:-1 73:-1 74:-1 75:-1 76:-0.5 78:-1 
-0 -7.4177048570761581 0 0 0 0 0 0 0 1:-1 2:-1 3:-1 6:-1 10:-1 14:-1 17:-1 26:-1 29:-1 34:-1 40:-1 41:-1 42:-1 44:-1 46:-1 47:-1 48:-1 50:-1 51:-1 54:-1 55:-1 56:-1 57:-1 58:-1 59:-1 60:-1 61:-1 62:-1 63:-1 64:-1 65:-1 66:-1 67:-1 69:-1 70:-1 72:-1 73:-1 74:-0.73913 75:-1 76:-1 78:-1 
-30.574786237491956 -168.0986243058563 114.97511014080875 362.26127761238473 512 512 16.256024386029033 254.21234603647181 512 1:-1 2:-1 3:-1 6:-1 10:-1 14:-1 17:-1 26:-1 29:-1 34:-1 40:-1 41:-1 42:-0.333333 44:-1 46:-1 47:-1 48:-1 50:-1 51:-1 54:-1 55:-1 56:-1 57:-1 58:-1 59:-1 60:-1 61:-1 62:-1 63:-1 64:-1 65:-1 66:-1 67:-1 69:-1 70:-1 72:-1 73:-1 74:-1 75:-1 76:-1 78:-1 
-86.173544221263754 -512 497.01945065659703 512 223.89677245973738 245.52881572210734 512 0 512 1:-1 2:-1 3:-1 6:-1 10:-1 14:-1 17:-1 26:-1 29:-1 34:-1 40:-1 41:-1 42:-1 44:-1 46:-1 47:-1 48:-1 50:-1 51:-1 54:-1 55:-1 56:-1 57:-0.789474 58:-1 59:-1 60:-1 61:0.2 62:-1 63:-1 64:-1 65:-1 66:-1 67:-1 69:-1 70:-1 72:-1 73:-1 74:-1 75:-1 76:-1 78:-1 
-0 -0 512 0 0 0 0 0 512 1:-0.2 2:-1 3:-1 6:-1 10:-1 14:-1 17:-1 26:-1 29:-1 34:-1 40:-1 41:-1 42:-1 44:-1 46:-1 47:-1 48:-1 50:-1 51:-1 54:-1 55:-1 56:-1 57:-1 58:-1 59:-1 60:-1 61:-1 62:-1 63:-1 64:-1 65:-1 66:-1 67:-1 69:-1 70:-1 72:-1 73:-1 74:-1 75:-1 76:-1 78:-1 
-0 -0 0 0 0 0 16.578103910569272 0 512 1:-0.4 2:-1 3:-1 6:-1 10:-1 14:-1 17:-1 26:-1 29:-1 34:-1 40:-1 41:-1 42:-1 44:-1 46:-1 47:-1 48:-1 50:-1 51:-1 54:-1 55:-1 56:-1 57:-0.894737 58:-1 59:-1 60:-1 61:-0.2 62:-1 63:-1 64:-1 65:-1 66:-1 67:-1 69:-1 70:-1 72:-1 73:-1 74:-1 75:-1 76:-1 78:-1 
-0 -0 0 0 0 0 116.50061561789305 0 512 1:0.6 2:-1 3:-1 6:-1 10:-1 14:-1 17:-1 26:-1 29:-1 34:-1 40:-1 41:-1 42:-1 44:-1 46:-1 47:-1 48:-1 50:-1 51:-1 54:-1 55:-1 56:-1 57:-1 58:-1 59:-1 60:-1 61:-1 62:-1 63:-1 64:-1 65:-1 66:-1 67:-1 69:-1 70:-1 72:-1 73:-1 74:-1 75:-1 76:-1 78:-1 
-0 -512 0 0 0 0 0 0 0 1:-1 2:-1 3:-1 6:-1 10:-1 14:-1 17:-1 26:-1 29:-1 34:-1 40:-1 41:-1 42:-1 44:-1 46:-1 47:-1 48:-1 50:-1 51:-1 54:-1 55:-1 56:-1 57:-1 58:-1 59:-1 60:-1 61:-1 62:-1 63:-1 64:-1 65:-1 66:-1 67:-1 69:-1 70:-1 72:-1 73:-1 74:-0.73913 75:-1 76:-1 78:-1 
-0 -512 512 512 512 512 512 512 512 1:-0.8 2:-1 3:-1 6:-1 10:-1 14:-1 17:-1 26:-1 29:-1 34:-1 40:-1 41:-1 42:-1 44:-1 46:-1 47:-1 48:-1 50:-1 51:-1 54:-1 55:-1 56:-1 57:-0.789474 58:-1 59:-1 60:-1 61:-1 62:-1 63:-1 64:-1 65:-1 66:-1 67:-1 69:-1 70:-1 72:-1 73:-1 74:-1 75:-1 76:-1 78:-1 
-0 -512 512 512 512 512 512 512 0 1:-1 2:-1 3:-1 6:-1 10:-1 14:-1 17:-1 26:-1 29:-1 34:-1 40:-1 41:-1 42:-1 44:-1 46:-1 47:-1 48:-1 50:-1 51:-1 54:-1 55:-1 56:-1 57:-1 58:-1 59:-1 60:-1 61:-1 62:-1 63:-1 64:-1 65:-1 66:-1 67:-1 69:-1 70:-1 72:-1 73:-1 74:-0.913043 75:-1 76:-1 78:-1 
-0 -0 512 512 0 0 512 0 512 1:-0.8 2:-1 3:-1 6:-1 10:-1 14:-1 17:-1 26:-1 29:-1 34:-1 40:-1 41:-1 42:-1 44:-1 46:-1 47:-1 48:-1 50:-1 51:-1 54:-1 55:-1 56:-1 57:-0.894737 58:-1 59:-1 60:-1 61:-0.6 62:-1 63:-1 64:-1 65:-1 66:-1 67:-1 69:-1 70:-1 72:-1 73:-1 74:-1 75:-1 76:-1 78:-1 
-0 -402.07922222339727 512 0 0 0 512 0 0 1:-0.8 2:-1 3:-1 6:-1 10:-1 14:-1 17:-1 26:-1 29:-1 34:-1 40:-1 41:-1 42:-1 44:-1 46:-1 47:-1 48:-1 50:-1 51:-1 54:-1 55:-1 56:-1 57:-1 58:-1 59:-1 60:-1 61:-1 62:-1 63:-1 64:-1 65:-1 66:-1 67:-1 69:-1 70:-1 72:-1 73:-1 74:-1 75:-1 76:-1 78:-1 
-0 -512 214.56434093676248 0 56.372238990575134 512 0 193.22516495395607 0 1:-1 2:-1 3:-1 6:-1 10:-1 14:-1 17:-1 26:-1 29:-1 34:-1 40:-1 41:-1 42:-1 44:-1 46:-1 47:-1 48:-1 50:-1 51:-1 54:-1 55:-1 56:-1 57:-1 58:-1 59:-1 60:-1 61:-1 62:-1 63:-1 64:-1 65:-1 66:-1 67:-1 69:-1 70:-1 72:-1 73:-1 74:-0.826087 75:-1 76:-1 78:-1 
-512 -512 512 512 512 512 512 512 512 1:-1 2:-1 3:-1 6:-1 10:-1 14:-1 17:-1 26:-1 29:-1 34:-1 40:-1 41:-1 42:-1 44:-1 46:-1 47:-1 48:-1 50:-1 51:-1 54:-1 55:-1 56:-1 57:-1 58:-1 59:-0.666667 60:-1 61:-1 62:-1 63:-1 64:-1 65:-1 66:-1 67:-1 69:-1 70:-1 72:-1 73:-1 74:-1 75:-1 76:-1 78:-1 
-0 -512 512 0 0 0 512 114.29696881913777 54.515144652102776 1:-0.8 2:-1 3:-1 6:-1 10:-1 14:-1 17:-1 26:-1 29:-1 34:-1 40:-1 41:-1 42:-1 44:-1 46:-1 47:-1 48:-1 50:-1 51:-1 54:-1 55:-1 56:-1 57:-1 58:-1 59:-1 60:-1 61:-1 62:-1 63:-1 64:-1 65:-1 66:-1 67:-1 69:-1 70:-1 72:-1 73:-1 74:-1 75:-1 76:-1 78:-1 
-512 -512 512 512 512 512 512 512 512 1:-1 2:-1 3:-1 6:-1 10:-1 14:-1 17:-1 26:-1 29:-1 34:-1 40:-1 41:-1 42:-1 44:-1 46:-1 47:-1 48:-1 50:-1 51:-1 54:-1 55:-1 56:-1 57:-0.894737 58:-1 59:-1 60:-1 61:-1 62:-1 63:-1 64:-1 65:-1 66:-1 67:-1 69:-1 70:-1 72:-1 73:-1 74:-1 75:-1 76:-1 78:-1 
-0 -0 512 0 0 0 384.47113345140326 0 512 1:-0.6 2:-1 3:-1 6:-1 10:-1 14:-1 17:-1 26:-1 29:-1 34:-1 40:-1 41:-1 42:-1 44:-1 46:-1 47:-1 48:-1 50:-1 51:-1 54:-1 55:-1 56:-1 57:-1 58:-1 59:-1 60:-1 61:-1 62:-1 63:-1 64:-1 65:-1 66:-1 67:-1 69:-1 70:-1 72:-1 73:-1 74:-1 75:-1 76:-1 78:-1 
-0 -0 512 0 0 0 0 0 0 1:-0.8 2:-1 3:-1 6:-1 10:-1 14:-1 17:-1 26:-1 29:-1 34:-1 40:-1 41:-1 42:-1 44:-1 46:-1 47:-1 48:-1 50:-1 51:-1 54:-1 55:-1 56:-1 57:-1 58:-1 59:-1 60:-1 61:-1 62:-1 63:-1 64:-1 65:-1 66:-1 67:-1 69:-1 70:-1 72:-1 73:-1 74:-0.913043 75:-1 76:-1 78:-1 
-0 -0 16.702569922052078 0 0 0 0 0 512 1:0.2 2:-1 3:-1 6:-1 10:-1 14:-1 17:-1 26:-1 29:-1 34:-1 40:-1 41:-1 42:-1 44:-1 46:-1 47:-1 48:-1 50:-1 51:-1 54:-1 55:-1 56:-1 57:-1 58:-1 59:-1 60:-1 61:-1 62:-1 63:-1 64:-1 65:-1 66:-1 67:-1 69:-1 70:-1 72:-1 73:-1 74:-1 75:-1 76:-1 78:-1 
-0 -0 512 0 0 0 508.48507209704439 0 512 1:-0.6 2:-1 3:-1 6:-1 10:-1 14:-1 17:-1 26:-1 29:-1 34:-1 40:-1 41:-1 42:-1 44:-1 46:-1 47:-1 48:-1 50:-1 51:-1 54:-1 55:-1 56:-1 57:-1 58:-1 59:-1 60:-1 61:-1 62:-1 63:-1 64:-1 65:-1 66:-1 67:-1 69:-1 70:-1 72:-1 73:-1 74:-1 75:-1 76:-1 78:-1 
-22.688569839544758 -116.50028289005495 423.36438912421283 354.14508893064107 434.1529289155792 512 12.742397499385465 512 2.4040488197352698 1:-1 2:-1 3:-1 6:-1 10:-1 14:-1 17:-1 26:-1 29:-1 34:-1 40:-1 41:-1 42:-1 44:-1 46:-1 47:-1 48:-1 50:-1 51:-1 54:-1 55:-1 56:-1 57:-1 58:-1 59:-1 60:-1 61:-1 62:-1 63:-1 64:-1 65:-1 66:-1 67:-1 69:-1 70:-1 72:-1 73:-1 74:-1 75:-0.2 76:-1 78:-1 
-0 -512 512 0 0 0 512 512 0 1:-0.8 2:-1 3:-1 6:-1 10:-1 14:-1 17:-1 26:-1 29:-1 34:-1 40:-1 41:-1 42:-1 44:-1 46:-1 47:-1 48:-1 50:-1 51:-1 54:-1 55:-1 56:-1 57:-1 58:-1 59:-1 60:-1 61:-1 62:-1 63:-1 64:-1 65:-1 66:-1 67:-1 69:-1 70:-1 72:-1 73:-1 74:-1 75:-1 76:-1 78:-1 
-350.09233428365678 -0 291.38730642536711 0 0 0 0 0 215.00649980861689 1:-1 2:-1 3:-1 6:-1 10:-1 14:-1 17:-1 26:-1 29:-1 34:-1 40:0.333333 41:-1 42:-1 44:-1 46:-1 47:-1 48:-1 50:-1 51:-1 54:-1 55:-1 56:-1 57:-1 58:-1 59:-1 60:-1 61:-1 62:-1 63:-1 64:-1 65:-1 66:-1 67:-1 69:-1 70:-1 72:-1 73:-1 74:-0.391304 75:-1 76:-1 78:-1 
-0 -512 512 512 512 512 512 512 512 1:-0.8 2:-1 3:-1 6:-1 10:-1 14:-1 17:-1 26:-1 29:-1 34:-1 40:-1 41:-1 42:-1 44:-1 46:-1 47:-1 48:-1 50:-1 51:-1 54:-1 55:-1 56:-1 57:-0.789474 58:-1 59:-1 60:-1 61:-1 62:-1 63:-1 64:-1 65:-1 66:-1 67:-1 69:-1 70:-1 72:-1 73:-1 74:-1 75:-1 76:-1 78:-1 
-0 -512 264.41858698114487 403.96119527450651 512 512 0 511.52276053078975 0 1:-1 2:-1 3:-1 6:-1 10:-1 14:-1 17:-1 26:-1 29:-1 34:-1 40:-1 41:-1 42:-1 44:-1 46:-1 47:-1 48:-1 50:-1 51:-1 54:-1 55:-1 56:-1 57:-1 58:-1 59:-1 60:-1 61:-1 62:-1 63:-1 64:-1 65:-1 66:-1 67:-1 69:-1 70:-1 72:-1 73:-1 74:-0.826087 75:-1 76:-1 78:-1 
-271.79775730621793 -512 512 512 512 512 512 512 512 1:-1 2:-1 3:-1 6:-1 10:-1 14:-1 17:-1 26:-1 29:-1 34:-1 40:-1 41:-1 42:-1 44:-1 46:-1 47:-1 48:-1 50:-1 51:-1 54:-1 55:-1 56:-1 57:-0.789474 58:-1 59:-1 60:-1 61:-0.6 62:-1 63:-1 64:-1 65:-1 66:-1 67:-1 69:-1 70:-1 72:-1 73:-1 74:-1 75:-1 76:-1 78:-1 
-0 -512 0 512 512 512 0 510.08925667014523 0 1:-1 2:-1 3:-1 6:-1 10:-1 14:-1 17:-1 26:-1 29:-1 34:-1 40:-1 41:-1 42:-1 44:-1 46:-1 47:-1 48:-1 50:-1 51:-1 54:-1 55:-1 56:-1 57:-1 58:-1 59:-1 60:-1 61:-1 62:-1 63:-1 64:-1 65:-1 66:-1 67:-1 69:-1 70:-1 72:-1 73:-1 74:-0.826087 75:-1 76:-1 78:-1 
-0 -0 324.96379973387536 0 369.78737245365056 17.855721636649093 437.28922084612969 512 227.72350305490266 1:-0.6 2:-1 3:-1 6:-1 10:-1 14:-1 17:-1 26:-1 29:-1 34:-1 40:-1 41:-1 42:-1 44:-1 46:-1 47:-1 48:-1 50:-1 51:-1 54:-1 55:-1 56:-1 57:-0.894737 58:-1 59:-0.666667 60:-1 61:-1 62:-1 63:-1 64:-1 65:-1 66:-1 67:-1 69:-0.5 70:-1 72:-1 73:-1 74:-1 75:-1 76:-1 78:-1 
-0 -512 512 0 0 0 512 512 29.008637612634491 1:-0.8 2:-1 3:-1 6:-1 10:-1 14:-1 17:-1 26:-1 29:-1 34:-1 40:-1 41:-1 42:-1 44:-1 46:-1 47:-1 48:-1 50:-1 51:-1 54:-1 55:-1 56:-1 57:-1 58:-1 59:-1 60:-1 61:-1 62:-1 63:-1 64:-1 65:-1 66:-1 67:-1 69:-1 70:-1 72:-1 73:-1 74:-1 75:-1 76:-1 78:-1 
-0 -429.60532752141211 512 0 0 0 512 512 21.754929401921675 1:-0.8 2:-1 3:-1 6:-1 10:-1 14:-1 17:-1 26:-1 29:-1 34:-1 40:-1 41:-1 42:-1 44:-1 46:-1 47:-1 48:-1 50:-1 51:-1 54:-1 55:-1 56:-1 57:-1 58:-1 59:-1 60:-1 61:-1 62:-1 63:-1 64:-1 65:-1 66:-1 67:-1 69:-1 70:-1 72:-1 73:-1 74:-1 75:-1 76:-1 78:-1 
-0 -0 512 0 0 0 512 0 512 1:-0.6 2:-1 3:-1 6:-1 10:-1 14:-1 17:-1 26:-1 29:-1 34:-1 40:-1 41:-1 42:-1 44:-1 46:-1 47:-1 48:-1 50:-1 51:-1 54:-1 55:-1 56:-1 57:-1 58:-1 59:-1 60:-1 61:-1 62:-1 63:-1 64:-1 65:-1 66:-1 67:-1 69:-1 70:-1 72:-1 73:-1 74:-1 75:-1 76:-1 78:-1 
-0 -0 512 0 0 0 0 0 0 1:-0.6 2:-1 3:-1 6:-1 10:-1 14:-1 17:-1 26:-1 29:-1 34:-1 40:-1 41:-1 42:-1 44:-1 46:-1 47:-1 48:-1 50:-1 51:-1 54:-1 55:-1 56:-1 57:-1 58:-1 59:-1 60:-1 61:-1 62:-1 63:-1 64:-1 65:-1 66:-1 67:-1 69:-1 70:-1 72:-1 73:-1 74:-0.913043 75:-1 76:-1 78:-1 
-0 -512 512 0 0 449.94831412704082 512 163.71343778965357 0 1:-0.6 2:-1 3:-1 6:-1 10:-1 14:-1 17:-1 26:-1 29:-1 34:-1 40:-1 41:-1 42:-1 44:-1 46:-1 47:-1 48:-1 50:-1 51:-1 54:-1 55:-1 56:-1 57:-1 58:-1 59:-0.333333 60:-1 61:-1 62:-1 63:-1 64:-1 65:-1 66:-1 67:-1 69:-1 70:-1 72:-1 73:-1 74:-0.913043 75:-1 76:-0.5 78:-1 
-0 -512 512 512 512 512 178.44934819658923 512 0 1:-1 2:-1 3:-1 6:-1 10:-1 14:-1 17:-1 26:-1 29:-1 34:-1 40:-1 41:-1 42:-1 44:-1 46:-1 47:-1 48:-1 50:-1 51:-1 54:-1 55:-1 56:-1 57:-1 58:-1 59:-1 60:-1 61:-1 62:-1 63:-1 64:-1 65:-1 66:-1 67:-1 69:-1 70:-1 72:-1 73:-1 74:-0.913043 75:-1 76:-1 78:-1 
-293.4499657352967 -25.581621240510902 512 0 0 292.22912656856636 512 512 0 1:-0.8 2:-1 3:-1 6:-1 10:-1 14:-1 17:-1 26:-1 29:-1 34:-1 40:-1 41:-1 42:-1 44:-1 46:-1 47:-1 48:-1 50:-1 51:-1 54:-1 55:-1 56:-1 57:-1 58:-1 59:-1 60:-1 61:-1 62:-1 63:-1 64:-1 65:-1 66:-1 67:-1 69:-1 70:-1 72:-1 73:-1 74:-1 75:-1 76:-1 78:-1 
-512 -512 512 512 512 512 512 512 512 1:-1 2:-1 3:-1 6:-1 10:-1 14:-1 17:-1 26:-1 29:-1 34:-1 40:-1 41:-1 42:-1 44:-1 46:-1 47:-1 48:-1 50:-1 51:-1 54:-1 55:-1 56:-1 57:-1 58:-1 59:-0.666667 60:-1 61:-1 62:-1 63:-1 64:-1 65:-1 66:-1 67:-1 69:-1 70:-1 72:-1 73:-1 74:-1 75:-1 76:-1 78:-1 
-0 -494.13755957371416 0 0 0 125.69933243347478 0 0 0 1:-1 2:-1 3:-1 6:-1 10:-1 14:-1 17:-1 26:-1 29:-1 34:-1 40:-1 41:-1 42:-1 44:-1 46:-1 47:-1 48:-1 50:-1 51:-1 54:-1 55:-1 56:-1 57:-1 58:-1 59:-1 60:-1 61:-1 62:-1 63:-1 64:-1 65:-1 66:-1 67:-1 69:-1 70:-1 72:-1 73:-1 74:-0.73913 75:-1 76:-1 78:-1 
-512 -512 512 512 512 512 512 512 110.12349581360436 1:-1 2:-1 3:-1 6:-1 10:-1 14:-1 17:-1 26:-1 29:-1 34:-1 40:-1 41:-1 42:-1 44:-1 46:-1 47:-1 48:-1 50:-1 51:-1 54:-1 55:-1 56:-1 57:-1 58:-1 59:-0.333333 60:-1 61:-1 62:-1 63:-1 64:-1 65:-1 66:-1 67:-1 69:-1 70:-1 72:-1 73:-1 74:-1 75:-1 76:-0.5 78:-1 
-512 -512 512 512 512 512 512 512 512 1:-1 2:-1 3:-1 6:-1 10:-1 14:-1 17:-1 26:-1 29:-1 34:-1 40:-1 41:-1 42:-1 44:-1 46:-1 47:-1 48:-1 50:-1 51:-1 54:-1 55:-1 56:-1 57:-1 58:-1 59:-0.666667 60:-1 61:-1 62:-1 63:-1 64:-1 65:-1 66:-1 67:-1 69:-1 70:-1 72:-1 73:-1 74:-1 75:-1 76:-1 78:-1 
-0 -512 -512 512 512 512 512 512 0 1:-1 2:-1 3:-1 6:-1 10:-1 14:-1 17:-1 26:-1 29:-1 34:-1 40:-1 41:-1 42:-1 44:-1 46:-1 47:-1 48:-1 50:-1 51:-1 54:-1 55:-1 56:-1 57:-0.894737 58:-1 59:-1 60:-1 61:-1 62:-1 63:-1 64:-1 65:-1 66:-1 67:-1 69:-1 70:-1 72:-1 73:-1 74:-1 75:-1 76:-1 78:-1 
-0 -512 -25.899193285785522 512 0 512 0 512 512 1:-1 2:-1 3:-1 6:-1 10:-1 14:-1 17:-1 26:-1 29:-1 34:-1 40:-1 41:-1 42:-1 44:-1 46:-1 47:-1 48:-1 50:-1 51:-1 54:-1 55:-1 56:-1 57:-0.789474 58:-1 59:-1 60:-1 61:-1 62:-1 63:-1 64:-1 65:-1 66:-1 67:-1 69:-1 70:-1 72:-1 73:-1 74:-1 75:-1 76:-1 78:-1 
-0 -512 -0 0 0 0 0 0 0 1:-1 2:-1 3:-1 6:-1 10:-1 14:-1 17:-1 26:-1 29:-1 34:-1 40:-1 41:-1 42:-1 44:-1 46:-1 47:-1 48:-1 50:-1 51:-1 54:-1 55:-1 56:-1 57:-0.894737 58:-1 59:-1 61:-1 62:-1 63:-1 64:-1 65:-1 66:-1 67:-1 69:-1 70:-1 72:-1 73:-1 74:-1 75:-1 76:-1 78:-1 
-0 -512 -0 0 0 0 0 157.16284162533447 0 1:-1 2:-1 3:-1 6:-1 10:-1 14:-1 17:-1 26:-1 29:-1 34:-1 40:-1 41:-1 42:-1 44:-1 46:-1 47:-1 48:-1 50:-1 51:-1 54:-1 55:-1 56:-1 57:-0.789474 58:-1 59:-1 61:-1 62:-1 63:-0.333333 64:-1 65:-1 66:-1 67:-1 69:-1 70:-1 72:-1 73:-1 74:-1 75:-1 76:-1 78:-1 
-0 -0 -0 0 0 1.8959624456770305 0 12.520713437498525 13.926797684726733 1:-0.8 2:-1 3:1 6:-1 10:-1 14:-1 17:-1 26:-1 29:-1 34:-1 40:-1 41:-1 42:-1 44:-1 46:-1 47:-1 48:-1 50:-1 51:-1 54:-1 55:-1 56:-1 57:-0.789474 58:-1 59:-1 60:-1 61:-1 62:-1 63:-1 64:-1 65:-1 66:-1 67:-1 69:-1 70:-1 72:-1 73:-1 74:-1 75:-1 76:-1 78:-1 
-12.426201358652532 -27.338451522390557 -0 0 247.90809622338597 0 205.11645151061796 0 0 1:-1 2:-1 3:-1 6:-1 10:-1 14:-1 17:-1 26:-1 29:-1 34:-1 40:-1 41:-1 42:-1 44:-1 46:-1 47:-1 48:-1 50:-1 51:-1 54:-1 55:-1 56:-1 57:-1 58:-1 59:-1 61:-1 62:-1 63:-1 64:-1 65:-1 66:-1 67:-1 69:-1 70:-1 72:-1 73:1 74:-1 75:-1 76:-1 78:-1 
-0 -512 -123.6486035933159 0 0 0 0 0 0 1:-1 2:-1 3:-1 6:-1 10:-1 14:-1 17:-1 26:-1 29:-1 34:-1 40:-1 41:-1 42:-1 44:-1 46:-1 47:-1 48:-1 50:-1 51:-1 54:-1 55:-1 56:-1 57:-1 58:-1 59:-1 61:-1 62:-1 63:-1 64:-1 65:-1 66:-1 67:-1 69:-1 70:-1 72:-1 73:-1 74:-0.826087 75:-1 76:-1 78:-1 
-0 -512 -512 512 512 512 512 512 0 1:-1 2:-1 3:-1 6:-1 10:-1 14:-1 17:-1 26:-1 29:-1 34:-1 40:-1 41:-1 42:-1 44:-1 46:-1 47:-1 48:-1 50:-1 51:-1 54:-1 55:-1 56:-1 57:-0.894737 58:-1 59:-1 60:-1 61:-1 62:-1 63:-1 64:-1 65:-1 66:-1 67:-1 69:-1 70:-1 72:-1 73:-1 74:-1 75:-1 76:-1 78:-1 
-158.91259540269286 -512 -367.70813865204036 512 190.61463776116673 512 251.98511078578983 0 0 1:-1 2:-1 3:-1 6:-1 10:-1 14:-1 17:-1 26:-1 29:-1 34:-1 40:-1 41:-1 42:-1 44:-1 46:-1 47:-1 48:-1 50:-1 51:-1 54:-1 55:-1 56:-1 57:-1 58:-1 59:-0.666667 60:-1 61:-1 62:-1 63:-1 64:-1 65:-1 66:-1 67:-1 69:-1 70:-1 72:-1 73:-1 74:-1 75:-1 76:0.5 78:-1 
-0 -512 -182.89355195573404 512 512 512 249.03549130001858 512 206.22892292232402 1:-1 2:-1 3:-1 6:-1 10:-1 14:-1 17:-1 26:-1 29:-1 34:-1 40:-1 41:-1 42:-1 44:-1 46:-1 47:-1 48:-1 50:-1 51:-1 54:-1 55:-1 56:-1 57:-0.894737 58:-1 59:-1 60:-1 61:-0.6 62:-1 63:-0.333333 64:-1 65:-1 66:-1 67:-1 69:-1 70:-1 72:-1 73:-1 74:-1 75:-1 76:-1 78:-1 
-0 -512 -0 512 147.10588251372803 512 0 512 512 1:-1 2:-1 3:-1 6:-1 10:-1 14:-1 17:-1 26:-1 29:-1 34:-1 40:-1 41:-1 42:-1 44:-1 46:-1 47:-1 48:-1 50:-1 51:-1 54:-1 55:-1 56:-1 57:-0.789474 58:-1 59:-1 60:-1 61:-1 62:-1 63:-1 64:-1 65:-1 66:-1 67:-1 69:-1 70:-1 72:-1 73:-1 74:-1 75:-1 76:-1 78:-1 
-512 -512 -512 512 512 512 512 512 0 1:-1 2:-1 3:-1 6:-1 10:-1 14:-1 17:-1 26:-1 29:-1 34:-1 40:-1 41:-1 42:-1 44:-1 46:-1 47:-1 48:-1 50:-1 51:-1 54:-1 55:-1 56:-1 57:-1 58:-1 59:-0.666667 60:-1 61:-1 62:-1 63:-1 64:-1 65:-1 66:-1 67:-1 69:-1 70:-1 72:-1 73:-1 74:-1 75:-1 76:-1 78:-1 
-446.77921650845758 -512 -512 512 512 512 512 512 0 1:-1 2:-1 3:-1 6:-1 10:-1 14:-1 17:-1 26:-1 29:-1 34:-1 40:-1 41:-1 42:-1 44:-1 46:-1 47:-1 48:-1 50:-1 51:-1 54:-1 55:-1 56:-1 57:-1 58:-1 59:-0.333333 60:-1 61:-1 62:-1 63:-1 64:-1 65:-1 66:-1 67:-1 69:-1 70:-1 72:-1 73:-1 74:-1 75:-1 76:-1 78:-1 
-434.06219819333222 -512 -0 0 0 0 0 0 0 1:-1 2:-1 3:-1 6:-1 10:-1 14:-1 17:-1 26:-1 29:-1 34:-1 40:-1 41:-1 42:-1 44:-1 46:-1 47:-1 48:-1 50:-1 51:-1 54:-1 55:-1 56:-1 57:-1 58:-1 59:-0.666667 61:-1 62:-1 63:-1 64:-1 65:-1 66:-1 67:-1 69:-1 70:-1 72:-1 73:-1 74:-1 75:-1 76:-1 78:-1 
-12.433560163665252 -27.350102488628703 -0 1.5297596375839977 0 0 0 0 0 1:-1 2:-1 3:-1 6:-1 10:-1 14:-1 17:-1 26:-1 29:-1 34:-1 40:-1 41:-1 42:-1 44:-1 46:-1 47:-1 48:-1 50:-1 51:-1 54:-1 55:-1 56:-1 57:-1 58:-1 59:-1 61:-1 62:-1 63:-1 64:-1 65:-1 66:-1 67:-1 69:-1 70:-1 72:-1 73:-1 74:-1 75:-1 76:-1 78:1 
-0 -512 -0 0 0 0 0 0 0 1:-1 2:-1 3:-1 6:-1 10:-1 14:-1 17:-1 26:-1 29:-1 34:-1 40:-1 41:-1 42:-1 44:-1 46:-1 47:-1 48:-1 50:-1 51:-1 54:-1 55:-1 56:-1 57:-0.894737 58:-1 59:-1 61:-1 62:-1 63:-1 64:-1 65:-1 66:-1 67:-1 69:-1 70:-1 72:-1 73:-1 74:-1 75:-1 76:-1 78:-1 
-0 -512 -248.05968093107663 512 512 512 512 512 512 1:-1 2:-1 3:-1 6:-1 10:-1 14:-1 17:-1 26:-1 29:-1 34:-1 40:-1 41:-1 42:-1 44:-1 46:-1 47:-1 48:-1 50:-1 51:-1 54:-1 55:-1 56:-1 57:-0.894737 58:-1 60:-1 61:-1 62:-1 63:-1 64:-1 65:-1 66:-1 67:-1 69:-1 70:-1 72:-1 73:-1 74:-1 75:-1 76:-1 78:-1 
-28.076547771851484 -256.61168455700675 -0 0 0 0 0 0 0 1:-1 2:-1 3:-1 6:-1 10:-1 14:-1 17:-1 26:-1 29:-1 34:-0.333333 40:-1 41:-1 42:-1 44:-1 46:-1 47:-1 48:-1 50:-1 51:-1 54:-1 55:-1 56:-1 57:-1 58:-1 59:-1 61:-1 62:-1 63:-1 64:-1 65:-1 66:-1 67:-1 69:-1 70:-1 72:-1 73:-1 74:-1 75:-1 76:-1 78:-1 
-512 -512 -512 512 512 512 512 512 296.89609318427523 1:-1 2:-1 3:-1 6:-1 10:-1 14:-1 17:-1 26:-1 29:-1 34:-1 40:-1 41:-1 42:-1 44:-1 46:-1 47:-1 48:-1 50:-1 51:-1 54:-1 55:-1 56:-1 57:-1 58:-1 59:-0.333333 60:-1 61:-1 62:-1 63:-1 64:-1 65:-1 66:-1 67:-1 69:-1 70:-1 72:-1 73:-1 74:-1 75:-1 76:-1 78:-1 
-17.79289964903667 -512 -312.65892924190462 512 34.100482829080853 512 512 512 192.15809425879749 1:-1 2:-1 3:-1 6:-1 10:-1 14:-1 17:-1 26:-1 29:-1 34:-1 40:-1 41:-1 42:-1 44:-1 46:-1 47:-1 48:-1 50:-1 51:-1 54:-1 55:-1 56:-1 57:-1 58:-0.5 59:-1 60:-1 61:-1 62:-1 63:-1 64:-1 65:-1 66:-1 67:-1 69:-1 70:-1 72:-1 73:-1 74:-1 75:-1 76:-1 78:-1 
-0 -512 -0 0 0 164.58860128478653 0 0 0 1:-1 2:-1 3:-1 6:-1 10:-1 14:-1 17:-1 26:-1 29:-1 34:-1 40:-1 41:-1 42:-1 44:-1 46:-1 47:-1 48:-1 50:-1 51:-1 54:-1 55:-1 56:-1 57:-1 58:-1 59:-0.666667 61:-1 62:-1 63:-0.333333 64:-1 65:-1 66:-1 67:-1 69:-1 70:-1 72:-1 73:-1 74:-1 75:-1 76:-1 78:-1 
-0 -512 -0 174.17658275475156 0 512 0 0 97.787043040219359 1:-1 2:-1 3:-1 6:-1 10:-1 14:-1 17:-1 26:-1 29:-1 34:-1 40:-1 41:-1 42:-1 44:-1 46:-1 47:-1 48:-1 50:-1 51:-1 54:-1 55:-1 56:-1 57:-0.789474 59:-1 61:-1 62:-1 63:-1 64:-1 65:-1 66:-1 67:-1 69:-1 70:-1 72:-1 73:-1 74:-1 75:-1 76:-1 78:-1 
-506.49578914605638 -512 -0 0 0 0 0 0 0 1:-1 2:-1 3:-1 6:-1 10:-1 14:-1 17:-1 26:-1 29:-1 34:-1 40:-1 41:-1 42:-1 44:-1 46:-1 47:-1 48:-1 50:-1 51:-1 54:-1 55:-1 56:-1 57:-1 58:-1 59:-0.666667 61:-1 62:-1 63:-1 64:-1 65:-1 66:-1 67:-1 69:-1 70:-1 72:-1 73:-1 74:-1 75:-1 76:-1 78:-1 
-0 -512 -0 512 512 512 0 512 512 1:-1 2:-1 3:-1 6:-1 10:-1 14:-1 17:-1 26:-1 29:-1 34:-1 40:-1 41:-1 42:-1 44:-1 46:-1 47:-1 48:-1 50:-1 51:-1 54:-1 55:-1 56:-1 57:-0.789474 58:-1 59:-1 60:-1 61:-1 62:-1 63:-1 64:-1 65:-1 66:-1 67:-1 69:-1 70:-1 72:-1 73:-1 74:-1 75:-1 76:-1 78:-1 
-0 -512 -0 0 0 0 0 0 0 1:-1 2:-1 3:-1 6:-1 10:-1 14:-1 17:-1 26:-1 29:-1 34:-1 40:-1 41:-1 42:-1 44:-1 46:-1 47:-1 48:-1 50:-1 51:-1 54:-1 55:-1 56:-1 57:-0.789474 58:-1 59:-0.666667 61:-1 62:-1 63:-1 64:-1 65:-1 66:-1 67:-1 69:-1 70:-1 72:-1 73:-1 74:-1 75:-1 76:-1 78:-1 
-0 -0 -51.406333850309544 14.026231677990516 0 0 0.061537323590921678 1.7286087728522157 2.5953746212226285 1:-0.6 2:-1 3:-1 6:-1 10:-1 14:-1 17:-1 26:-1 29:-1 34:-1 40:-1 41:-1 42:-1 44:-1 46:-1 47:-1 48:-1 50:-1 51:-1 54:-1 55:-1 56:-1 57:-1 58:-1 59:-1 60:-1 61:-1 62:-1 63:-1 64:-1 65:-1 66:-1 67:-1 69:-1 70:-1 72:-1 73:-1 74:-1 75:-1 76:-1 78:0.333333 
-0 -512 -512 512 512 512 512 512 0 1:-1 2:-1 3:-1 6:-1 10:-1 14:-1 17:-1 26:-1 29:-1 34:-1 40:-1 41:-1 42:-1 44:-1 46:-1 47:-1 48:-1 50:-1 51:-1 54:-1 55:-1 56:-1 57:-0.894737 58:-1 59:-1 60:-1 61:-1 62:-1 63:-1 64:-1 65:-1 66:-1 67:-1 69:-1 70:-1 72:-1 73:-1 74:-1 75:-1 76:-1 78:-1 
-0 -512 -0 0 0 0 0 0 0 1:-1 2:-1 3:-1 6:-1 10:-1 14:-1 17:-1 26:-1 29:-1 34:-1 40:-1 41:-1 42:-1 44:-1 46:-1 47:-1 48:-1 50:-1 51:-1 54:-1 55:-1 56:-1 57:-0.789474 58:-1 59:-1 61:-1 62:-1 63:-1 64:-1 65:-1 66:-1 67:-1 69:-1 70:-1 72:-1 73:-1 74:-1 75:-1 76:-1 78:-1 
-2.532050065120885 -5.6133057438856762 -0 0 0 0 0 0 0 1:-0.8 2:-1 3:-1 6:-1 10:-1 14:-1 17:-1 26:-1 29:1 34:-1 40:-1 41:-1 42:-1 44:-1 46:-1 47:-1 48:-1 50:-1 51:-1 54:-1 55:-1 56:-1 57:-0.894737 58:-1 59:-1 61:-1 62:-1 63:-1 64:-1 65:-1 66:-1 67:-1 69:-1 70:-1 72:-1 73:-1 74:-1 75:-1 76:-1 78:-1 
-0 -512 -0 512 512 512 512 512 512 1:-1 2:-1 3:-1 6:-1 10:-1 14:-1 17:-1 26:-1 29:-1 34:-1 40:-1 41:-1 42:-1 44:-1 46:-1 47:-1 48:-1 50:-1 51:-1 54:-1 55:-1 56:-1 57:-0.789474 58:-1 59:-0.666667 60:-1 61:-1 62:-1 63:-1 64:-1 65:-1 66:-1 67:-1 69:-1 70:-1 72:-1 73:-1 74:-1 75:-1 76:-1 78:-1 
-18.185495902172288 -107.77951135111309 -74.937387825025738 69.152066990649018 7.5888612277722158 0 3.6865226037675081 2.509388558479225 0 1:-1 2:-1 3:-1 6:-1 10:-1 14:-1 17:-1 29:-1 34:-1 40:-1 41:-1 42:-1 44:-1 46:-1 47:-1 48:-1 50:-1 51:-1 54:-1 55:-1 56:-1 57:-1 58:-1 59:-1 60:-1 61:-1 62:-1 63:-1 64:-1 65:-1 66:-1 67:-1 69:-1 70:-1 72:-1 73:-1 74:-1 75:-1 76:-1 78:-1 
-0 -512 -0 512 505.29947748127307 512 23.630816904001929 512 512 1:-1 2:-1 3:-1 6:-1 10:-1 14:-1 17:-1 26:-1 29:-1 34:-1 40:-1 41:-1 42:-1 44:-1 46:-1 47:-1 48:-1 50:-1 51:-1 54:-1 55:-1 56:-1 57:-0.789474 58:-1 59:-1 60:-1 61:-1 62:-1 63:-1 64:-1 65:-1 66:-1 67:-1 69:-1 70:-1 72:-1 73:-1 74:-1 75:-1 76:-1 78:-1 
-0 -0 -0 512 0 78.259249643593819 0 0 512 1:-0.8 2:-1 3:-1 6:-1 10:-1 14:-1 17:-1 26:-1 29:-1 34:-1 40:-1 41:-1 42:-1 44:-1 46:-1 47:-1 48:-1 50:-1 51:-1 54:-1 55:-1 56:-1 57:-0.578947 58:-1 59:-1 60:-1 61:-0.6 62:-1 63:-1 64:-1 65:-1 66:-1 67:-1 69:-1 70:-1 72:-1 73:-1 74:-1 75:-1 76:-1 78:-1 
-12.802702518038386 -83.534543410153489 -172.92498730229238 512 512 512 512 359.23279332509406 377.01384428209622 1:-1 2:-1 3:-1 6:-1 10:-1 14:-1 17:-1 26:-1 29:-1 34:-1 40:-1 41:-1 42:-1 44:-1 46:-0.333333 47:-1 48:-1 50:-1 51:-1 54:-1 55:-1 56:-1 57:-1 58:-1 59:-0.333333 60:-1 61:-1 62:-1 63:-1 64:-1 65:-1 66:-1 67:-1 69:-1 70:-1 72:-1 73:-1 74:-1 75:-0.6 76:-1 78:-1 
-35.014881077342835 -387.11696629480838 -0 512 512 262.78225672999008 67.336103302516278 471.97969807901438 48.246344654662359 1:-1 2:-1 3:-1 6:-1 10:-1 14:-1 17:-1 26:-1 29:-1 34:-1 40:-0.333333 41:-1 42:-1 44:-1 46:-1 47:-1 48:-1 50:-1 51:-1 54:-1 55:-1 56:-1 57:-0.684211 58:-1 59:-0.666667 60:-1 61:-1 62:-1 63:-1 64:-1 65:-1 66:-1 67:-1 69:-1 70:-1 72:-1 73:-1 74:-1 75:-1 78:-1 
-0 -512 -512 47.265023481865342 17.452257180022809 0 512 292.96151125205637 0 1:-0.8 2:-1 3:-1 6:-1 10:-1 14:-1 17:-1 26:-1 29:-1 34:-1 40:-1 41:-1 42:-1 44:-1 46:-1 47:-1 48:-1 50:-1 51:-1 54:-1 55:-1 56:-1 57:-1 58:-1 59:-1 60:-1 61:-1 62:-1 63:-1 64:-1 65:-1 66:-1 67:-1 69:-1 70:-1 72:-1 73:-1 74:-1 75:-1 76:-1 78:-1 
-0 -512 -512 512 0 496.11201140906275 512 512 512 1:-0.8 2:-1 3:-1 6:-1 10:-1 14:-1 17:-1 26:-1 29:-1 34:-1 40:-1 41:-1 42:-1 44:-1 46:-1 47:-1 48:-1 50:-1 51:-1 54:-1 55:-1 56:-1 57:-0.894737 58:-1 59:-1 60:-1 61:-1 62:-1 63:-1 64:-1 65:-1 66:-1 67:-1 69:-1 70:-1 72:-1 73:-1 74:-1 75:-1 76:-1 78:-1 
-24.18442870023198 -512 -0 0 0 0 0 0 0 1:-1 2:-1 3:-1 6:-1 10:-1 14:-1 17:-1 26:-1 29:-1 34:-1 40:-1 41:-1 42:-1 44:-1 46:-1 47:-1 48:-1 50:-1 51:-1 54:-1 55:-1 56:-1 57:-1 58:-0.5 59:-1 61:-1 62:-1 63:-1 64:-1 65:-1 66:-1 67:-1 69:-1 70:-1 72:-1 73:-1 74:-1 75:-1 76:-1 78:-1 
-477.71187664986707 -512 -512 512 512 512 348.38319339406758 512 0 1:-1 2:-1 3:-1 6:-1 10:-1 14:-1 17:-1 26:-1 29:-1 34:-1 40:-1 41:-1 42:-1 44:-1 46:-1 47:-1 48:-1 50:-1 51:-1 54:-1 55:-1 56:-1 57:-1 58:-1 59:-1 60:-1 61:-1 62:-1 63:-1 64:-1 65:-1 66:-1 67:-1 69:-1 70:-1 72:-1 73:-1 74:-0.913043 75:-1 76:-1 78:-1 
-0 -0 -512 0 0 0 512 0 512 1:-0.2 2:-1 3:-1 6:-1 10:-1 14:-1 17:-1 26:-1 29:-1 34:-1 40:-1 41:-1 42:-1 44:-1 46:-1 47:-1 48:-1 50:-1 51:-1 54:-1 55:-1 56:-1 57:-1 58:-1 59:-1 60:-1 61:-1 62:-1 63:-1 64:-1 65:-1 66:-1 67:-1 69:-1 70:-1 72:-1 73:-1 74:-1 75:-1 76:-1 78:-1 
-292.04816620997485 -0 -194.86342303772511 0 0 0 0 0 24.73727149936132 1:-0.6 2:-1 3:-1 6:-1 10:-1 14:-1 17:-1 26:-1 29:-1 34:-1 40:-0.333333 41:-1 42:-1 44:-1 46:-1 47:-1 48:-1 50:-1 51:-1 54:-1 55:-1 56:-1 57:-0.894737 58:-1 59:-1 60:-1 61:-1 62:-1 63:-1 64:-1 65:-1 66:-1 67:-1 69:-1 70:-1 72:-1 73:-1 74:-1 75:-1 76:-1 78:-1 
-0 -512 -317.55623910945843 512 512 512 343.99804522875206 512 512 1:-1 2:-1 3:-1 6:-1 10:-1 14:-1 17:-1 26:-1 29:-1 34:-1 40:-1 41:-1 42:-1 44:-1 46:-1 47:-1 48:-1 50:-1 51:-1 54:-1 55:-1 56:-1 57:-0.789474 58:-1 59:-1 60:-1 61:-1 62:-1 63:-1 64:-1 65:-1 66:-1 67:-1 69:-1 70:-1 72:-1 73:-1 74:-1 75:-1 76:-1 78:-1 
-0 -0 -0 512 0 512 0 512 512 1:-1 2:-1 3:-1 6:-1 10:-1 14:-1 17:-1 26:-1 29:-1 34:-1 40:-1 41:-1 42:-1 44:-1 46:-1 47:-1 48:-1 50:-1 51:-1 54:-1 55:-1 56:-1 57:-0.684211 58:-1 59:-1 60:-1 61:-1 62:-1 63:-1 64:-1 65:-1 66:-1 67:-1 69:-1 70:-1 72:-1 73:-1 74:-1 75:-1 76:-1 78:-1 
-18.174845933292428 -107.78365067649467 -74.942800715269726 69.179707455395047 7.586721832940138 0 3.67990176064193 0 0 1:-1 2:-1 6:-1 10:-1 14:-1 17:-1 26:-1 29:-1 34:-1 40:-1 41:-1 42:-1 44:-1 46:-1 47:-1 48:-1 50:-1 51:-1 54:-1 55:-1 56:-1 57:-1 58:-1 59:-1 60:-1 61:-1 62:-1 63:-1 64:-1 65:-1 66:-1 67:-1 69:-1 70:-1 72:-1 73:-1 74:-1 75:-1 76:-1 78:-1 
-0 -0 -512 0 0 0 304.4179299193778 104.34493512909022 512 2:-1 3:-1 6:-1 10:-1 14:-1 17:-1 26:-1 29:-1 34:-1 40:-1 41:-1 42:-1 44:-1 46:-1 47:-1 48:-1 50:-1 51:-1 54:-1 55:-1 56:-1 57:-1 58:-1 59:-1 60:-1 61:-1 62:-1 63:-1 64:-1 65:-1 66:-1 67:-1 69:-1 70:-1 72:-1 73:-1 74:-1 75:-1 76:-1 78:-1 
-491.02025155816386 -0 -0 512 0 0 0 0 512 1:-1 2:-1 3:-1 6:-1 10:-1 14:-1 17:-1 26:-1 29:-1 34:-1 40:-0.333333 41:-1 42:-1 44:-1 46:-1 47:-1 48:-1 50:-1 51:-1 54:-1 55:-1 56:-1 57:-0.578947 58:-1 59:-1 60:-1 61:-0.6 62:-1 63:-1 64:-1 65:-1 66:-1 67:-1 69:-1 70:-1 72:-1 73:-1 74:-1 75:-1 76:-1 78:-1 
-0 -512 -512 0 0 0 512 0 512 1:-0.6 2:-1 3:-1 6:-1 10:-1 14:-1 17:-1 26:-1 29:-1 34:-1 40:-1 41:-1 42:-1 44:-1 46:-1 47:-1 48:-1 50:-1 51:-1 54:-1 55:-1 56:-1 57:-1 58:-1 59:-1 60:-1 61:-1 62:-1 63:-1 64:-1 65:-1 66:-1 67:-1 69:-1 70:-1 72:-1 73:-1 74:-1 75:-1 76:-1 78:-1 
-512 -512 -512 139.50352265699377 231.79497534350193 0 0 0 0 1:-1 2:-1 3:-1 6:-1 10:-1 14:-1 17:-1 26:-1 29:-1 34:-1 40:-0.333333 41:-1 42:-1 44:-1 46:-1 47:-1 48:-1 50:-1 51:-1 54:-1 55:-1 56:-1 57:-1 58:-1 59:-1 60:-1 61:-1 62:-1 63:-1 64:-1 65:-1 66:-1 67:-1 69:-1 70:-1 72:-1 73:-1 74:-0.913043 75:-1 76:-1 78:-1 
-0 -512 -512 0 191.68631977507329 0 512 0 0 1:-0.8 2:-1 3:-1 6:-1 10:-1 14:-1 17:-1 26:-1 29:-1 34:-1 40:-1 41:-1 42:-1 44:-1 46:-1 47:-1 48:-1 50:-1 51:-1 54:-1 55:-1 56:-1 57:-1 58:-1 59:-1 60:-1 61:-1 62:-1 63:-1 64:-1 65:-1 66:-1 67:-1 69:-1 70:-1 72:-1 73:-1 74:-1 75:-1 76:-1 78:-1 
-0 -512 -512 512 193.82714196712115 512 512 512 512 1:-1 2:-1 3:-1 6:-1 10:-1 14:-1 17:-1 26:-1 29:-1 34:-1 40:-1 41:-1 42:-1 44:-1 46:-1 47:-1 48:-1 50:-1 51:-1 54:-1 55:-1 56:-1 57:-0.789474 58:-1 59:-1 60:-1 61:-1 62:-1 63:-1 64:-1 65:-1 66:-1 67:-1 69:-1 70:-1 72:-1 73:-1 74:-1 75:-1 76:-1 78:-1 
-0 -512 -512 512 0 512 512 0 512 1:-1 2:-1 3:-1 6:-1 10:-1 14:-1 17:-1 26:-1 29:-1 34:-1 40:-1 41:-1 42:-1 44:-1 46:-1 47:-1 48:-1 50:-1 51:-1 54:-1 55:-1 56:-1 57:-0.684211 58:-1 59:-1 60:-1 61:-0.2 62:-1 63:-1 64:-1 65:-1 66:-1 67:-1 69:-1 70:-1 72:-1 73:-1 74:-0.913043 75:-1 76:-1 78:-1 
-0 -0 -0 0 0 0 0 504.08502073598532 512 1:-0.6 2:-1 3:-1 6:-1 10:-1 14:-1 17:-1 26:-1 29:-1 34:-1 40:-0.333333 41:-1 42:-1 44:-1 46:-1 47:-1 48:-1 50:-1 51:-1 54:-1 55:-1 56:-1 57:-0.684211 58:-1 59:-1 60:-1 61:-1 62:-1 63:-1 64:-1 65:-1 66:-1 67:-1 69:-1 70:-1 72:-1 73:-1 74:-1 75:-1 76:-1 78:-1 
-0 -512 -512 512 512 512 512 512 512 1:-1 2:-1 3:-1 6:-1 10:-1 14:-1 17:-1 26:-1 29:-1 34:-1 40:-1 41:-1 42:-1 44:-1 46:-1 47:-1 48:-1 50:-1 51:-1 54:-1 55:-1 56:-1 57:-0.789474 58:-1 59:-1 60:-1 61:-1 62:-1 63:-1 64:-1 65:-1 66:-1 67:-1 69:-1 70:-1 72:-1 73:-1 74:-1 75:-1 76:-1 78:-1 
-0 -0 -10.521267115805403 0 0 0.24658396169045929 0 7.1321879363121443 10.189911224598148 1:-0.6 2:-1 3:-1 6:-1 10:-1 14:-1 17:-1 26:-1 29:-1 34:1 40:-1 41:-1 42:-1 44:-1 46:-1 47:-1 48:-1 50:-1 51:-1 54:-1 55:-1 56:-1 57:-0.894737 58:-1 59:-1 60:-1 61:-1 62:-1 63:-1 64:-1 65:-1 66:-1 67:-1 69:-1 70:-1 72:-1 73:-1 74:-1 75:-1 76:-1 78:-1 
-64.338196273066856 -512 -512 512 425.08101780105983 512 458.07288437985085 512 0 1:-1 2:-1 3:-1 6:-1 10:-1 14:-1 17:-1 26:-1 29:-1 34:-1 40:-1 41:-1 42:-1 44:-1 46:-1 47:-1 48:-1 50:-1 51:-1 54:-1 55:-1 56:-1 57:-1 58:-1 59:-1 60:-1 61:-1 62:-1 63:-1 64:-1 65:-1 66:-1 67:-1 69:-1 70:-1 72:-1 73:-1 74:-0.913043 75:-1 76:-1 78:-1 
-0 -0 -0 512 0 0 358.33896753091011 0 512 1:-1 2:-1 3:-1 6:-1 10:-1 14:-1 17:-1 26:-1 29:-1 34:-1 40:-1 41:-1 42:-1 44:-1 46:-1 47:-1 48:-1 50:-1 51:-1 54:-1 55:-1 56:-1 57:-0.473684 58:-1 59:-1 60:-1 61:-0.2 62:-1 63:-1 64:-1 65:-1 66:-1 67:-1 69:-1 70:-1 72:-1 73:-1 74:-1 75:-1 76:-1 78:-1 
-0 -512 -512 512 512 0 512 0 512 1:-1 2:-1 3:-1 6:-1 10:-1 14:-1 17:-1 26:-1 29:-1 34:-1 40:-1 41:-1 42:-1 44:-1 46:-1 47:-1 48:-1 50:-1 51:-1 54:-1 55:-1 56:-1 57:-0.894737 58:-1 59:-1 60:-1 61:-0.6 62:-1 63:-1 64:-1 65:-1 66:-1 67:-1 69:-1 70:-1 72:-1 73:-1 74:-1 75:-1 76:-1 78:-1 
-0 -512 -501.37501730507699 512 512 512 512 512 512 1:-1 2:-1 3:-1 6:-1 10:-1 14:-1 17:-1 26:-1 29:-1 34:-1 40:-1 41:-1 42:-1 44:-1 46:-1 47:-1 48:-1 50:-1 51:-1 54:-1 55:-1 56:-1 57:-0.789474 58:-1 59:-1 60:-1 61:-1 62:-1 63:-1 64:-1 65:-1 66:-1 67:-1 69:-1 70:-1 72:-1 73:-1 74:-1 75:-1 76:-1 78:-1 
-11.890889448492423 -43.195844136919327 -0 7.4320766913597369 18.858200984121247 58.877862273592513 0 58.36739005032004 0 1:-1 2:-1 3:-1 6:-1 10:-1 14:-1 17:1 26:-1 29:-1 34:-1 40:-1 41:-1 42:-1 44:-1 46:-1 47:-1 48:-1 50:-1 51:-1 54:-1 55:-1 56:-1 57:-1 58:-1 59:-1 60:-1 61:-1 62:-1 63:0.333333 64:-1 65:-1 66:-1 67:-1 69:-1 70:-1 72:-1 73:-1 74:-1 75:-1 76:-1 78:-1 
-0 -6.9430382154287589 -512 0 0 0 512 0 512 1:-0.4 2:-1 3:-1 6:-1 10:-1 14:-1 17:-1 26:-1 29:-1 34:-1 40:-1 41:-1 42:-1 44:-1 46:-1 47:-1 48:-1 50:-1 51:-1 54:-1 55:-1 56:-1 57:-1 58:-1 59:-1 60:-1 61:-1 62:-1 63:-1 64:-1 65:-1 66:-1 67:-1 69:-1 70:-1 72:-1 73:-1 74:-1 75:-1 76:-1 78:-1 
-0 -512 -512 241.29751708374906 1.3867785986882577 0 512 393.96396968201947 0 1:-0.8 2:-1 3:-1 6:-1 10:-1 14:-1 17:-1 26:-1 29:-1 34:-1 40:-1 41:-1 42:-1 44:-1 46:-1 47:-1 48:-1 50:-1 51:-1 54:-1 55:-1 56:-1 57:-1 58:-1 59:-1 60:-1 61:-1 62:-1 63:-1 64:-1 65:-1 66:-1 67:-1 69:-1 70:-1 72:-1 73:-1 74:-1 75:-1 76:-1 78:-1 
-0 -0 -0 512 0 512 0 512 512 1:-1 2:-1 3:-1 6:-1 10:-1 14:-1 17:-1 26:-1 29:-1 34:-1 40:-1 41:-1 42:-1 44:-1 46:-1 47:-1 48:-1 50:-1 51:-1 54:-1 55:-1 56:-1 57:-0.684211 58:-1 59:-1 60:-1 61:-1 62:-1 63:-1 64:-1 65:-1 66:-1 67:-1 69:-1 70:-1 72:-1 73:-1 74:-1 75:-1 76:-1 78:-1 
-0 -0 -512 0 0 0 414.87155095877284 233.64904247024108 512 2:-1 3:-1 6:-1 10:-1 14:-1 17:-1 26:-1 29:-1 34:-1 40:-1 41:-1 42:-1 44:-1 46:-1 47:-1 48:-1 50:-1 51:-1 54:-1 55:-1 56:-1 57:-1 58:-1 59:-1 60:-1 61:-1 62:-1 63:-1 64:-1 65:-1 66:-1 67:-1 69:-1 70:-1 72:-1 73:-1 74:-1 75:-1 76:-1 78:-1 
-0 -366.390920206869 -512 512 9.1758201955465672 512 0 176.5387081714089 0 1:-0.8 2:-1 3:-1 6:-1 10:-1 14:-1 17:-1 26:-1 29:-1 34:-1 40:-1 41:-1 42:-1 44:-1 46:-1 47:-1 48:-1 50:-1 51:-1 54:-1 55:-1 56:-1 57:-0.894737 58:-1 59:-1 60:-1 61:-0.6 62:-1 63:-1 64:-1 65:-1 66:-1 67:-1 69:-1 70:-1 72:-1 73:-1 74:-1 75:-0.6 76:-1 78:-1 
-0 -0 -0 -512 0 512 0 0 0 1:-1 2:-1 3:-1 6:-1 10:-1 14:-1 17:-1 26:-1 29:-1 34:-1 40:-1 41:-1 42:-1 44:-1 46:-1 47:-1 48:-1 50:-1 51:-1 54:-1 55:-1 56:-1 57:-0.684211 58:-1 59:-1 60:-1 61:-0.6 62:-1 63:-1 64:-1 65:-1 66:-1 67:-1 69:-1 70:-1 72:-1 73:-1 74:-1 75:-0.6 76:-1 78:-1 
-0 -512 -0 -512 512 512 512 512 0 1:-1 2:-1 3:-1 6:-1 10:-1 14:-1 17:-1 26:-1 29:-1 34:-1 40:-1 41:-1 42:-1 44:-1 46:-1 47:-1 48:-1 50:-1 51:-1 54:-1 55:-1 56:-1 57:-0.789474 58:-1 59:-0.333333 60:-1 61:-1 62:-1 63:-1 64:-1 65:-1 66:-1 67:-1 69:-1 70:-1 72:-1 73:-1 74:-1 75:-1 76:-1 78:-1 
-0 -0 -0 -0 512 364.0998279249655 501.96632248721698 512 0 1:-1 2:-1 3:-1 6:-1 10:-1 14:-1 17:-1 26:-1 29:-1 34:-1 40:-1 41:-1 42:-1 44:-1 46:-1 47:-1 48:-1 50:-1 51:-1 54:-1 55:-1 56:-1 57:-0.684211 58:-1 59:-0.333333 60:-1 61:-1 62:-1 63:-1 64:-1 65:-1 66:-1 67:-1 69:-1 70:-1 72:-1 73:-1 74:-1 75:-1 76:-1 78:-1 
-0 -512 -512 -512 0 0 0 0 512 1:-1 2:-1 3:-1 6:-1 10:-1 14:-1 17:-1 26:-1 29:-1 34:-1 40:-1 41:-1 42:-1 44:-1 46:-1 47:-1 48:-1 50:-1 51:-1 54:-1 55:-1 56:-1 57:-0.789474 58:-1 59:-1 60:-1 61:-0.6 62:-1 63:-1 64:-1 65:-1 66:-1 67:-1 69:-1 70:-1 72:-1 73:-1 74:-1 75:-1 76:-1 78:-1 
-0 -0 -0 -0 0 0 0 0 512 1:-1 2:-1 3:-1 6:-1 10:-1 14:-1 17:-1 26:-1 29:-1 34:-1 40:-1 41:-1 42:-1 44:-1 46:-1 47:-1 48:-1 50:-1 51:-1 54:-1 55:-1 56:-1 57:-0.263158 58:-1 59:-1 60:-1 61:-0.2 62:-1 63:-1 64:-1 65:-1 66:-1 67:-1 69:-1 70:-1 72:-1 73:-1 74:-1 75:-1 76:-1 78:-1 
-0 -0 -0 -512 0 512 0 512 0 1:-1 2:-1 3:-1 6:-1 10:-1 14:-1 17:-1 26:-1 29:-1 34:-1 40:-1 41:-1 42:-1 44:-1 46:-1 47:-1 48:-1 50:-1 51:-1 54:-1 55:-1 56:-1 57:-0.684211 58:-1 59:-1 60:-1 61:-1 62:-1 63:-1 64:-1 65:-1 66:-1 67:-1 69:-1 70:-1 72:-1 73:-1 74:-1 75:-1 76:-1 78:-1 
-0 -0 -0 -0 0 0 0 0 512 1:-1 2:-1 3:-1 6:-1 10:-1 14:-1 17:-1 26:-1 29:-1 34:-1 40:-1 41:-1 42:-1 44:-1 46:-1 47:-1 48:-1 50:-1 51:-1 54:-1 55:-1 56:-1 57:-0.578947 58:-1 59:-1 60:-1 61:-1 62:-1 63:-1 64:-1 65:-1 66:-1 67:-1 69:-1 70:-1 72:-1 73:-1 74:-1 75:-1 76:-1 78:-1 
-0 -0 -0 -0 0 53.999066881469936 0 0 290.74518888462626 1:-1 2:-1 3:-1 6:-1 10:-1 14:-1 17:-1 26:-1 29:-1 34:-1 40:-1 41:-1 42:-1 44:-1 46:-1 47:-1 48:-1 50:-1 51:-1 54:-1 55:-1 56:-1 57:-0.578947 58:-1 59:-1 60:-1 61:-0.6 62:-1 63:-1 64:-1 65:-1 66:-1 67:-1 69:-1 70:-1 72:-1 73:-1 74:-1 75:-0.6 76:-1 78:-1 
-0 -0 -0 -512 0 512 0 512 0 1:-1 2:-1 3:-1 6:-1 10:-1 14:-1 17:-1 26:-1 29:-1 34:-1 40:-1 41:-1 42:-1 44:-1 46:-1 47:-1 48:-1 50:-1 51:-1 54:-1 55:-1 56:-1 57:-0.684211 58:-1 59:-1 60:-1 61:-1 62:-1 63:-1 64:-1 65:-1 66:-1 67:-1 69:-1 70:-1 72:-1 73:-1 74:-1 75:-1 76:-1 78:-1 
-0 -512 -0 -512 0 0 440.67388735962135 512 0 1:-1 2:-1 3:-1 6:-1 10:-1 14:-1 17:-1 26:-1 29:-1 34:-1 40:-1 41:-1 42:-1 44:-1 46:-1 47:-1 48:-1 50:-1 51:-1 54:-1 55:-1 56:-1 57:-0.789474 58:-1 59:-1 60:-1 61:-1 62:-1 63:-1 64:-1 65:-1 66:-1 67:-1 69:-1 70:-1 72:-1 73:-1 74:-1 75:-1 76:-0.5 78:-1 
-0 -0 -0 -512 0 0 0 0 512 1:-1 2:-1 3:-1 6:-1 10:-1 14:-1 17:-1 26:-1 29:-1 34:-1 40:-1 41:-1 42:-1 44:-1 46:-1 47:-1 48:-1 50:-1 51:-1 54:-1 55:-1 56:-1 57:-0.684211 58:-1 59:-1 60:-1 61:-0.2 62:-1 63:-1 64:-1 65:-1 66:-1 67:-1 69:-1 70:-1 72:-1 73:-1 74:-1 75:-1 76:-1 78:-1 
-0 -0 -0 -0 0 0 0 0 512 1:-1 2:-1 3:-1 6:-1 10:-1 14:-1 17:-1 26:-1 29:-1 34:-1 40:-1 41:-1 42:-1 44:-1 46:-1 47:-1 48:-1 50:-1 51:-1 54:-1 55:-1 56:-1 57:-0.473684 58:-1 59:-1 60:-1 61:-0.6 62:-1 63:-1 64:-1 65:-1 66:-1 67:-1 69:-1 70:-1 72:-1 73:-1 74:-1 75:-1 76:-1 78:-1 
-0 -512 -156.3806015814134 -512 0 512 512 512 0 1:-1 2:-1 3:-1 6:-1 10:-1 14:-1 17:-1 26:-1 29:-1 34:-1 40:-1 41:-1 42:-1 44:-1 46:-1 47:-1 48:-1 50:-1 51:-1 54:-1 55:-1 56:-1 57:-0.789474 58:-1 59:-1 60:-1 61:-1 62:-1 63:-1 64:-1 65:-1 66:-1 67:-1 69:-1 70:-1 72:-1 73:-1 74:-1 75:-1 76:-1 78:-1 
-0 -512 -512 -512 257.24015901136386 512 512 512 0 1:-1 2:-1 3:-1 6:-1 10:-1 14:-1 17:-1 26:-1 29:-1 34:-1 40:-1 41:-1 42:-1 44:-1 46:-1 47:-1 48:-1 50:-1 51:-1 54:-1 55:-1 56:-1 57:-0.789474 58:-1 59:-1 60:-1 61:-1 62:-1 63:-1 64:-1 65:-1 66:-1 67:-1 69:-1 70:-1 72:-1 73:-1 74:-1 75:-1 76:-1 78:-1 
-0 -512 -512 -512 0 0 289.21520980309629 0 512 1:-1 2:-1 3:-1 6:-1 10:-1 14:-1 17:-1 26:-1 29:-1 34:-1 40:-1 41:-1 42:-1 44:-1 46:-1 47:-1 48:-1 50:-1 51:-1 54:-1 55:-1 56:-1 57:-0.789474 58:-1 59:-1 60:-1 61:-0.6 62:-1 63:-1 64:-1 65:-1 66:-1 67:-1 69:-1 70:-1 72:-1 73:-1 74:-1 75:-1 76:-1 78:-1 
-0 -0 -0 -0 0 0 0 0 512 1:-1 2:-1 3:-1 6:-1 10:-1 14:-1 17:-1 26:-1 29:-1 34:-1 40:-1 41:-1 42:-1 44:-1 46:-1 47:-1 48:-1 50:-1 51:-1 54:-1 55:-1 56:-1 57:-0.473684 58:-1 59:-0.666667 60:-1 61:-0.6 62:-1 63:-1 64:-1 65:-1 66:-1 67:-1 69:-1 70:-1 72:-1 73:-1 74:-1 75:-1 76:-1 78:-1 
-0 -512 -0 -152.65328894504631 512 512 512 512 0 1:-1 2:-1 3:-1 6:-1 10:-1 14:-1 17:-1 26:-1 29:-1 34:-1 40:-1 41:-1 42:-1 44:-1 46:-1 47:-1 48:-1 50:-1 51:-1 54:-1 55:-1 56:-1 57:-0.789474 58:-1 60:-1 61:-1 62:-1 63:-1 64:-1 65:-1 66:-1 67:-1 69:-1 70:-1 72:-1 73:-1 74:-1 75:-1 76:-1 78:-1 
-0 -512 -512 -512 512 512 512 512 0 1:-1 2:-1 3:-1 6:-1 10:-1 14:-1 17:-1 26:-1 29:-1 34:-1 40:-1 41:-1 42:-1 44:-1 46:-1 47:-1 48:-1 50:-1 51:-1 54:-1 55:-1 56:-1 57:-0.789474 58:-1 59:-1 60:-1 61:-1 62:-1 63:-1 64:-1 65:-1 66:-1 67:-1 69:-1 70:-1 72:-1 73:-1 74:-1 75:-1 76:-1 78:-1 
-0 -0 -0 -0 0 0 0 0 512 1:-1 2:-1 3:-1 6:-1 10:-1 14:-1 17:-1 26:-1 29:-1 34:-1 40:-1 41:-1 42:-1 44:-1 46:-1 47:-1 48:-1 50:-1 51:-1 54:-1 55:-1 56:-1 57:-0.473684 58:-1 59:-1 60:-1 61:-1 62:-1 63:-1 64:-1 65:-1 66:-1 67:-1 69:-1 70:-1 72:-1 73:-1 74:-1 75:-1 76:-1 78:-1 
-0 -512 -512 -512 512 512 512 512 0 1:-1 2:-1 3:-1 6:-1 10:-1 14:-1 17:-1 26:-1 29:-1 34:-1 40:-1 41:-1 42:-1 44:-1 46:-1 47:-1 48:-1 50:-1 51:-1 54:-1 55:-1 56:-1 57:-0.894737 58:-1 59:-1 60:-1 61:-1 62:-1 63:-1 64:-1 65:-1 66:-1 67:-1 69:-1 70:-1 72:-1 73:-1 74:-1 75:-1 76:-1 78:-1 
-0 -0 -0 -0 0 0 0 0 512 1:-1 2:-1 3:-1 6:-1 10:-1 14:-1 17:-1 26:-1 29:-1 34:-1 40:-1 41:-1 42:-1 44:-1 46:-1 47:-1 48:-1 50:-1 51:-1 54:-1 55:-1 56:-1 57:-0.473684 58:-1 59:-1 60:-1 61:-1 62:-1 63:-1 64:-1 65:-1 66:-1 67:-1 69:-1 70:-1 72:-1 73:-1 74:-1 75:-1 76:-1 78:-1 
-0 -0 -0 -0 512 0 0 0 512 1:-1 2:-1 3:-1 6:-1 10:-1 14:-1 17:-1 26:-1 29:-1 34:-1 40:-1 41:-1 42:-1 44:-1 46:0.333333 47:-1 48:-1 50:-1 51:-1 54:-1 55:-1 56:-1 57:-0.684211 58:-1 59:-1 60:-1 61:-1 62:-1 63:-1 64:-1 65:-1 66:-1 67:-1 69:-1 70:-1 72:-1 73:-1 74:-1 75:-1 76:-1 78:-1 
-0 -0 -0 -0 0 80.916883959449763 0 147.90655733742344 512 1:-1 2:-1 3:-1 6:-1 10:-1 14:-1 17:-1 26:-1 29:-1 34:-1 40:-1 41:-1 42:-1 44:-1 46:-1 47:-1 48:-1 50:-1 51:-1 54:-1 55:-1 56:-1 57:-0.578947 58:-1 59:-1 60:-1 61:-1 62:-1 63:-1 64:-1 65:-1 66:-1 67:-1 69:-1 70:-1 72:-1 73:-1 74:-1 75:-1 76:-1 78:-1 
-512 -280.46700690897609 -0.10995452036981911 -512 130.17926658740296 259.4976031985513 4.7071672898037145 512 501.38058566090945 1:-1 2:-1 3:-1 6:-1 10:-1 14:-1 17:-1 26:-1 29:-1 34:-1 40:-0.333333 41:-1 42:-1 44:-1 46:-1 47:-1 48:-1 50:-1 51:-1 54:-1 55:-1 56:-1 57:-0.894737 58:-1 59:-1 60:-1 61:-1 62:-1 63:-1 64:-1 65:-1 66:-1 67:-1 69:-1 70:-1 72:-1 73:-1 74:-1 75:-1 76:-1 78:-1 
-0 -0 -0 -0 0 0 0 0 512 1:-1 2:-1 3:-1 6:-1 10:-1 14:-1 17:-1 26:-1 29:-1 34:-1 40:-1 41:-1 42:-1 44:-1 46:-1 47:-1 48:-1 50:-1 51:-1 54:-1 55:-1 56:-1 57:-0.473684 58:-1 59:-1 60:-1 61:-1 62:-1 63:-1 64:-1 65:-1 66:-1 67:-1 69:-1 70:-1 72:-1 73:-1 74:-1 75:-1 76:-1 78:-1 
-83.956886134069762 -0 -149.89718368988201 -0 512 0 381.26535499446277 0 512 1:-1 2:-1 3:-1 6:-1 10:-1 14:-1 17:-1 26:-1 29:-1 34:-1 40:-1 41:-0.5 42:-1 44:-1 46:-1 47:-1 48:-1 50:-1 51:-1 54:-1 55:-1 56:-1 57:-1 58:-1 59:-0.333333 60:-1 61:-0.6 62:-1 63:-1 64:-1 65:-1 66:-1 67:-1 69:-1 70:-1 72:-1 73:-1 74:-1 75:-1 76:-1 78:-1 
-405.19993084236728 -512 -277.40471677745262 -512 512 512 512 512 0 1:-1 2:-1 3:-1 6:-1 10:-1 14:-1 17:-1 26:-1 29:-1 34:-1 40:-1 41:-1 42:-1 44:-1 46:-1 47:-1 48:-1 50:-1 51:-1 54:-1 55:-1 56:-1 57:-0.894737 58:-1 59:-0.333333 60:-1 61:-1 62:-1 63:-1 64:-1 65:-1 66:-1 67:-1 69:-1 70:-1 72:-1 73:-1 74:-1 75:-1 76:-1 78:-1 
-0 -0 -0 -0 0 421.78606023810039 0 510.36038531265689 512 1:-1 2:-1 3:-1 6:-1 10:-1 14:-1 17:-1 26:-1 29:-1 34:-1 40:-1 41:-1 42:-1 44:-1 46:-1 47:-1 48:-1 50:-1 51:-1 54:-1 55:-1 56:-1 57:-0.578947 58:-1 59:-1 60:-1 61:-1 62:-1 63:-1 64:-1 65:-1 66:-1 67:-1 69:-1 70:-1 72:-1 73:-1 74:-1 75:-1 76:-1 78:-1 
-0 -0 -0 -0 0 0 0 0 512 1:-1 2:-1 3:-1 6:-1 10:-1 14:-1 17:-1 26:-1 29:-1 34:-1 40:-1 41:-1 42:-1 44:-1 46:-1 47:-1 48:-1 50:-1 51:-1 54:-1 55:-1 56:-1 57:-0.263158 58:-1 59:-0.666667 60:-1 61:-0.6 62:-1 63:-1 64:-1 65:-1 66:-1 67:-1 69:-1 70:-1 72:-1 73:-1 74:-1 75:-1 76:-1 78:-1 
-12.583495551536455 -25.504158447989056 -17.288687254087325 -17.352894925052784 12.487533146920793 512 20.835482427082489 19.31248715122647 0 1:-1 2:-1 3:-1 6:-1 10:-1 14:-1 17:-1 26:-1 29:-1 34:-1 40:-1 41:-1 42:-1 44:1 46:-1 47:-1 48:-1 50:-1 51:-1 54:-1 55:-1 56:-1 57:-1 58:-1 59:-1 60:-1 61:-1 62:-1 63:-1 64:-1 65:-1 66:-1 67:-1 69:-1 70:-1 72:-1 73:-1 74:-1 75:-1 76:-0.5 78:-1 
-0 -512 -0 -0 0 512 512 0 192.95491142769487 1:-1 2:-1 3:-1 6:-1 10:-1 14:-1 17:-1 26:-1 29:-1 34:-1 40:-1 41:-1 42:-1 44:-1 46:-1 47:-1 48:-1 50:-1 51:-1 54:-1 55:-1 56:-1 57:-0.789474 58:0.5 59:-0.666667 60:-1 61:-0.6 62:-1 63:-1 64:-1 65:-1 66:-1 67:-1 69:-1 70:-1 72:-1 73:-1 74:-1 75:-1 76:-1 78:-1 
-323.376456122229 -512 -499.44651918437887 -512 512 0 512 0 0 1:-1 2:-1 3:-1 6:-1 10:-1 14:-1 17:-1 26:-1 29:-1 34:-1 40:-1 41:-1 42:-1 44:-1 46:-1 47:-1 48:-1 50:-1 51:-1 54:-1 55:-1 56:-1 57:-0.894737 58:-1 59:-0.666667 60:-1 61:-0.6 62:-1 63:-1 64:-1 65:-1 66:-1 67:-1 69:-1 70:-1 72:-1 73:-1 74:-1 75:-1 76:-0.5 78:-1 
-93.675978803332598 -467.59207445180891 -512 -512 512 512 512 512 0 1:-1 2:-1 3:-1 6:-1 10:-1 14:-1 17:-1 26:-1 29:-1 34:-1 40:-1 41:-1 42:-1 44:-1 46:-1 47:-1 48:-1 50:-1 51:-1 54:-1 55:-1 56:-1 57:-1 58:-1 59:-1 60:-1 61:-1 62:-1 63:-1 64:-1 65:-1 66:-1 67:-1 69:-1 70:-1 72:-1 73:-1 74:-1 75:-0.6 76:-1 78:-1 
-0 -512 -492.78891930083842 -512 325.67332879833987 512 512 512 0 1:-1 2:-1 3:-1 6:-1 10:-1 14:-1 17:-1 26:-1 29:-1 34:-1 40:-1 41:-1 42:-1 44:-1 46:-1 47:-1 48:-1 50:-1 51:-1 54:-1 55:-1 56:-1 57:-0.789474 58:-1 59:-1 60:-1 61:-1 62:-1 63:-1 64:-1 65:-1 66:-1 67:-1 69:-1 70:-1 72:-1 73:-1 74:-1 75:-1 76:-1 78:-1 
-0 -0 -0 -254.42187632168313 0 0 0 0 317.03683719861857 1:-1 2:-1 3:-1 6:-1 10:-1 14:-1 17:-1 26:-1 29:-1 34:-1 40:-1 41:-1 42:-1 44:-1 46:-1 47:-1 48:-1 50:-1 51:-1 54:-1 55:-1 56:-1 57:-0.684211 58:-1 59:-1 60:-1 61:-0.2 62:-1 63:-1 64:-1 65:-1 66:-1 67:-1 69:-1 70:-1 72:-1 73:-1 74:-1 75:-1 76:-0.5 78:-1 
-0 -422.49612629704171 -20.955418136951433 -148.21655584533289 261.63454979899592 0 0 0 0 1:-1 2:-1 3:-1 6:-1 10:-1 14:-1 17:-1 26:-1 29:-1 34:-1 40:-1 41:-0.5 42:-1 44:-1 46:-1 47:-1 48:-1 50:-1 51:-1 54:-1 55:-1 56:-1 57:-1 58:-1 59:-0.666667 60:-1 61:-1 62:-1 63:-1 64:-1 65:-1 66:-1 67:-1 69:-1 70:-1 72:-1 73:-1 74:-1 75:-1 76:-0.5 78:-1 
-0 -0 -0 -0 0 0 0 0 512 1:-1 2:-1 3:-1 6:-1 10:-1 14:-1 17:-1 26:-1 29:-1 34:-1 40:-1 41:-1 42:-1 44:-1 46:-1 47:-1 48:-1 50:-1 51:-1 54:-1 55:-1 56:-1 57:-0.368421 58:-1 59:-1 60:-1 61:-1 62:-1 63:-1 64:-1 65:-1 66:-1 67:-1 69:-1 70:-1 72:-1 73:-1 74:-1 75:-1 76:-1 78:-1 
-512 -0 -0 -0 512 459.62782977770468 512 224.09559752476346 0 1:-1 2:-1 3:-1 6:-1 10:-1 14:-1 17:-1 26:-1 29:-1 34:-1 40:-1 41:-1 42:-1 44:-1 46:-0.333333 47:-1 48:-1 50:-1 51:-1 54:-1 55:-1 56:-1 57:-1 58:-1 59:-0.333333 60:-1 61:-1 62:-1 63:-1 64:-1 65:-1 66:-1 67:-1 69:-1 70:-1 72:-1 73:-1 74:-1 75:-1 76:-1 78:-1 
-0 -50.628778529686819 -0 -0 0 152.98115817455388 0 0 0 1:-1 2:-1 3:-1 6:-1 10:-1 14:-1 17:-1 26:-1 29:-1 34:-1 40:-1 41:-1 42:-1 44:-1 46:-1 47:-1 50:-1 51:-1 54:-1 55:-1 56:-1 57:-0.789474 58:-0.5 59:-1 60:-1 61:-1 62:-1 63:-1 64:-1 65:-1 66:-1 67:-1 69:-1 70:-1 72:-1 73:-1 74:-0.913043 75:-1 78:-1 
-0 -0 -0 -0 0 512 0 0 0 1:-1 2:-1 3:-1 6:-1 10:-1 14:-1 17:-1 26:-1 29:-1 34:-1 40:-1 41:-1 42:-1 44:-1 46:-1 47:-1 48:-1 50:-1 51:-1 54:-1 55:-1 56:-1 57:-0.578947 58:-1 59:-1 60:-1 61:-1 62:-1 63:-1 64:-1 65:-1 66:-1 67:-1 69:-1 70:-1 72:-1 73:-1 74:-0.913043 75:-1 76:-0.5 78:-1 
-73.813273304497017 -0 -0 -0 512 0 31.386522414157277 0 0 1:-1 2:-1 3:-1 6:-1 10:-1 14:-1 17:-1 26:-1 29:-1 34:-1 40:-1 41:-1 42:-1 44:-1 46:0.333333 47:-1 48:-1 50:-1 51:-1 54:-1 55:-1 56:-1 57:-1 58:-1 59:-0.666667 60:-1 61:-1 62:-1 63:-1 64:-1 65:-1 66:-1 67:-1 69:-1 70:-1 72:-1 73:-1 74:-1 75:-1 78:-1 
-11.547110909279835 -0 -0 -38.518936127966327 239.30271662359891 82.590693054631075 0 0 0 1:-1 2:-1 3:-1 6:-1 10:-1 14:-1 17:-1 26:-1 29:-1 34:-1 40:-1 41:-1 42:-1 44:-1 46:-0.333333 47:-1 48:-1 50:-1 51:-1 54:-1 55:-1 56:-1 57:-1 58:-1 59:-1 60:-1 61:-1 62:-1 63:-1 64:-1 65:-1 66:-1 67:-1 69:-1 70:-1 72:-1 73:-1 74:-1 75:-0.6 76:0.5 78:-1 
-0 -291.73942564898437 -61.680968358110363 -0 0 512 112.05148825019248 512 0 1:-1 2:-1 3:-1 6:-1 10:-1 14:-1 17:-1 26:-1 29:-1 34:-1 40:-1 41:-1 42:-1 44:-1 46:-1 47:-1 48:-1 50:-1 51:-1 54:-1 55:-1 56:-1 57:-1 58:-0.5 59:-1 60:-1 61:-1 62:-1 63:-1 64:-1 65:-1 66:-1 67:-1 69:-1 70:-1 72:-1 73:-1 74:-1 75:-0.6 76:-0.5 78:-1 
-0 -0 -0 -54.067180083314433 512 0 512 0 0 1:-1 2:-1 3:-1 6:-1 10:-1 14:-1 17:-1 26:-1 29:-1 34:-1 40:-1 41:-1 42:-1 44:-1 46:-0.333333 47:-1 48:-1 50:-1 51:-1 54:-1 55:-1 56:-1 57:-0.894737 58:-1 59:-1 60:-1 61:-1 62:-1 63:-1 64:-1 65:-1 66:-1 67:-1 69:-1 70:-1 72:-1 73:-1 74:-1 75:-1 76:-1 78:-1 
-0 -512 -512 -512 512 512 512 512 0 1:-1 2:-1 3:-1 6:-1 10:-1 14:-1 17:-1 26:-1 29:-1 34:-1 40:-1 41:-1 42:-1 44:-1 46:-1 47:-1 48:-1 50:-1 51:-1 54:-1 55:-1 56:-1 57:-0.894737 58:-1 59:-1 60:-1 61:-1 62:-1 63:-1 64:-1 65:-1 66:-1 67:-1 69:-1 70:-1 72:-1 73:-1 74:-1 75:-1 76:-1 78:-1 
-3.9992702649030574 -179.47771521446882 -96.789527465600344 -126.2227949628502 512 26.306985787957036 165.89749741580491 156.20603653305562 0 1:-1 2:-1 3:-1 6:-1 10:-1 14:-1 17:-1 26:-1 29:-1 34:-1 40:-1 41:-1 42:-1 44:-1 46:-1 47:-1 48:-1 50:-1 51:-1 54:-1 55:-1 56:-1 57:-0.894737 58:-1 59:-1 60:-1 61:-1 62:-1 63:-1 64:-1 65:-1 66:-1 67:-1 69:-1 70:-1 72:-1 73:-1 74:-1 75:-1 76:-1 78:-0.333333 
-0.52866524476212828 -512 -77.10799049690182 -512 10.630906431067098 512 512 367.59221259341331 0 1:-1 2:-1 3:-1 6:-1 10:-1 14:-1 17:-1 26:-1 29:-1 34:-1 40:-1 41:-1 42:-1 44:-1 46:-1 47:-1 48:-1 50:-1 51:-1 54:-1 55:-1 56:-1 57:-1 58:-0.5 59:-1 60:-1 61:-1 62:-1 63:-1 64:-1 65:-1 66:-1 67:-1 69:-1 70:-1 72:-1 73:-1 74:-1 75:-1 76:-1 78:-1 
-0 -0 -0 -512 0 512 0 512 438.70123854020983 1:-1 2:-1 3:-1 6:-1 10:-1 14:-1 17:-1 26:-1 29:-1 34:-1 40:-1 41:-1 42:-1 44:-1 46:-1 47:-1 48:-1 50:-1 51:-1 54:-1 55:-1 56:-1 57:-0.684211 58:-1 59:-1 60:-1 61:-1 62:-1 63:-1 64:-1 65:-1 66:-1 67:-1 69:-1 70:-1 72:-1 73:-1 74:-1 75:-1 76:-1 78:-1 
-0 -512 -512 -512 512 512 512 512 0 1:-1 2:-1 3:-1 6:-1 10:-1 14:-1 17:-1 26:-1 29:-1 34:-1 40:-1 41:-1 42:-1 44:-1 46:-1 47:-1 48:-1 50:-1 51:-1 54:-1 55:-1 56:-1 57:-0.894737 58:-1 59:-1 60:-1 61:-1 62:-1 63:-1 64:-1 65:-1 66:-1 67:-1 69:-1 70:-1 72:-1 73:-1 74:-1 75:-1 76:-1 78:-1 
-512 -512 -96.711830883727671 -512 311.51564446777627 277.34442141476154 161.21371031812885 512 496.78324865328216 1:-1 2:-1 3:-1 6:-1 10:-1 14:-1 17:-1 26:-1 29:-1 34:-1 40:-0.333333 41:-1 42:-1 44:-1 46:-1 47:-1 48:-1 50:-1 51:-1 54:-1 55:-1 56:-1 57:-0.894737 58:-1 59:-1 60:-1 61:-1 62:-1 63:-1 64:-1 65:-1 66:-1 67:-1 69:-1 70:-1 72:-1 73:-1 74:-1 75:-1 76:-1 78:-1 
-0 -0 -0 -468.17268916911945 404.11899310915669 512 0 512 0 1:-1 2:-1 3:-1 6:-1 10:-1 14:-1 17:-1 26:-1 29:-1 34:-1 40:-1 41:-1 42:-1 44:-1 46:-1 47:-1 48:-1 50:-1 51:-1 54:-1 55:-1 56:-1 57:-0.684211 58:-1 59:-0.666667 60:-1 61:-1 62:-1 63:-1 64:-1 65:-1 66:-1 67:-1 69:-1 70:-1 72:-1 73:-1 74:-1 75:-1 76:-1 78:-1 
-50.834800841255728 -512 -96.630144677081262 -512 512 512 512 512 35.662963668491678 1:-1 2:-1 3:-1 6:-1 10:-1 14:-1 17:-1 26:-1 29:-1 34:-1 40:-1 41:-1 42:-1 44:-1 46:-1 47:-1 48:-1 50:-1 51:-1 54:-1 55:-1 56:-1 57:-1 58:-1 59:-0.333333 60:-1 61:-0.6 62:-1 63:-0.333333 64:-1 65:-1 66:-1 67:-1 69:-1 70:-1 72:-1 73:-1 74:-1 75:-1 76:-1 78:-1 
-0 -0 -0 -0 0 0 0 0 512 1:-1 2:-1 3:-1 6:-1 10:-1 14:-1 17:-1 26:-1 29:-1 34:-1 40:-1 41:-1 42:-1 44:-1 46:-1 47:-1 48:-1 50:-1 51:-1 54:-1 55:-1 56:-1 57:-0.578947 58:-1 59:-1 60:-1 61:-0.6 62:-1 63:-1 64:-1 65:-1 66:-1 67:-1 69:-1 70:-1 72:-1 73:-1 74:-1 75:-1 76:-1 78:-1 
-387.29406096526293 -248.24213705263867 -144.36672007567938 -512 512 512 512 0 0 1:-1 2:-1 3:-1 6:-1 10:-1 14:-1 17:-1 26:-1 29:-1 34:-1 40:-1 41:-1 42:-1 44:-1 46:-0.333333 47:-1 48:-1 50:-1 51:-1 54:-1 55:-1 56:-1 57:-1 58:-1 59:-0.666667 60:-1 61:-1 62:-1 63:-1 64:-1 65:-1 66:-1 67:-1 69:-1 70:-1 72:-1 73:-1 74:-1 75:-1 76:-1 78:-1 
-52.013922328795033 -512 -512 -512 512 35.661624656215459 512 0 512 1:-1 2:-1 3:-1 6:-1 10:-1 14:-1 17:-1 26:-1 29:-1 34:-1 40:-1 41:-1 42:-1 44:-1 46:-1 47:-1 48:-1 50:-1 51:-1 54:-1 55:-1 56:-1 57:-0.894737 58:-1 59:-1 60:-1 61:-0.6 62:-1 63:-1 64:-1 65:-1 66:-1 67:-1 69:-1 70:-1 72:-1 73:-1 74:-1 75:-1 76:-1 78:-1 
-0 -0 -0 -0 0 0 0 0 512 1:-1 2:-1 3:-1 6:-1 10:-1 14:-1 17:-1 26:-1 29:-1 34:-1 40:-1 41:-0.5 42:-1 44:-1 46:-1 47:-1 48:-1 50:-1 51:-1 54:-1 55:-1 56:-1 57:-0.684211 58:-1 59:-1 60:-1 61:-0.6 62:-1 63:-1 64:-1 65:-1 66:-1 67:-1 69:-1 70:-1 72:-1 73:-1 74:-1 75:-1 76:-1 78:-1 
-69.552914339552217 -512 -201.89150092422346 -512 198.32032723273213 512 512 0.34562907492725536 0 1:-1 2:-1 3:-1 6:-1 10:-1 14:-1 17:-1 26:-1 29:-1 34:-1 40:-1 41:-1 42:-1 44:-1 46:-1 47:-1 48:-1 50:-1 51:-1 54:-1 55:-1 56:-1 57:-1 58:-0.5 59:-1 60:-1 61:-1 62:-1 63:-1 64:-1 65:-1 66:-1 67:-1 69:-1 70:-1 72:-1 73:-1 74:-1 75:-1 76:-1 78:-1 
-0 -512 -0 -512 70.242292746146504 0 0 41.087198819120019 0 1:-1 2:-1 3:-1 6:-1 10:-1 14:-1 17:-1 26:-1 29:-1 34:-1 40:-1 41:-1 42:-1 44:-1 46:-1 47:-1 48:-1 50:-1 51:-1 54:-1 55:-1 56:-1 57:-0.789474 58:-1 59:-0.666667 60:-1 61:-1 62:-1 63:-1 64:-1 65:-1 66:-1 67:-1 69:-1 70:-1 72:-1 73:-1 74:-1 75:-1 78:-1 
-0 -0 -0 -0 0 0 0 0 512 1:-1 2:-1 3:-1 6:-1 10:-1 14:-1 17:-1 26:-1 29:-1 34:-1 40:-1 41:-1 42:-1 44:-1 46:-1 47:-1 48:-1 50:-1 51:-1 54:-1 55:-1 56:-1 57:-0.473684 58:-1 59:-1 60:-1 61:-1 62:-1 63:-1 64:-1 65:-1 66:-1 67:-1 69:-1 70:-1 72:-1 73:-1 74:-1 75:-1 76:-1 78:-1 
-0 -0 -0 -0 0 0 0 0 512 1:-1 2:-1 3:-1 6:-1 10:-1 14:-1 17:-1 26:-1 29:-1 34:-1 40:-1 41:-1 42:-1 44:-1 46:-1 47:-1 48:-1 50:-1 51:-1 54:-1 55:-1 56:-1 57:-0.368421 58:-1 59:-1 60:-1 61:-1 62:-1 63:-1 64:-1 65:-1 66:-1 67:-1 69:-1 70:-1 72:-1 73:-1 74:-1 75:-1 76:-1 78:-1 
-0 -512 -0 -512 512 512 512 512 0 1:-1 2:-1 3:-1 6:-1 10:-1 14:-1 17:-1 26:-1 29:-1 34:-1 40:-1 41:-1 42:-1 44:-1 46:-1 47:-1 48:-1 50:-1 51:-1 54:-1 55:-1 56:-1 57:-0.789474 58:-1 59:-0.666667 60:-1 61:-1 62:-1 63:-1 64:-1 65:-1 66:-1 67:-1 69:-1 70:-1 72:-1 73:-1 74:-1 75:-1 76:-1 78:-1 
-0 -0 -0 -0 0 0 0 0 512 1:-1 2:-1 3:-1 6:-1 10:-1 14:-1 17:-1 26:-1 29:-1 34:-1 40:-1 41:-0.5 42:-1 44:-1 46:-1 47:-1 48:-1 50:-1 51:-1 54:-1 55:-1 56:-1 57:-0.789474 58:-1 59:-1 60:-1 61:-1 62:-1 63:-1 64:-1 65:-1 66:-1 67:-1 69:-1 70:-1 72:-1 73:-1 74:-1 75:-1 76:-1 78:-1 
-0 -206.36574176359193 -0 -512 0 512 0 512 512 1:-1 2:-1 3:-1 6:-1 10:-1 14:-1 17:-1 26:-1 29:-1 34:-1 40:-1 41:-1 42:-1 44:-1 46:-1 47:-1 48:-1 50:-1 51:-1 54:-1 55:-1 56:-1 57:-0.684211 58:-1 59:-1 60:-1 61:-1 62:-1 63:-1 64:-1 65:-1 66:-1 67:-1 69:-1 70:-1 72:-1 73:-1 74:-1 75:-1 76:-1 78:-1 
-0 -0 -0 -0 0 0 0 0 512 1:-1 2:-1 3:-1 6:-1 10:-1 14:-1 17:-1 26:-1 29:-1 34:-1 40:-1 41:-1 42:-1 44:-1 46:-1 47:-1 48:-1 50:-1 51:-1 54:-1 55:-1 56:-1 57:-0.263158 58:-1 59:-0.666667 60:-1 61:-1 62:-1 63:-1 64:-1 65:-1 66:-1 67:-1 69:-1 70:-1 72:-1 73:-1 74:-1 75:-1 76:-1 78:-1 
-512 -512 -512 -512 512 512 512 512 0 1:-1 2:-1 3:-1 6:-1 10:-1 14:-1 17:-1 26:-1 29:-1 34:-1 40:-1 41:-1 42:-1 44:-1 46:-1 47:-1 48:-1 50:-1 51:-1 54:-1 55:-1 56:-1 57:-1 58:-1 59:-0.666667 60:-1 61:-1 62:-1 63:-1 64:-1 65:-1 66:-1 67:-1 69:-1 70:-1 72:-1 73:-1 74:-1 75:-1 76:-1 78:-1 
-0 -0 -0 -0 0 0 0 0 512 1:-1 2:-1 3:-1 6:-1 10:-1 14:-1 17:-1 26:-1 29:-1 34:-1 40:-1 42:-1 44:-1 46:-1 47:-1 48:-1 50:-1 51:-1 54:-1 55:-1 56:-1 57:-0.894737 58:-1 59:-1 60:-1 61:-1 62:-1 63:-1 64:-1 65:-1 66:-1 67:-1 69:-1 70:-1 72:-1 73:-1 74:-1 75:-1 76:-1 78:-1 
-288.13753356560898 -0 -0 -0 512 512 512 512 512 1:-1 2:-1 3:-1 6:-1 10:-1 14:-1 17:-1 26:-1 29:-1 34:-1 40:-1 41:-1 42:-1 44:-1 46:-1 47:-1 48:-1 50:-1 51:-1 54:-1 55:-1 56:-1 57:-0.789474 58:-1 59:0.333333 60:-1 61:-1 62:-1 63:-1 64:-1 65:-1 66:-1 67:-1 69:-1 70:-1 72:-1 73:-1 74:-1 75:-1 76:-1 78:-1 
-0 -0 -0 -0 0 0 0 0 512 1:-1 2:-1 3:-1 6:-1 10:-1 14:-1 17:-1 26:-1 29:-1 34:-1 40:-1 41:-1 42:-1 44:-1 46:-1 47:-1 48:-1 50:-1 51:-1 54:-1 55:-1 56:-1 57:-0.473684 58:-1 59:-0.666667 60:-1 61:-0.6 62:-1 63:-1 64:-1 65:-1 66:-1 67:-1 69:-1 70:-1 72:-1 73:-1 74:-1 75:-1 76:-1 78:-1 
-0 -395.30319772056686 -0 -512 0 512 0 512 512 1:-1 2:-1 3:-1 6:-1 10:-1 14:-1 17:-1 26:-1 29:-1 34:-1 40:-1 41:-1 42:-1 44:-1 46:-1 47:-1 48:-1 50:-1 51:-1 54:-1 55:-1 56:-1 57:-0.684211 58:-1 59:-1 60:-1 61:-1 62:-1 63:-1 64:-1 65:-1 66:-1 67:-1 69:-1 70:-1 72:-1 73:-1 74:-1 75:-1 76:-1 78:-1 
-0 -0 -0 -0 0 68.040572092922815 0 313.49181587127947 0 1:-1 2:-1 3:-1 6:-1 10:-1 14:-1 17:-1 26:-1 29:-1 34:-1 40:-1 41:-0.5 42:-1 44:-1 46:-1 47:-1 48:-1 50:-1 51:-1 54:-1 55:-1 56:-1 57:-0.789474 58:-1 59:-1 60:-1 61:-1 62:-1 63:-1 64:-1 65:-1 66:-1 67:-1 69:-1 70:-1 72:-1 73:-1 74:-1 75:-0.6 76:-1 78:-1 
-0 -0 -0 -0 0 0 0 0 512 1:-1 2:-1 3:-1 6:-1 10:-1 14:-1 17:-1 26:-1 29:-1 34:-1 40:-1 41:-1 42:-1 44:-1 46:-1 47:-1 48:-1 50:-1 51:-1 54:-1 55:-1 56:-1 57:-0.263158 58:-1 59:-1 60:-1 61:-1 62:-1 63:-1 64:-1 65:-1 66:-1 67:-1 69:-1 70:-1 72:-1 73:-1 74:-1 75:-1 76:-1 78:-1 
-0 -26.125349778547115 -266.91687849083394 -15.936272049972628 512 498.10160470498857 22.374225118799451 386.80378240200235 512 1:-1 2:-1 3:-1 6:-1 10:-1 14:-1 17:-1 26:-1 29:-1 34:-1 40:-1 41:-1 42:-0.333333 44:-1 46:-1 47:-1 48:-1 50:-1 51:-1 54:-1 55:-1 56:-1 57:-0.789474 58:-1 59:-0.333333 60:-1 61:-0.6 62:-1 63:-1 64:-1 65:-1 66:-1 67:-1 69:-1 70:-1 72:-1 73:-1 74:-1 75:-1 76:-1 78:-1 
-0 -0 -0 -0 0 0 0 0 512 1:-1 2:-1 3:-1 6:-1 10:-1 14:-1 17:-1 26:-1 29:-1 34:-1 40:-1 41:-0.5 42:-1 44:-1 46:-1 47:-1 48:-1 50:-1 51:-1 54:-1 55:-1 56:-1 57:-0.789474 58:-1 59:-0.666667 60:-1 61:-0.2 62:-1 63:-1 64:-1 65:-1 66:-1 67:-1 69:-1 70:-1 72:-1 73:-1 74:-1 75:-1 76:-1 78:-1 
-512 -0 -0 -0 -0 0 0 0 0 1:-1 2:-1 3:-1 6:-1 10:-1 14:-1 17:-1 26:-1 29:-1 34:-1 40:-1 41:-1 42:-1 44:-1 46:-1 47:-1 48:-1 50:-1 51:-1 54:-1 55:-1 56:-1 57:-1 58:-1 59:-1 60:-1 61:-1 62:-1 63:-1 64:-1 65:-1 66:-1 67:-1 69:-1 70:-1 72:0.2 73:-1 74:-1 75:-1 76:-1 78:-1 
-0 -275.24343494119603 -0 -297.00051756795983 -0 57.450662071768917 82.096505450621535 447.51101273524569 0 1:-1 2:-1 3:-1 6:-1 10:-1 14:-1 17:-1 26:-1 29:-1 34:-1 40:-0.333333 41:-1 42:-1 44:-1 46:-1 47:-1 48:-1 50:-1 51:-1 54:-1 55:-1 56:-1 57:-1 58:-1 59:-0.666667 60:-1 61:-1 62:-1 63:-1 64:-1 65:-1 66:-1 67:-1 69:-0.5 70:-1 72:-1 73:-1 74:-1 75:-1 76:-1 78:-1 
-512 -512 -512 -512 -512 512 512 512 0 1:-1 2:-1 3:-1 6:-1 10:-1 14:-1 17:-1 26:-1 29:-1 34:-1 40:-1 41:-1 42:-1 44:-1 46:-1 47:-1 48:-1 50:-1 51:-1 54:-1 55:-1 56:-1 57:-1 58:-1 59:-0.666667 60:-1 61:-1 62:-1 63:-1 64:-1 65:-1 66:-1 67:-1 69:-1 70:-1 72:-1 73:-1 74:-1 75:-1 76:-1 78:-1 
-0 -512 -89.811446771370257 -512 -512 512 512 512 1.8707587375772337 1:-1 2:-1 3:-1 6:-1 10:-1 14:-1 17:-1 26:-1 29:-1 34:-1 40:-1 41:-1 42:-1 44:-1 46:-1 47:-1 48:-1 50:-1 51:-1 54:-1 55:-1 56:-1 57:-1 58:-1 59:-0.666667 60:-1 61:-1 62:-1 63:-0.333333 64:-1 65:-1 66:-1 67:-1 69:-1 70:-1 72:-1 73:-1 74:-1 75:-1 76:-1 78:-1 
-0 -0 -0 -40.607770116008766 -512 0 169.13085124134116 0 342.74828998023293 1:-1 2:-1 3:-1 6:-1 10:-1 14:-1 17:-1 26:-1 29:-1 34:-1 40:-1 41:-1 42:-1 44:-1 46:0.333333 47:-1 48:-1 50:-1 51:-1 54:-1 55:-1 56:-1 57:-0.894737 58:-1 59:-1 60:-1 61:-1 62:-1 63:-1 64:-1 65:-1 66:-1 67:-1 69:-1 70:-1 72:-1 73:-1 74:-1 75:-1 76:-1 78:-1 
-0 -512 -512 -512 -512 512 512 512 512 1:-1 2:-1 3:-1 6:-1 10:-1 14:-1 17:-1 26:-1 29:-1 34:-1 40:-1 41:-1 42:-1 44:-1 46:-1 47:-1 48:-1 50:-1 51:-1 54:-1 55:-1 56:-1 57:-0.894737 58:-1 59:-0.666667 60:-1 61:-1 62:-1 63:-1 64:-1 65:-1 66:-1 67:-1 69:-1 70:-1 72:-1 73:-1 74:-1 75:-1 76:-1 78:-1 
-0 -512 -512 -512 -512 512 512 512 512 1:-1 2:-1 3:-1 6:-1 10:-1 14:-1 17:-1 26:-1 29:-1 34:-1 40:-1 41:-1 42:-1 44:-1 46:-1 47:-1 48:-1 50:-1 51:-1 54:-1 55:-1 56:-1 57:-0.894737 58:-1 59:-1 60:-1 61:-1 62:-1 63:-1 64:-1 65:-1 66:-1 67:-1 69:-1 70:-1 72:-1 73:-1 74:-1 75:-1 76:-1 78:-1 
-41.504496140497899 -42.564887650580502 -179.65271320907397 -512 -512 512 512 0 53.558772128529753 1:-1 2:-1 3:-1 6:-1 10:-1 14:-1 17:-1 26:-1 29:-1 34:-1 40:-1 41:-1 42:-1 44:-1 46:-0.333333 47:-1 48:-1 50:-1 51:-1 54:-1 55:-1 56:-1 57:-1 58:-1 59:-1 60:-1 61:-1 62:-1 63:-1 64:-1 65:-1 66:-1 67:-1 69:-1 70:-1 72:-1 73:-1 74:-1 75:-1 76:-1 78:-1 
-0 -0 -0 -102.60283517353952 -0 0 512 0 0 1:-1 2:-1 3:-1 6:-1 10:-1 14:-1 17:-1 26:-1 29:-1 34:-1 40:-1 41:-1 42:-1 44:-1 46:-1 47:-1 48:-1 50:-1 51:-1 54:-1 55:-1 56:-1 57:-0.789474 58:-1 59:-1 60:-1 61:-1 62:-1 63:-1 64:-1 65:-1 66:-1 67:-1 69:-1 70:-1 72:-1 74:-1 75:-1 76:-1 78:-1 
-0 -0 -203.81407062196308 -43.679765995931568 -97.775507000417932 0 0 294.57929955111905 0 1:-1 2:-1 3:-1 6:-1 10:-1 14:-1 17:-1 26:-1 29:-1 34:-1 40:-1 41:-1 42:-1 44:-1 46:-1 47:-1 48:-1 50:-1 51:-1 54:-1 55:-1 56:-1 57:-0.894737 58:-1 59:-1 60:-1 61:-1 62:-1 63:-1 64:-1 65:-1 66:-1 67:-1 69:-1 70:-0.333333 72:-1 73:-1 74:-1 75:-0.6 76:-1 78:-1 
-0 -512 -512 -512 -512 512 512 512 512 1:-1 2:-1 3:-1 6:-1 10:-1 14:-1 17:-1 26:-1 29:-1 34:-1 40:-1 41:-1 42:-1 44:-1 46:-1 47:-1 48:-1 50:-1 51:-1 54:-1 55:-1 56:-1 57:-0.578947 58:-1 59:-1 60:-1 61:-0.6 62:-1 63:-1 64:-1 65:-1 66:-1 67:-1 69:-1 70:-1 72:-1 73:-1 74:-1 75:-1 76:-1 78:-1 
-0 -512 -512 -512 -512 512 497.8947422786668 512 482.62683285491909 1:-1 2:-1 3:-1 6:-1 10:-1 14:-1 17:-1 26:-1 29:-1 34:-1 40:-1 41:-1 42:-1 44:-1 46:-1 47:-1 48:-1 50:-1 51:-1 54:-1 55:-1 56:-1 57:-0.789474 58:-1 59:-1 60:-1 61:-1 62:-1 63:-1 64:-1 65:-1 66:-1 67:-1 69:-1 70:-1 72:-1 73:-1 74:-1 75:-0.6 76:-1 78:-1 
-512 -0 -0 -0 -0 0 0 0 0 1:-1 2:-1 3:-1 6:-1 10:-1 14:-1 17:-1 26:-1 29:-1 34:-1 40:-1 41:-1 42:-1 44:-1 46:-1 47:-1 48:-1 50:-1 51:-1 54:-1 55:-1 56:-1 57:-1 58:-1 59:-1 60:-1 61:-1 62:-1 63:-1 64:-1 65:-1 66:-1 67:-1 69:-1 70:-1 72:-0.2 73:-1 74:-1 75:-1 76:-1 78:-1 
-65.636540197205292 -0 -55.272745704338341 -0 -0 0 49.332639425534019 0 0 1:-1 2:-1 3:-1 6:-1 10:-1 14:-1 17:-1 26:-1 29:-1 34:-1 40:-0.333333 41:-1 42:-1 44:-1 46:-1 47:-1 48:-1 50:-1 51:-1 54:-1 55:-1 56:-1 57:-1 58:-1 59:-1 60:-1 61:-1 62:-1 63:-1 64:-1 65:-1 66:-1 67:-1 69:-1 70:-1 72:-1 74:-1 75:-1 76:-1 78:-1 
-0 -512 -219.07242076862357 -512 -512 512 512 512 512 1:-1 2:-1 3:-1 6:-1 10:-1 14:-1 17:-1 26:-1 29:-1 34:-1 40:-1 41:-1 42:-1 44:-1 46:-1 47:-1 48:-1 50:-1 51:-1 54:-1 55:-1 56:-1 57:-0.684211 58:-1 59:-0.666667 60:-1 61:-1 62:-1 63:-1 64:-1 65:-1 66:-1 67:-1 69:-1 70:-1 72:-1 73:-1 74:-1 75:-1 76:-1 78:-1 
-512 -0 -0 -0 -0 0 0 0 0 1:-1 2:-1 3:-1 6:-1 10:-1 14:-1 17:-1 26:-1 29:-1 34:-1 40:-1 41:-1 42:-1 44:-1 46:-1 47:-1 48:-1 50:-1 51:-1 54:-1 55:-1 56:-1 57:-1 58:-1 59:-1 60:-1 61:-1 62:-1 63:-1 64:-1 65:-1 66:-1 67:-1 69:-1 70:-1 72:-0.2 73:-1 74:-1 75:-1 76:-1 78:-1 
-288.70741989168721 -167.58090267119735 -0 -224.3833024829718 -181.16723671582059 0 0 0 198.11280160020235 1:-1 2:-1 3:-1 6:-1 10:-1 14:-1 17:-1 26:-1 29:-1 34:-1 40:0.333333 41:-1 42:-1 44:-1 46:-1 47:-1 48:-1 50:-1 51:-1 54:-1 55:-1 56:-1 57:-1 58:-1 59:-1 60:-1 61:-1 62:-1 63:-1 64:-1 65:-1 66:-1 67:-1 69:-1 70:-0.333333 72:-1 73:-1 74:-1 75:-1 76:-1 78:-1 
-512 -0 -0 -0 -0 0 0 0 0 1:-1 2:-1 3:-1 6:-1 10:-1 14:-1 17:-1 26:-1 29:-1 34:-1 40:-1 41:-1 42:-1 44:-1 46:-1 47:-1 48:-1 50:-1 51:-1 54:-1 55:-1 56:-1 57:-1 58:-1 59:-1 60:-1 61:-1 62:-1 63:-1 64:-1 65:-1 66:-1 67:-1 69:-1 70:-1 72:-0.2 73:-1 74:-1 75:-1 76:-1 78:-1 
-317.61399331685664 -512 -512 -512 -512 512 512 512 0 1:-1 2:-1 3:-1 6:-1 10:-1 14:-1 17:-1 26:-1 29:-1 34:-1 40:-1 41:-1 42:-1 44:-1 46:-1 47:-1 48:-1 50:-1 51:-1 54:-1 55:-1 56:-1 57:-1 58:-1 59:-0.666667 60:-1 61:-1 62:-1 63:-1 64:-1 65:-1 66:-1 67:-1 69:-1 70:-1 72:-1 73:-1 74:-1 75:-1 76:-1 78:-1 
-366.5289602460694 -281.21040180713089 -512 -270.36687500084355 -512 512 512 512 512 1:-1 2:-1 3:-1 6:-1 10:-1 14:-1 17:-1 26:-1 29:-1 34:-1 40:-1 41:-1 42:-0.333333 44:-1 46:-1 47:-1 48:-1 50:-1 51:-1 54:-1 55:-1 56:-1 57:-1 58:-1 59:-1 60:-1 61:-1 62:-1 63:-1 64:-1 65:-1 66:-1 67:-1 69:-1 70:-1 72:-1 73:-1 74:-1 75:-1 76:-1 78:-1 
-0 -512 -0 -512 -512 512 512 512 512 1:-1 2:-1 3:-1 6:-1 10:-1 14:-1 17:-1 26:-1 29:-1 34:-1 40:-1 41:-1 42:-1 44:-1 46:-1 47:-1 48:-1 50:-1 51:-1 54:-1 55:-1 56:-1 57:-0.684211 58:-1 59:-0.333333 60:-1 61:-1 62:-1 63:-1 64:-1 65:-1 66:-1 67:-1 69:-1 70:-1 72:-1 73:-1 74:-1 75:-1 76:-1 78:-1 
-0 -0 -0 -0 -0 512 512 512 0 1:-1 2:-1 3:-1 6:-1 10:-1 14:-1 17:-1 26:-1 29:-1 34:-1 40:-1 41:-1 42:-1 44:-1 46:-1 47:-1 48:-1 50:-1 51:-1 54:-1 55:-1 56:-1 57:-1 58:-1 60:-1 61:-1 62:-1 63:-1 64:-1 65:-1 66:-1 67:-1 69:-1 70:-1 72:-1 73:-1 74:-1 75:-1 76:-1 78:-1 
-0 -512 -464.55972402503073 -512 -512 512 512 512 0 1:-1 2:-1 3:-1 6:-1 10:-1 14:-1 17:-1 26:-1 29:-1 34:-1 40:-1 41:-1 42:-1 44:-1 46:-1 47:-1 48:-1 50:-1 51:-1 54:-1 55:-1 56:-1 57:-1 58:-1 59:-0.333333 60:-1 61:-1 62:-1 63:-1 64:-1 65:-1 66:-1 67:-1 69:-1 70:-1 72:-1 73:-1 74:-1 75:-1 76:-1 78:-1 
-512 -0 -0 -0 -0 0 0 0 0 1:-1 2:-1 3:-1 6:-1 10:-1 14:-1 17:-1 26:-1 29:-1 34:-1 40:-1 41:-1 42:-1 44:-1 46:-1 47:-1 48:-1 50:-1 51:-1 54:-1 55:-1 56:-1 57:-1 58:-1 59:-1 60:-1 61:-1 62:-1 63:-1 64:-1 65:-1 66:-1 67:-1 69:-0.5 70:-1 72:-0.2 73:-1 74:-1 75:-1 76:-1 78:-1 
-512 -1.9486866152532909 -0 -4.9174938809968634 -0 0.96602300194361634 281.49327963970291 0 160.18780072294305 1:-1 2:-1 3:-1 6:-1 10:-1 14:-1 17:-1 26:-1 29:-1 34:-1 40:-1 41:-1 42:-1 44:-1 46:-1 47:-1 48:-1 50:-1 51:-1 54:-1 55:-1 56:-1 57:-1 58:-1 59:-1 60:-1 61:-1 62:-1 63:-1 64:-1 65:-1 66:-1 67:-1 69:-1 70:-1 72:-0.6 73:-1 74:-1 75:-1 76:-1 78:-1 
-0 -0 -0 -0 -0 0 10.776748265826971 0 0 1:-1 2:-1 3:-1 6:-1 10:-1 14:-1 17:-1 26:-1 29:-1 34:-1 40:-1 41:-1 42:-1 44:1 46:-1 47:-1 48:-1 50:-1 51:-1 54:-1 55:-1 56:-1 57:-1 58:-1 60:-1 61:-1 62:-1 63:-1 64:-1 65:-1 66:-1 67:-1 69:-1 70:-1 72:-1 74:-1 75:-1 76:-1 78:-1 
-512 -512 -0 -512 -512 512 0 512 512 1:-1 2:-1 3:-1 6:-1 10:-1 14:-1 17:-1 26:-1 29:-1 34:-1 40:-1 41:-1 42:-1 44:-1 46:-1 47:-1 48:-1 50:-1 51:-1 54:-1 55:-1 56:-1 57:-0.894737 58:-1 59:-1 60:-1 61:-1 62:-1 63:-1 64:-1 65:-1 66:-1 67:-1 69:-1 70:-1 72:-0.6 73:-1 74:-1 75:-1 76:-1 78:-1 
-1.5170019087859397 -242.39199718982613 -0 -60.684851444866496 -37.014930217804306 512 0 258.98071280638976 0 1:-1 2:-1 3:-1 6:-1 10:-1 14:-1 17:-1 26:-1 29:-1 34:-1 40:-1 41:-1 42:-1 44:-1 46:-0.333333 47:-1 48:-1 50:-1 51:-1 54:-1 55:-1 56:-1 57:-1 58:-1 59:-1 60:-1 61:-1 62:-1 63:0.333333 64:-1 65:-1 66:-1 67:-1 69:-1 70:-1 72:-1 73:-1 74:-1 75:-1 76:-0.5 78:-1 
-22.906729282982869 -512 -512 -512 -512 512 512 512 512 1:-1 2:-1 3:-1 6:-1 10:-1 14:-1 17:-1 26:-1 29:-1 34:-1 40:-1 41:-1 42:-1 44:-1 46:-1 47:-1 48:-1 50:-1 51:-1 54:-1 55:-1 56:-1 57:-1 58:-1 59:-1 60:-1 61:-0.6 62:-1 63:-1 64:-1 65:-1 66:-1 67:-1 69:-1 70:-1 72:-1 73:-1 74:-1 75:-1 76:-1 78:-1 
-161.36200124067679 -0 -0 -0 -249.841908255589 0 0 0 0 1:-1 2:-1 3:-1 6:-1 10:-1 14:-1 17:-1 26:-1 29:-1 34:-1 40:-1 41:-1 42:-1 44:-1 46:1 47:-1 48:-1 50:-1 51:-1 54:-1 55:-1 56:-1 57:-1 58:-1 59:-1 60:-1 61:-1 62:-1 63:-1 64:-1 65:-1 66:-1 67:-1 69:-1 70:-1 72:-1 73:-1 74:-1 75:-1 76:-1 78:-1 
-0 -0 -0 -0 -507.90885937931534 4.2545681778755915 139.03306734867078 0 0 1:-1 2:-1 3:-1 6:-1 10:-1 14:-1 17:-1 26:-1 29:-1 34:-1 40:-1 41:-1 42:-1 44:-1 46:-0.333333 47:-1 48:-1 50:-1 51:-1 54:-1 55:-1 56:-1 57:-1 58:-1 59:-0.333333 60:-1 61:-1 62:-1 63:-1 64:-1 65:-1 66:-1 67:-1 69:-1 70:-1 72:-1 73:-1 74:-1 75:-1 76:-1 78:-0.333333 
-0 -63.340913324885179 -0 -0 -512 39.862148503353701 512 0 512 1:-1 2:-1 3:-1 6:-1 10:-1 14:-1 17:-1 26:-1 29:-1 34:-1 40:-1 41:-1 42:-1 44:-1 46:-1 47:-1 48:-1 50:-1 51:-1 54:-1 55:-1 56:-1 57:-0.789474 58:-1 60:-1 61:-0.2 62:-1 63:-1 64:-1 65:-1 66:-1 67:-1 69:-1 70:-1 72:-1 73:-1 74:-1 75:-1 76:-1 78:-1 
-512 -512 -512 -512 -512 512 512 512 0 1:-1 2:-1 3:-1 6:-1 10:-1 14:-1 17:-1 26:-1 29:-1 34:-1 40:-1 41:-1 42:-1 44:-1 46:-1 47:-1 48:-1 50:-1 51:-1 54:-1 55:-1 56:-1 57:-1 58:-1 59:-0.666667 60:-1 61:-1 62:-1 63:-1 64:-1 65:-1 66:-1 67:-1 69:-1 70:-1 72:-1 73:-1 74:-1 75:-1 76:-1 78:-1 
-0 -0 -0 -0 -512 0 0 0 0 1:-1 2:-1 3:-1 6:-1 10:-1 14:-1 17:-1 26:-1 29:-1 34:-1 40:-1 41:-1 42:-1 44:-1 46:-0.333333 47:-1 48:-1 50:-1 51:-1 54:-1 55:-1 56:-1 57:-1 58:-1 60:-1 61:-1 62:-1 63:-1 64:-1 65:-1 66:-1 67:-1 69:-1 70:-1 72:-1 73:-1 74:-1 75:-1 78:-1 
-512 -0 -0 -0 -22.79272940985479 0 0 0 55.240670994131364 1:-1 2:-1 3:-1 6:-1 10:-1 14:-1 17:-1 26:-1 29:-1 34:-1 40:-0.333333 41:-1 42:-1 44:-1 46:-0.333333 47:-1 48:-1 50:-1 51:-1 54:-1 55:-1 56:-1 57:-0.789474 58:-1 59:0.666667 60:-1 61:-0.6 62:-1 63:-1 64:-1 65:-1 66:-1 67:-1 69:-1 70:-1 72:-1 73:-1 74:-1 75:-1 76:-1 78:-1 
-512 -274.09092312950901 -499.17897961280562 -230.2510851411256 -0 92.943606820558614 465.95784041714234 75.409536642242642 512 1:-1 2:-1 3:-1 6:-1 10:-1 14:-1 17:-1 26:-1 29:-1 34:-1 40:-1 41:-1 42:-1 44:-1 46:-1 47:-1 48:-1 50:-1 51:-1 54:-1 55:-1 56:-1 57:-1 58:-1 59:-1 60:-1 61:-1 62:-1 63:-1 64:-1 65:-1 66:-1 67:-1 69:-1 70:-1 72:-0.6 73:-1 74:-1 75:-1 76:-1 78:-1 
-0 -0 -264.64746475622331 -0 -0 0 77.466389600921374 512 0 1:-1 2:-1 3:-1 6:-1 10:-1 14:-1 17:-1 26:-1 29:-1 34:-1 40:-1 41:-1 42:-1 44:-1 46:-1 47:-1 48:-1 50:-1 51:-1 54:-1 55:-1 56:-1 57:-1 58:-1 59:-1 60:-1 61:-1 62:-1 63:-1 64:-1 65:-1 66:-1 67:-1 70:-1 72:-1 73:-1 74:-1 75:-1 76:-1 78:-1 
-0 -123.63240464811599 -0 -512 -176.96455135973844 140.27004130267596 0 161.20752886767099 130.78831175530351 1:-1 2:-1 3:-1 6:-1 10:-1 14:-1 17:-1 26:-1 29:-1 34:-1 40:-1 41:-1 42:-1 44:-1 46:-1 47:-1 48:-1 50:-1 51:-1 54:-1 55:-1 56:-1 57:-0.578947 58:-1 59:-1 60:-1 61:-1 62:-1 63:-1 64:-1 65:-1 66:-1 67:-1 69:-1 70:-1 72:-1 74:-1 75:-1 76:-1 78:-1 
-0 -0 -0 -0 -435.87999561496071 184.88235821905303 0 0 317.45656852421251 1:-1 2:-1 3:-1 6:-1 10:-1 14:-1 17:-1 26:-1 29:-1 34:-1 40:-1 41:-1 42:-1 44:-1 46:-1 47:-1 48:-1 50:-1 51:-1 54:-1 55:-1 56:-1 57:-0.684211 58:-1 59:-0.333333 60:-1 61:-0.6 62:-1 63:-1 64:-1 65:-1 66:-1 67:-1 69:-0.5 70:-1 72:-1 73:-1 74:-1 75:-1 76:-1 78:-1 
-0 -511.04295012782774 -132.19974735011323 -512 -512 239.87554369015461 157.96686233963652 262.26681571022988 360.73968043216456 1:-1 2:-1 3:-1 6:-1 10:-1 14:-1 17:-1 26:-1 29:-1 34:-1 40:-1 41:-0.5 42:-1 44:-1 46:-1 47:-1 48:-1 50:-1 51:-1 54:-1 55:-1 56:-1 57:-0.894737 58:-1 59:-1 60:-1 61:-1 62:-1 63:-1 64:-1 65:-1 66:-1 67:-1 69:-1 70:-1 72:-1 73:-1 74:-1 75:-1 76:-0.5 78:-1 
-512 -512 -512 -512 -512 512 512 512 0 1:-1 2:-1 3:-1 6:-1 10:-1 14:-1 17:-1 26:-1 29:-1 34:-1 40:-1 41:-1 42:-1 44:-1 46:-1 47:-1 48:-1 50:-1 51:-1 54:-1 55:-1 56:-1 57:-1 58:-1 59:-1 60:-1 61:-1 62:-1 63:-1 64:-1 65:-1 66:-1 67:-1 69:-1 70:-1 72:-1 73:-1 74:-1 75:-1 76:-0.5 78:-1 
-0 -0 -0 -0 -512 172.34114004424274 512 0 0 1:-1 2:-1 3:-1 6:-1 10:-1 14:-1 17:-1 26:-1 29:-1 34:-1 40:-1 41:-1 42:-1 44:-1 46:-0.333333 47:-1 48:-1 50:-1 51:-1 54:-1 55:-1 56:-1 57:-1 58:-1 59:-0.333333 60:-1 61:-1 62:-1 63:-1 64:-1 65:-1 66:-1 67:-1 69:-1 70:-1 72:-1 73:-1 74:-1 75:-1 76:-1 78:-1 
-0 -0 -0 -0 -0 0 145.00657178792815 0 0 1:-1 2:-1 3:-1 6:-1 10:-1 14:-1 17:-1 26:-1 29:-1 34:-1 40:-1 41:-1 42:-1 44:-1 46:-0.333333 47:-1 48:-1 50:-1 51:-1 54:-1 55:-1 56:-1 57:-1 58:-1 59:-1 60:-1 61:-0.6 62:-1 63:-1 64:-1 65:-1 66:-1 67:-1 69:-1 70:-0.333333 72:-1 73:-1 74:-1 75:-1 76:-1 78:-1 
-151.14928958936088 -0 -0 -0 -0 512 512 512 0 1:-1 2:-1 3:-1 6:-1 10:-1 14:-1 17:-1 26:-1 29:-1 34:-1 40:-1 41:-1 42:-1 44:-1 46:-1 47:-1 48:-1 50:-1 51:-1 54:-1 55:-1 56:-1 57:-1 58:-1 59:0.333333 60:-1 61:-1 62:-1 63:-1 64:-1 65:-1 66:-1 67:-1 69:-1 70:-1 72:-1 73:-1 74:-1 75:-1 76:-1 78:-1 
-0 -5.6784877281081609 -0 -2.6118678180387676 -0 0 11.135296387481636 0 0 1:-1 2:-1 3:-1 6:-1 10:1 14:-1 17:-1 26:-1 29:-1 34:-1 40:-1 41:-1 42:-1 44:-1 46:-1 47:-1 48:-1 50:-1 51:-1 54:-1 55:-1 56:-1 57:-1 58:-1 59:-1 60:-1 61:-1 62:-1 63:-1 64:-1 65:-1 66:-1 67:-1 69:-1 70:-0.333333 72:-1 73:-1 74:-1 75:-1 76:-1 78:-1 
-0 -238.68654420092648 -0 -0 -512 512 512 512 512 1:-1 2:-1 3:-1 6:-1 10:-1 14:-1 17:-1 26:-1 29:-1 34:-1 40:-1 41:-1 42:-1 44:-1 46:-1 47:-1 48:-1 50:-1 51:-1 54:-1 55:-1 56:-1 57:-0.684211 58:-1 60:-1 61:-1 62:-1 63:-1 64:-1 65:-1 66:-1 67:-1 69:-1 70:-1 72:-1 73:-1 74:-1 75:-1 76:-1 78:-1 
-0 -7.7427095616074197 -0 -0 -0 0 0 0 0 1:-1 2:-1 3:-1 6:-1 10:-1 14:-1 17:-1 26:-1 29:-1 34:-1 40:-1 41:-1 42:-1 44:-1 46:-1 47:-1 48:-1 50:-1 51:-1 54:-1 55:-1 56:-1 57:-1 58:-1 59:-0.666667 60:-1 61:-1 62:-1 63:-1 64:-1 65:-1 66:-1 67:-1 69:-1 70:-0.333333 72:-1 73:-1 74:-1 75:-1 76:-0.5 78:-1 
-0 -512 -512 -512 -512 512 512 512 512 1:-1 2:-1 3:-1 6:-1 10:-1 14:-1 17:-1 26:-1 29:-1 34:-1 40:-1 41:-1 42:-1 44:-1 46:-1 47:-1 48:-1 50:-1 51:-1 54:-1 55:-1 56:-1 57:-0.894737 58:-1 59:-1 60:-1 61:-1 62:-1 63:-1 64:-1 65:-1 66:-1 67:-1 69:-1 70:-1 72:-1 73:-1 74:-1 75:-1 76:-1 78:-1 
-304.56767231467541 -512 -0 -440.36030709219892 -512 512 512 170.34703984869307 0 1:-1 2:-1 3:-1 6:-1 10:-1 14:-1 17:-1 26:-1 29:-1 34:-1 40:-1 41:-1 42:-1 44:-1 46:-1 47:-1 48:-1 50:-1 51:-1 54:-1 55:-1 56:-1 57:-1 58:-1 60:-1 61:-1 62:-1 63:-1 64:-1 65:-1 66:-1 67:-1 69:-1 70:-1 72:-1 73:-1 74:-1 75:-1 76:-0.5 78:-1 
-0 -0 -0 -0 -0 0 0 78.714250024504665 0 1:-1 2:-1 3:-1 6:-1 10:-1 14:-1 17:-1 26:-1 29:-1 34:-1 40:-1 41:-1 42:-1 44:-1 46:-1 47:-1 48:-1 50:-1 51:-1 54:-1 55:-1 56:-1 57:-0.789474 58:-1 59:-1 60:-1 61:-1 62:-1 63:-1 64:-1 65:-1 66:-1 67:-1 69:0.5 70:-1 72:-1 73:-1 74:-1 75:-1 76:-1 78:-1 
-0 -16.855111199742414 -0 -0 -0 286.55805678373804 0 32.145506506956238 0 1:-1 2:-1 3:-1 6:-1 10:-1 14:-1 17:-1 26:-1 29:-1 34:-1 40:-1 41:-1 42:-1 44:-1 46:-1 47:-1 48:-1 50:-1 51:-1 54:-1 55:-1 56:-1 57:-0.789474 58:-1 59:-0.666667 60:-1 61:-1 62:-1 63:-0.333333 64:-1 65:-1 66:-1 67:-1 69:-1 70:-0.333333 72:-1 73:-1 74:-1 75:-1 76:-1 78:-1 
-161.59936794478514 -512 -340.15233110708624 -512 -512 -512 319.44477197340609 512 0.46159094552194246 1:-1 2:-1 3:-1 6:-1 10:-1 14:-1 17:-1 26:-1 29:-1 34:-1 40:-1 41:-1 42:-1 44:-1 46:-1 47:-1 48:-1 50:-1 51:-1 54:-1 55:-1 56:-1 57:-0.789474 58:-1 59:-0.666667 60:-1 61:-1 62:-1 63:-1 64:-1 65:-1 66:-1 67:-1 69:-1 70:-1 72:-1 73:-1 74:-0.73913 75:-1 76:0.5 78:-1 
-0 -0 -0 -0 -512 -0 0 0 0 1:-1 2:-1 3:-1 6:-1 10:-1 14:-1 17:-1 26:-1 29:-1 34:-1 40:-1 41:-1 42:-1 44:-1 46:-1 47:-1 48:-1 50:-1 51:-1 54:-1 55:-1 56:-1 57:-0.684211 58:-0.5 59:-1 60:-1 61:-1 62:-1 63:-1 64:-1 65:-1 66:-1 67:-1 69:-1 70:-1 72:-1 73:-1 74:-1 75:-1 76:-1 78:-1 
-0 -512 -174.90758613607318 -512 -0 -512 148.52460606022854 512 0 1:-1 2:-1 3:-1 6:-1 10:-1 14:-1 17:-1 26:-1 29:-1 34:-1 40:-1 41:-1 42:-1 44:-1 46:-1 47:-1 48:-1 50:-1 51:-1 54:-1 55:-1 56:-1 57:-1 58:-1 59:-1 60:-1 61:-1 62:-1 63:-0.333333 64:-1 65:-1 66:-1 67:-1 69:-1 70:-1 72:-1 73:-1 74:-1 75:-1 76:-1 78:-1 
-2.3714643186730471 -512 -512 -512 -512 -512 512 512 512 1:-1 2:-1 3:-1 6:-1 10:-1 14:-1 17:-1 26:-1 29:-1 34:-1 40:-1 41:-1 42:-1 44:-1 46:-1 47:-1 48:-1 50:-1 51:-1 54:-1 55:-1 56:-1 57:-0.894737 58:-1 59:-1 60:-1 61:-1 62:-1 63:-1 64:-1 65:-1 66:-1 67:-1 69:-1 70:-1 72:-1 73:-1 74:-1 75:-1 76:-1 78:-1 
-326.09753328788719 -0 -0 -152.27328540969486 -512 -0 0 512 0 1:-1 2:-1 3:-1 6:-1 10:-1 14:-1 17:-1 26:-1 29:-1 34:-1 40:-0.333333 41:-1 42:-1 44:-1 46:-1 47:-1 48:-1 50:-1 51:-1 54:-1 55:-1 56:-1 57:-0.894737 58:-0.5 59:-0.666667 60:-1 61:-1 62:-1 63:-1 64:-1 65:-1 66:-1 67:-1 69:-1 70:-1 72:-1 73:-1 74:-1 75:-1 76:-1 78:-1 
-0 -512 -509.0641684468635 -512 -0 -0 512 0 0 1:-0.8 2:-1 3:-1 6:-1 10:-1 14:-1 17:-1 26:-1 29:-1 34:-1 40:-1 41:-1 42:-1 44:-1 46:-1 47:-1 48:-1 50:-1 51:-1 54:-1 55:-1 56:-1 57:-1 58:-0.5 59:-1 60:-1 61:-1 62:-1 63:-1 64:-1 65:-1 66:-1 67:-1 69:-1 70:-1 72:-1 73:-1 74:-1 75:-1 76:-1 78:-1 
-0 -512 -512 -512 -512 -512 512 512 512 1:-1 2:-1 3:-1 6:-1 10:-1 14:-1 17:-1 26:-1 29:-1 34:-1 40:-1 41:-1 42:-1 44:-1 46:-1 47:-1 48:-1 50:-1 51:-1 54:-1 55:-1 56:-1 57:-0.789474 58:-1 59:-1 60:-1 61:-1 62:-1 63:-1 64:-1 65:-1 66:-1 67:-1 69:-1 70:-1 72:-1 73:-1 74:-1 75:-1 76:-1 78:-1 
-512 -210.38501205368675 -0 -0 -512 -512 512 512 0 1:-1 2:-1 3:-1 6:-1 10:-1 14:-1 17:-1 26:-1 29:-1 34:-1 40:-1 41:-1 42:-1 44:-1 46:-1 47:-1 48:-1 50:-1 51:-1 54:-1 55:-1 56:-1 57:-1 58:-1 59:0.666667 60:-1 61:-1 62:-1 63:-1 64:-1 65:-1 66:-1 67:-1 69:-1 70:-1 72:-1 73:-1 74:-1 75:-1 76:-1 78:-1 
-0 -0 -0 -0 -0 -0 512 0 0 1:-1 2:-1 3:-1 6:-1 10:-1 14:-1 17:-1 26:-1 29:-1 34:-1 40:-1 41:-1 42:-1 44:-1 46:-1 47:-1 48:-1 50:-1 51:-1 54:-1 55:-1 56:-1 57:-1 58:-0.5 59:-0.666667 60:-1 61:-1 62:-1 63:-1 64:-1 65:-1 66:-1 67:-1 69:-1 70:-1 72:-1 73:-1 74:-1 75:-1 76:-1 78:-1 
-0 -82.782032832883004 -0 -0 -0 -0 0 0 0 1:-1 2:-1 3:-1 6:-1 10:-1 14:-1 17:-1 26:-1 29:-1 34:-1 40:-1 41:-1 42:-1 44:-1 46:-1 47:-1 48:-1 50:-1 51:-1 54:-1 55:-1 56:-1 57:-1 58:-0.5 59:-1 60:-1 61:-1 62:-1 63:-1 64:-1 65:-1 66:-1 67:-1 69:-1 70:-1 72:-1 73:-1 74:-1 75:-1 76:-1 78:-1 
-0 -0 -0 -0 -512 -0 0 64.43030228511482 0 1:-1 2:-1 3:-1 6:-1 10:-1 14:-1 17:-1 26:-1 29:-1 34:-1 40:-1 41:-1 42:-1 44:-1 46:-1 47:-1 48:-1 50:-1 51:-1 54:-1 55:-1 56:-1 57:-0.789474 58:-0.5 59:-0.666667 60:-1 61:-1 62:-1 63:-1 64:-1 65:-1 66:-1 67:-1 69:-1 70:-1 72:-1 73:-1 74:-1 75:-1 76:-1 78:-1 
-0 -512 -0 -512 -512 -54.114381717721429 75.227681802278084 0 0 1:-1 2:-1 3:-1 6:-1 10:-1 14:-1 17:-1 26:-1 29:-1 34:-1 40:-1 41:-1 42:-1 44:-1 46:-1 47:-1 48:-1 50:-1 51:-1 54:-1 55:-1 56:-1 57:-1 58:-0.5 59:-1 60:-1 61:-1 62:-1 63:-1 64:-1 65:-1 66:-1 67:-1 69:-1 70:-1 72:-1 73:-1 74:-1 75:-1 76:-0.5 78:-1 
-380.64085174019294 -512 -512 -512 -512 -512 512 512 512 1:-1 2:-1 3:-1 6:-1 10:-1 14:-1 17:-1 26:-1 29:-1 34:-1 40:-1 41:-1 42:-1 44:-1 46:-1 47:-1 48:-1 50:-1 51:-1 54:-1 55:-1 56:-1 57:-0.894737 58:-1 59:-1 60:-1 61:-1 62:-1 63:-1 64:-1 65:-1 66:-1 67:-1 69:-1 70:-1 72:-1 73:-1 74:-1 75:-1 76:-1 78:-1 
-0 -512 -0 -512 -512 -512 512 512 512 1:-1 2:-1 3:-1 6:-1 10:-1 14:-1 17:-1 26:-1 29:-1 34:-1 40:-1 41:-1 42:-1 44:-1 46:-1 47:-1 48:-1 50:-1 51:-1 54:-1 55:-1 56:-1 57:-0.684211 58:-1 59:-0.666667 60:-1 61:-1 62:-1 63:-1 64:-1 65:-1 66:-1 67:-1 69:-1 70:-1 72:-1 73:-1 74:-1 75:-1 76:-1 78:-1 
-0 -0 -0 -0 -0 -0 512 0 0 1:-1 2:-1 3:-1 6:-1 10:-1 14:-1 17:-1 26:-1 29:-1 34:-1 40:-1 41:-1 42:-1 44:-1 46:-1 47:-1 48:-1 50:-1 51:-1 54:-1 55:-1 56:-1 57:-1 58:-0.5 59:-0.666667 60:-1 61:-1 62:-1 63:-1 64:-1 65:-1 66:-1 67:-1 69:-1 70:-1 72:-1 73:-1 74:-1 75:-1 76:-1 78:-1 
-0 -512 -512 -512 -512 -512 512 512 512 1:-1 2:-1 3:-1 6:-1 10:-1 14:-1 17:-1 26:-1 29:-1 34:-1 40:-1 41:-1 42:-1 44:-1 46:-1 47:-1 48:-1 50:-1 51:-1 54:-1 55:-1 56:-1 57:-0.789474 58:-1 59:-1 60:-1 61:-1 62:-1 63:-1 64:-1 65:-1 66:-1 67:-1 69:-1 70:-1 72:-1 73:-1 74:-1 75:-1 76:-1 78:-1 
-0 -512 -0 -0 -0 -0 0 0 0 1:-1 2:-1 3:-1 6:-1 10:-1 14:-1 17:-1 26:-1 29:-1 34:-1 40:-1 41:-1 42:-1 44:-1 46:-1 47:-1 48:-1 50:-1 51:-1 54:-1 55:-1 56:-1 57:-1 58:-0.5 59:-1 60:-1 61:-1 62:-1 63:-1 64:-1 65:-1 66:-1 67:-1 69:-1 70:-1 72:-1 73:-1 74:-1 75:-1 76:-1 78:-1 
-1.8189617023485196 -170.28764725639934 -0 -0 -0 -0 0 512 0 1:-1 2:-1 3:-1 6:-1 10:-1 14:-1 17:-1 26:-1 29:-1 34:-1 40:-1 41:-1 42:-1 44:-1 46:-1 47:-1 48:-1 50:-1 51:-1 54:-1 55:-1 56:-1 57:-1 58:-1 59:-1 60:-1 61:-1 62:-1 63:1 64:-1 65:-1 66:-1 67:-1 69:-1 70:-1 72:-1 73:-1 74:-1 75:-1 76:-1 78:-1 
-0 -0 -0 -0 -0 -0 512 0 0 1:-1 2:-1 3:-1 6:-1 10:-1 14:-1 17:-1 26:-1 29:-1 34:-1 40:-1 41:-1 42:-1 44:-1 46:-1 47:-1 48:-1 50:-1 51:-1 54:-1 55:-1 56:-1 57:-1 58:-0.5 59:-0.333333 60:-1 61:-1 62:-1 63:-1 64:-1 65:-1 66:-1 67:-1 69:-1 70:-1 72:-1 73:-1 74:-1 75:-1 76:-1 78:-1 
-0 -512 -0 -512 -512 -512 512 512 512 1:-1 2:-1 3:-1 6:-1 10:-1 14:-1 17:-1 26:-1 29:-1 34:-1 40:-1 41:-1 42:-1 44:-1 46:-1 47:-1 48:-1 50:-1 51:-1 54:-1 55:-1 56:-1 57:-0.789474 58:-1 59:-0.333333 60:-1 61:-1 62:-1 63:-1 64:-1 65:-1 66:-1 67:-1 69:-1 70:-1 72:-1 73:-1 74:-1 75:-1 76:-1 78:-1 
-21.898519043675289 -265.13963401268001 -512 -291.28429158410495 -512 -512 512 512 512 1:-1 2:-1 3:-1 6:-1 10:-1 14:-1 17:-1 26:-1 29:-1 34:-1 40:-1 41:-1 42:-0.333333 44:-1 46:-1 47:-1 48:-1 50:-1 51:-1 54:-1 55:-1 56:-1 57:-1 58:-1 59:-1 60:-1 61:-1 62:-1 63:-1 64:-1 65:-1 66:-1 67:-1 69:-1 70:-1 72:-1 73:-1 74:-1 75:-1 76:-1 78:-1 
-0 -174.17447747847385 -0 -0 -0 -512 0 512 0 1:-1 2:-1 3:-1 6:-1 10:-1 14:-1 17:-1 26:-1 29:-1 34:-1 40:-1 41:-1 42:-1 44:-1 46:-1 47:-1 48:-1 50:-1 51:-1 54:-1 55:-1 56:-1 57:-1 58:-1 59:-0.333333 60:-1 61:-1 62:-1 63:0.333333 64:-1 65:-1 66:-1 67:-1 69:-1 70:-1 72:-1 73:-1 74:-1 75:-1 76:-1 78:-1 
